{"learner":{"attributes":{},"feature_names":["book_imbalance_5","book_imbalance_10","book_imbalance_20","bid_depth_usd_5","ask_depth_usd_5","spread_pct","buy_vwap_deviation","sell_vwap_deviation","flow_imbalance_10s","flow_imbalance_30s","flow_imbalance_60s","flow_intensity_10s","flow_intensity_30s","trade_volume_10s_usd","trade_volume_30s_usd","price_change_10s","price_change_30s","price_change_60s","large_trade_imbalance","book_imbalance_delta_5s","book_imbalance_delta_10s","depth_ratio_change_5s","max_trade_usd_60s","trade_count_60s","trade_count_10s","book_imbalance_5_mean5","flow_imbalance_10s_mean5","price_change_10s_mean5","book_imbalance_5_mean10","flow_imbalance_10s_mean10","book_imbalance_5_std30","flow_imbalance_10s_std30","price_change_10s_std30","book_imbalance_5_slope60","flow_imbalance_10s_slope60","mid_price_slope60"],"feature_types":[],"gradient_booster":{"model":{"cats":{"enc":[],"feature_segments":[],"sorted_idx":[]},"gbtree_model_param":{"num_parallel_tree":"1","num_trees":"56"},"iteration_indptr":[0,1,2,3,4,5,6,7,8,9,10,11,12,13,14,15,16,17,18,19,20,21,22,23,24,25,26,27,28,29,30,31,32,33,34,35,36,37,38,39,40,41,42,43,44,45,46,47,48,49,50,51,52,53,54,55,56],"tree_info":[0,0,0,0,0,0,0,0,0,0,0,0,0,0,0,0,0,0,0,0,0,0,0,0,0,0,0,0,0,0,0,0,0,0,0,0,0,0,0,0,0,0,0,0,0,0,0,0,0,0,0,0,0,0,0,0],"trees":[{"base_weights":[-6.4430246E-4,-3.53776E-1,4.3088633E-1,-9.846739E-1,-2.0237106E-1,2.778683E-1,1.0661644E0,-1.9675714E0,-8.382361E-1,-3.7557212E-1,-8.9329116E-2,1.5772177E-1,4.132978E-1,9.6813196E-1,2.7082376E0,-3.5591464E0,-1.7734045E0,-1.1801493E0,-7.0991457E-1,-8.8677686E-1,-3.5550135E-1,-1.601747E-1,-3.3886194E-2,1.598165E-1,-2.0551164E-1,3.298242E-1,5.257493E-1,1.4458755E0,8.364802E-1,2.3571527E0,3.5791638E0,-1.13456026E-1,-1.9528063E-1,-1.0471503E-1,-7.453311E-2,-7.142014E-2,-5.280283E-2,-4.81402E-2,-3.265462E-2,-3.5551094E-2,-6.4512506E-2,-2.2953965E-2,-1.4837705E-2,-7.6827067E-3,-4.3552876E-2,-4.3829856E-3,1.9857676E-3,5.788611E-3,1.2669173E-2,1.6632225E-2,-7.273725E-2,2.5623918E-2,8.227932E-2,6.758191E-2,8.4628545E-2,3.97521E-2,6.935624E-2,6.2524445E-2,1.23667575E-1,1.9073333E-1,6.1989404E-2],"categories":[],"categories_nodes":[],"categories_segments":[],"categories_sizes":[],"default_left":[0,0,0,0,0,0,0,0,0,0,0,0,0,0,0,0,0,0,0,0,0,0,0,0,0,0,0,0,0,0,0,0,0,0,0,0,0,0,0,0,0,0,0,0,0,0,0,0,0,0,0,0,0,0,0,0,0,0,0,0,0],"id":0,"left_children":[1,3,5,7,9,11,13,15,17,19,21,23,25,27,29,31,33,35,37,39,41,43,45,47,-1,49,51,53,55,57,59,-1,-1,-1,-1,-1,-1,-1,-1,-1,-1,-1,-1,-1,-1,-1,-1,-1,-1,-1,-1,-1,-1,-1,-1,-1,-1,-1,-1,-1,-1],"loss_changes":[2.3082898E4,7.9571787E3,6.6264805E3,2.3189004E3,1.3153525E3,8.938696E2,2.1274775E3,6.39501E2,6.1488184E2,2.7190552E2,1.5967496E2,2.609405E2,2.4225049E2,7.8426074E2,2.1933545E2,9.225366E1,1.6605225E2,1.1642139E2,1.4603564E2,7.011224E1,1.5521753E2,8.259415E1,9.026886E1,1.1989624E2,0E0,7.51012E1,1.6265454E2,6.0402344E1,2.2234814E2,6.55542E1,1.1211499E2,0E0,0E0,0E0,0E0,0E0,0E0,0E0,0E0,0E0,0E0,0E0,0E0,0E0,0E0,0E0,0E0,0E0,0E0,0E0,0E0,0E0,0E0,0E0,0E0,0E0,0E0,0E0,0E0,0E0,0E0],"parents":[2147483647,0,0,1,1,2,2,3,3,4,4,5,5,6,6,7,7,8,8,9,9,10,10,11,11,12,12,13,13,14,14,15,15,16,16,17,17,18,18,19,19,20,20,21,21,22,22,23,23,25,25,26,26,27,27,28,28,29,29,30,30],"right_children":[2,4,6,8,10,12,14,16,18,20,22,24,26,28,30,32,34,36,38,40,42,44,46,48,-1,50,52,54,56,58,60,-1,-1,-1,-1,-1,-1,-1,-1,-1,-1,-1,-1,-1,-1,-1,-1,-1,-1,-1,-1,-1,-1,-1,-1,-1,-1,-1,-1,-1,-1],"split_conditions":[5.67574E-1,2.7854737E-2,9.7981685E-1,5.4901283E-2,1.762484E-1,8.3825654E-1,9.7504056E-1,7.718451E-3,2.8898926E-3,1.0217274E-1,3.3165404E-1,1.5309042E-1,1.4284137E0,2.7146755E3,9.925803E-1,-5.988477E-2,3.942624E3,1.0606888E3,1.1264903E-1,5.2E0,7.133703E-2,1.1019591E-1,1.4231867E-1,1.045055E0,-2.0551164E-1,3.1533333E1,9.437867E-1,9.293413E-1,9.437867E-1,-5.321678E0,7.6293707E0,-1.13456026E-1,-1.9528063E-1,-1.0471503E-1,-7.453311E-2,-7.142014E-2,-5.280283E-2,-4.81402E-2,-3.265462E-2,-3.5551094E-2,-6.4512506E-2,-2.2953965E-2,-1.4837705E-2,-7.6827067E-3,-4.3552876E-2,-4.3829856E-3,1.9857676E-3,5.788611E-3,1.2669173E-2,1.6632225E-2,-7.273725E-2,2.5623918E-2,8.227932E-2,6.758191E-2,8.4628545E-2,3.97521E-2,6.935624E-2,6.2524445E-2,1.23667575E-1,1.9073333E-1,6.1989404E-2],"split_indices":[0,0,0,2,0,0,2,2,0,2,0,16,21,4,2,33,3,3,2,12,0,17,21,21,0,12,2,2,2,35,35,0,0,0,0,0,0,0,0,0,0,0,0,0,0,0,0,0,0,0,0,0,0,0,0,0,0,0,0,0,0],"split_type":[0,0,0,0,0,0,0,0,0,0,0,0,0,0,0,0,0,0,0,0,0,0,0,0,0,0,0,0,0,0,0,0,0,0,0,0,0,0,0,0,0,0,0,0,0,0,0,0,0,0,0,0,0,0,0,0,0,0,0,0,0],"sum_hessian":[1.5147336E5,8.330395E4,6.816941E4,1.6121373E4,6.718258E4,5.493804E4,1.3231369E4,2.0888022E3,1.4032571E4,2.653056E4,4.0652016E4,2.9112766E4,2.5825271E4,1.2487453E4,7.4391614E2,2.2523485E2,1.8635675E3,3.8270854E3,1.0205485E4,1.0006519E3,2.5529908E4,1.7846137E4,2.280588E4,2.9099445E4,1.3319597E1,1.4824712E4,1.1000561E4,2.695592E3,9.791861E3,5.328301E2,2.1108609E2,4.9283386E1,1.7595146E2,8.6988806E2,9.9367944E2,1.2719589E3,2.5551265E3,1.8694562E3,8.336029E3,6.989484E2,3.0170346E2,9.237084E3,1.6292823E4,1.7685137E4,1.610008E2,1.3177886E4,9.627994E3,1.9787305E4,9.312141E3,1.4802133E4,2.2579227E1,1.0873162E4,1.2739802E2,1.9551897E3,7.404024E2,9.108829E3,6.83032E2,5.174812E1,4.8108194E2,1.9120685E2,1.987924E1],"tree_param":{"num_deleted":"0","num_feature":"36","num_nodes":"61","size_leaf_vector":"1"}},{"base_weights":[5.20225E-4,-3.5190427E-1,3.7993923E-1,-1.1135269E0,-2.4308302E-1,2.3998751E-1,1.0016228E0,-1.7935833E0,-9.0621203E-1,-4.4532385E-1,-1.2618838E-1,1.2712067E-1,3.8637492E-1,8.5159796E-1,1.8744383E0,-2.3095617E0,-1.6277171E0,-1.0599241E0,-7.714702E-1,-6.5773004E-1,-3.9067587E-1,-2.0148669E-1,-6.0420666E-2,1.2892695E-1,-2.4587054E0,3.604604E-1,7.4643284E-1,7.414668E-1,1.1327938E0,1.7023312E0,2.2929788E0,-1.2358476E-1,-7.862501E-2,-7.994035E-2,-1.6774988E-1,-4.6788942E-2,-6.494088E-2,-4.5804497E-2,-3.0438408E-2,-3.2412715E-2,-1.5745035E-1,-1.2875505E-2,-2.2167517E-2,-9.96946E-3,-1.6226946E-1,-5.2767694E-3,4.2759042E-4,3.1974397E-3,9.6371835E-3,-2.1316305E-1,-1.745137E-2,1.4100376E-2,2.2200825E-2,2.6114155E-2,4.494762E-2,5.4676134E-2,3.500421E-2,7.360172E-2,5.113829E-2,8.1674986E-2,1.2610307E-1,1.2643199E-1,8.532498E-2],"categories":[],"categories_nodes":[],"categories_segments":[],"categories_sizes":[],"default_left":[0,0,0,0,0,0,0,0,0,0,0,0,0,0,0,0,0,0,0,0,0,0,0,0,0,0,0,0,0,0,0,0,0,0,0,0,0,0,0,0,0,0,0,0,0,0,0,0,0,0,0,0,0,0,0,0,0,0,0,0,0,0,0],"id":1,"left_children":[1,3,5,7,9,11,13,15,17,19,21,23,25,27,29,31,33,35,37,39,41,43,45,47,49,51,53,55,57,59,61,-1,-1,-1,-1,-1,-1,-1,-1,-1,-1,-1,-1,-1,-1,-1,-1,-1,-1,-1,-1,-1,-1,-1,-1,-1,-1,-1,-1,-1,-1,-1,-1],"loss_changes":[2.035228E4,6.5398E3,6.3768623E3,1.3891738E3,1.632241E3,9.884529E2,1.7619316E3,1.9339746E2,1.5580518E2,2.9329883E2,2.1667908E2,1.581098E2,2.4275854E2,3.5511914E2,1.3833105E2,6.2796875E1,8.185742E1,1.0346753E2,9.434839E1,1.2009204E2,1.4099707E2,1.2959723E2,7.268291E1,1.3998364E2,8.848004E1,1.5916064E2,5.9283325E1,1.1960791E2,1.1916699E2,7.504663E1,7.480713E1,0E0,0E0,0E0,0E0,0E0,0E0,0E0,0E0,0E0,0E0,0E0,0E0,0E0,0E0,0E0,0E0,0E0,0E0,0E0,0E0,0E0,0E0,0E0,0E0,0E0,0E0,0E0,0E0,0E0,0E0,0E0,0E0],"parents":[2147483647,0,0,1,1,2,2,3,3,4,4,5,5,6,6,7,7,8,8,9,9,10,10,11,11,12,12,13,13,14,14,15,15,16,16,17,17,18,18,19,19,20,20,21,21,22,22,23,23,24,24,25,25,26,26,27,27,28,28,29,29,30,30],"right_children":[2,4,6,8,10,12,14,16,18,20,22,24,26,28,30,32,34,36,38,40,42,44,46,48,50,52,54,56,58,60,62,-1,-1,-1,-1,-1,-1,-1,-1,-1,-1,-1,-1,-1,-1,-1,-1,-1,-1,-1,-1,-1,-1,-1,-1,-1,-1,-1,-1,-1,-1,-1,-1],"split_conditions":[5.181076E-1,3.9594837E-2,9.7981685E-1,4.680544E-3,1.222709E-1,8.3825654E-1,9.963779E-1,4.517683E-4,1.9579161E-2,3.0895895E4,2.8104374E-1,1.5309042E-1,9.536896E-1,9.8121333E-1,9.996252E-1,2.671952E-2,8.79618E-2,5.2E0,-1.206405E-1,1.1171329E1,1.2722738E-1,1.4076923E1,4.22463E-2,6.895797E-1,4.7089847E5,4.7218144E-2,3.522867E-2,2.1053472E3,2.7146755E3,1.1973013E7,3.5574783E-2,-1.2358476E-1,-7.862501E-2,-7.994035E-2,-1.6774988E-1,-4.6788942E-2,-6.494088E-2,-4.5804497E-2,-3.0438408E-2,-3.2412715E-2,-1.5745035E-1,-1.2875505E-2,-2.2167517E-2,-9.96946E-3,-1.6226946E-1,-5.2767694E-3,4.2759042E-4,3.1974397E-3,9.6371835E-3,-2.1316305E-1,-1.745137E-2,1.4100376E-2,2.2200825E-2,2.6114155E-2,4.494762E-2,5.4676134E-2,3.500421E-2,7.360172E-2,5.113829E-2,8.1674986E-2,1.2610307E-1,1.2643199E-1,8.532498E-2],"split_indices":[25,1,25,1,25,25,1,1,1,3,25,16,1,1,1,32,16,11,20,35,30,35,19,25,4,19,20,4,4,3,17,0,0,0,0,0,0,0,0,0,0,0,0,0,0,0,0,0,0,0,0,0,0,0,0,0,0,0,0,0,0,0,0],"split_type":[0,0,0,0,0,0,0,0,0,0,0,0,0,0,0,0,0,0,0,0,0,0,0,0,0,0,0,0,0,0,0,0,0,0,0,0,0,0,0,0,0,0,0,0,0,0,0,0,0,0,0,0,0,0,0,0,0,0,0,0,0,0,0],"sum_hessian":[1.5220264E5,7.89084E4,7.3294234E4,9.863824E3,6.904458E4,5.982743E4,1.3466804E4,2.3026797E3,7.561145E3,2.5288984E4,4.375559E4,3.37825E4,2.6044932E4,1.149325E4,1.9735536E3,5.570082E2,1.7456715E3,3.5287354E3,4.0324097E3,5.1726924E3,2.0116291E4,2.039874E4,2.335685E4,3.3759867E4,2.263208E1,2.429812E4,1.7468126E3,8.261318E3,3.2319314E3,1.4020762E3,5.714775E2,4.5464517E2,1.02363E2,1.7188285E3,2.6843039E1,2.3252788E3,1.2034567E3,2.1323833E3,1.9000264E3,5.1543477E3,1.8344648E1,5.703419E3,1.4412873E4,2.038576E4,1.2982017E1,1.412028E4,9.236569E3,1.6728709E4,1.7031158E4,1.1647957E1,1.0984124E1,1.2534007E4,1.1764112E4,7.0910425E2,1.0377084E3,8.66268E2,7.395051E3,7.884837E2,2.4434478E3,1.2962266E3,1.05849625E2,4.0530487E2,1.6617259E2],"tree_param":{"num_deleted":"0","num_feature":"36","num_nodes":"63","size_leaf_vector":"1"}},{"base_weights":[-2.745458E-4,-3.3622688E-1,3.6130652E-1,-1.0220481E0,-2.2477482E-1,2.1057041E-1,8.673299E-1,-1.6499945E0,-8.4731424E-1,-4.4338876E-1,-1.3010319E-1,1.222064E-1,3.4209394E-1,7.213842E-1,1.5979333E0,-1.9347385E0,-1.3476298E0,-1.0210493E0,-7.2546214E-1,-3.1533828E-1,-5.1208115E-1,-2.3481679E-1,-7.3155366E-2,1.2396707E-1,-2.6572342E0,3.4448972E-1,-1.4089282E-1,6.22524E-1,9.185388E-1,1.3507261E0,1.9026E0,-1.1647805E-1,-9.063446E-2,-6.6378035E-2,-1.5595484E-1,-5.048844E-2,-1.9723885E-1,-4.231987E-2,-2.7825236E-2,-2.17984E-2,-1.2993692E-2,-3.189638E-2,-2.2083743E-2,-1.1358654E-2,-5.1992357E-2,-6.646875E-3,-8.166196E-4,3.1482656E-3,9.164307E-3,-2.0460878E-1,-4.573692E-2,1.2629986E-2,2.0334141E-2,2.864838E-2,4.145309E-2,4.3571863E-2,6.5841824E-2,5.089856E-2,7.274934E-2,8.908029E-2,1.1557168E-1],"categories":[],"categories_nodes":[],"categories_segments":[],"categories_sizes":[],"default_left":[0,0,0,0,0,0,0,0,0,0,0,0,0,0,0,0,0,0,0,0,0,0,0,0,0,0,0,0,0,0,0,0,0,0,0,0,0,0,0,0,0,0,0,0,0,0,0,0,0,0,0,0,0,0,0,0,0,0,0,0,0],"id":2,"left_children":[1,3,5,7,9,11,13,15,17,19,21,23,25,27,29,31,33,35,37,39,41,43,45,47,49,51,-1,53,55,57,59,-1,-1,-1,-1,-1,-1,-1,-1,-1,-1,-1,-1,-1,-1,-1,-1,-1,-1,-1,-1,-1,-1,-1,-1,-1,-1,-1,-1,-1,-1],"loss_changes":[1.8579215E4,6.059925E3,5.61863E3,1.2146602E3,1.4114858E3,6.596028E2,1.801584E3,2.0501953E2,1.8285303E2,1.8112183E2,2.837926E2,1.6647525E2,1.7364307E2,2.7412256E2,2.0937988E2,5.551465E1,3.7557373E1,1.1384595E2,1.0375195E2,4.8048523E1,1.1855444E2,1.0292645E2,1.04724976E2,1.2276849E2,5.010916E1,1.301521E2,0E0,9.563208E1,8.7115234E1,5.253711E1,5.8117188E1,0E0,0E0,0E0,0E0,0E0,0E0,0E0,0E0,0E0,0E0,0E0,0E0,0E0,0E0,0E0,0E0,0E0,0E0,0E0,0E0,0E0,0E0,0E0,0E0,0E0,0E0,0E0,0E0,0E0,0E0],"parents":[2147483647,0,0,1,1,2,2,3,3,4,4,5,5,6,6,7,7,8,8,9,9,10,10,11,11,12,12,13,13,14,14,15,15,16,16,17,17,18,18,19,19,20,20,21,21,22,22,23,23,24,24,25,25,27,27,28,28,29,29,30,30],"right_children":[2,4,6,8,10,12,14,16,18,20,22,24,26,28,30,32,34,36,38,40,42,44,46,48,50,52,-1,54,56,58,60,-1,-1,-1,-1,-1,-1,-1,-1,-1,-1,-1,-1,-1,-1,-1,-1,-1,-1,-1,-1,-1,-1,-1,-1,-1,-1,-1,-1,-1,-1],"split_conditions":[5.181076E-1,4.526032E-2,9.6810645E-1,4.680544E-3,9.8595865E-2,8.3825654E-1,9.935928E-1,1.6172393E-3,1.9579161E-2,2.0649733E-1,2.1756314E-1,1.5309042E-1,1.5309042E-1,9.682394E-1,9.984453E-1,1.5307708E-4,1.0513115E-1,1.1171329E1,-2.3926033E-2,-7.6250434E-2,2.7854737E-2,7.746503E-2,-1.0206608E-2,6.895797E-1,1.0779989E-1,3.8067248E-2,-1.4089282E-1,9.959196E-1,9.9976593E-1,3.2933226E-3,9.998807E-1,-1.1647805E-1,-9.063446E-2,-6.6378035E-2,-1.5595484E-1,-5.048844E-2,-1.9723885E-1,-4.231987E-2,-2.7825236E-2,-2.17984E-2,-1.2993692E-2,-3.189638E-2,-2.2083743E-2,-1.1358654E-2,-5.1992357E-2,-6.646875E-3,-8.166196E-4,3.1482656E-3,9.164307E-3,-2.0460878E-1,-4.573692E-2,1.2629986E-2,2.0334141E-2,2.864838E-2,4.145309E-2,4.3571863E-2,6.5841824E-2,5.089856E-2,7.274934E-2,8.908029E-2,1.1557168E-1],"split_indices":[0,1,0,1,0,0,1,1,1,30,0,16,16,1,1,1,16,35,19,20,0,16,19,0,20,20,0,0,0,19,1,0,0,0,0,0,0,0,0,0,0,0,0,0,0,0,0,0,0,0,0,0,0,0,0,0,0,0,0,0,0],"split_type":[0,0,0,0,0,0,0,0,0,0,0,0,0,0,0,0,0,0,0,0,0,0,0,0,0,0,0,0,0,0,0,0,0,0,0,0,0,0,0,0,0,0,0,0,0,0,0,0,0,0,0,0,0,0,0,0,0,0,0,0,0],"sum_hessian":[1.5294608E5,7.928284E4,7.3663234E4,1.1081928E4,6.8200914E4,5.6757516E4,1.690572E4,2.4105652E3,8.671362E3,2.060849E4,4.7592426E4,3.395009E4,2.2807424E4,1.4092569E4,2.8131506E3,1.238676E3,1.1718892E3,3.571619E3,5.0997437E3,7.197364E3,1.3411127E4,1.6764092E4,3.0828332E4,3.3929555E4,2.053771E1,2.2791035E4,1.6388536E1,9.388836E3,4.7037334E3,1.5560239E3,1.2571266E3,2.882187E2,9.504573E2,1.1604913E3,1.1397917E1,3.559232E3,1.238713E1,2.9699346E3,2.129809E3,2.2647954E3,4.9325684E3,4.8083936E3,8.602733E3,1.6607686E4,1.5640685E2,1.502234E4,1.5805992E4,1.6728543E4,1.7201012E4,1.0523322E1,1.0014387E1,9.201268E3,1.3589768E4,7.575059E3,1.813777E3,4.209158E3,4.9457538E2,3.7379492E2,1.182229E3,9.7417676E2,2.829499E2],"tree_param":{"num_deleted":"0","num_feature":"36","num_nodes":"61","size_leaf_vector":"1"}},{"base_weights":[-1.5853655E-4,-3.059946E-1,3.5270536E-1,-8.0282664E-1,-1.741166E-1,2.3957667E-1,9.294056E-1,-1.5720164E0,-6.863726E-1,-2.9583374E-1,-6.40098E-2,1.4262083E-1,3.9225602E-1,8.366897E-1,2.184184E0,-2.7611682E0,-1.4209888E0,-9.2451966E-1,-5.554198E-1,-2.9333454E-1,-3.4289303E0,-1.1338041E-1,-1.7152352E-2,6.9394834E-2,1.9584344E-1,3.199625E-1,5.1042706E-1,7.105322E-1,1.1478708E0,1.8393021E0,3.0129027E0,-2.1575914E-1,-1.256856E-1,-8.876203E-2,-6.334376E-2,-5.0262332E-2,-3.5256345E-2,-3.171995E-2,-2.0742E-2,-3.6557384E-2,-1.3841934E-2,-5.5479247E-2,-2.6051047E-1,-5.493566E-3,-7.0322156E-2,-4.589261E-3,6.160405E-4,3.6020044E-3,-7.072493E-2,9.876842E-3,-1.14568256E-1,1.2838322E-2,2.0948142E-2,2.460802E-2,7.040932E-2,3.2652937E-2,4.7115635E-2,5.786652E-2,-4.1634064E-2,4.6559017E-2,9.6237436E-2,1.628903E-1,6.687421E-2],"categories":[],"categories_nodes":[],"categories_segments":[],"categories_sizes":[],"default_left":[0,0,0,0,0,0,0,0,0,0,0,0,0,0,0,0,0,0,0,0,0,0,0,0,0,0,0,0,0,0,0,0,0,0,0,0,0,0,0,0,0,0,0,0,0,0,0,0,0,0,0,0,0,0,0,0,0,0,0,0,0,0,0],"id":3,"left_children":[1,3,5,7,9,11,13,15,17,19,21,23,25,27,29,31,33,35,37,39,41,43,45,47,49,51,53,55,57,59,61,-1,-1,-1,-1,-1,-1,-1,-1,-1,-1,-1,-1,-1,-1,-1,-1,-1,-1,-1,-1,-1,-1,-1,-1,-1,-1,-1,-1,-1,-1,-1,-1],"loss_changes":[1.6516084E4,5.371571E3,4.6356895E3,1.5393232E3,8.682705E2,8.793413E2,1.353835E3,4.0203906E2,4.653203E2,2.3994434E2,7.869455E1,1.4159375E2,1.9694214E2,4.2523584E2,2.2343945E2,8.670288E1,1.0736499E2,9.312549E1,1.0677075E2,2.2186426E2,9.516055E1,7.5007034E1,3.8394943E1,6.013913E1,8.907245E1,8.946875E1,1.4289185E2,1.0228662E2,5.9586426E1,4.2305298E1,9.160254E1,0E0,0E0,0E0,0E0,0E0,0E0,0E0,0E0,0E0,0E0,0E0,0E0,0E0,0E0,0E0,0E0,0E0,0E0,0E0,0E0,0E0,0E0,0E0,0E0,0E0,0E0,0E0,0E0,0E0,0E0,0E0,0E0],"parents":[2147483647,0,0,1,1,2,2,3,3,4,4,5,5,6,6,7,7,8,8,9,9,10,10,11,11,12,12,13,13,14,14,15,15,16,16,17,17,18,18,19,19,20,20,21,21,22,22,23,23,24,24,25,25,26,26,27,27,28,28,29,29,30,30],"right_children":[2,4,6,8,10,12,14,16,18,20,22,24,26,28,30,32,34,36,38,40,42,44,46,48,50,52,54,56,58,60,62,-1,-1,-1,-1,-1,-1,-1,-1,-1,-1,-1,-1,-1,-1,-1,-1,-1,-1,-1,-1,-1,-1,-1,-1,-1,-1,-1,-1,-1,-1,-1,-1],"split_conditions":[5.468447E-1,2.997629E-2,9.859165E-1,5.4901283E-2,2.1218707E-1,8.750747E-1,9.7504056E-1,7.718451E-3,4.6972265E-3,8.9367434E-2,-4.0861648E-2,7.025613E-1,3.5305731E0,9.988641E-1,9.925803E-1,8.221248E-2,2.5448162E-2,2.0103192E-1,-4.344921E-1,1.0750231E-1,7.36E2,5.8382336E-2,2.9970095E-1,1.2099378E-1,1.5309042E-1,2.14E2,9.3642247E-1,9.028664E-1,1.1171329E1,-5.321678E0,4.1148487E-2,-2.1575914E-1,-1.256856E-1,-8.876203E-2,-6.334376E-2,-5.0262332E-2,-3.5256345E-2,-3.171995E-2,-2.0742E-2,-3.6557384E-2,-1.3841934E-2,-5.5479247E-2,-2.6051047E-1,-5.493566E-3,-7.0322156E-2,-4.589261E-3,6.160405E-4,3.6020044E-3,-7.072493E-2,9.876842E-3,-1.14568256E-1,1.2838322E-2,2.0948142E-2,2.460802E-2,7.040932E-2,3.2652937E-2,4.7115635E-2,5.786652E-2,-4.1634064E-2,4.6559017E-2,9.6237436E-2,1.628903E-1,6.687421E-2],"split_indices":[0,0,0,2,0,0,2,2,0,15,21,0,21,0,2,18,2,2,21,2,23,32,0,16,16,23,2,2,35,35,32,0,0,0,0,0,0,0,0,0,0,0,0,0,0,0,0,0,0,0,0,0,0,0,0,0,0,0,0,0,0,0,0],"split_type":[0,0,0,0,0,0,0,0,0,0,0,0,0,0,0,0,0,0,0,0,0,0,0,0,0,0,0,0,0,0,0,0,0,0,0,0,0,0,0,0,0,0,0,0,0,0,0,0,0,0,0,0,0,0,0,0,0,0,0,0,0,0,0],"sum_hessian":[1.5304019E5,8.198331E4,7.105688E4,1.7195725E4,6.478759E4,5.940507E4,1.1651809E4,2.259437E3,1.4936287E4,3.0770627E4,3.401696E4,3.6333914E4,2.3071158E4,1.0851645E4,8.00164E2,2.5267308E2,2.0067639E3,5.2970884E3,9.639199E3,3.0747193E4,2.3432804E1,1.6563584E4,1.7453377E4,1.5294027E4,2.1039885E4,1.4316473E4,8.754686E3,7.7236455E3,3.1279993E3,5.672959E2,2.328681E2,3.2450058E1,2.2022302E2,6.051717E2,1.4015922E3,3.869645E3,1.4274432E3,6.1695635E3,3.4696355E3,1.1148517E3,2.9632342E4,1.0884007E1,1.2548797E1,1.6519838E4,4.37464E1,4.9405776E3,1.25128E4,1.5267763E4,2.6265554E1,2.102649E4,1.339501E1,8.740583E3,5.5758896E3,8.581624E3,1.7306152E2,6.19205E3,1.5315956E3,3.113544E3,1.4455314E1,4.981052E1,5.1748535E2,2.0234584E2,3.0522264E1],"tree_param":{"num_deleted":"0","num_feature":"36","num_nodes":"63","size_leaf_vector":"1"}},{"base_weights":[9.8237026E-5,-3.025674E-1,3.2569507E-1,-9.3720704E-1,-2.0913498E-1,2.0750378E-1,8.341251E-1,-1.4231294E0,-7.7708143E-1,-3.8045746E-1,-1.0928054E-1,1.2867638E-1,3.6857522E-1,7.036145E-1,1.426903E0,-1.7772423E0,-1.3019582E0,-9.2533827E-1,-6.451168E-1,-4.7581995E-1,-2.8481832E-1,-1.8813044E-1,-6.738716E-2,6.760075E-2,1.9260873E-1,2.8884903E-1,4.6454498E-1,5.9032077E-1,8.64306E-1,1.2481487E0,1.7078134E0,-1.0204779E-1,-7.636554E-2,-6.347319E-2,-1.5847215E-1,-4.5781646E-2,-1.7500514E-1,-3.7767556E-2,-2.163173E-2,-2.9940253E-2,-2.0332366E-2,-9.846286E-3,-1.7604135E-2,-8.966104E-3,-3.54075E-2,-6.2550316E-3,-6.030591E-4,3.4619663E-3,-1.1053143E-1,9.720385E-3,-1.0042914E-1,1.063441E-2,1.8495882E-2,2.028315E-2,3.1944737E-2,2.3354268E-2,3.3946432E-2,6.007276E-2,4.003066E-2,4.607589E-2,6.773049E-2,8.2816005E-2,1.5713349E-1],"categories":[],"categories_nodes":[],"categories_segments":[],"categories_sizes":[],"default_left":[0,0,0,0,0,0,0,0,0,0,0,0,0,0,0,0,0,0,0,0,0,0,0,0,0,0,0,0,0,0,0,0,0,0,0,0,0,0,0,0,0,0,0,0,0,0,0,0,0,0,0,0,0,0,0,0,0,0,0,0,0,0,0],"id":4,"left_children":[1,3,5,7,9,11,13,15,17,19,21,23,25,27,29,31,33,35,37,39,41,43,45,47,49,51,53,55,57,59,61,-1,-1,-1,-1,-1,-1,-1,-1,-1,-1,-1,-1,-1,-1,-1,-1,-1,-1,-1,-1,-1,-1,-1,-1,-1,-1,-1,-1,-1,-1,-1,-1],"loss_changes":[1.5119E4,4.7143906E3,4.4412134E3,7.927783E2,1.1856223E3,7.6138794E2,1.0774697E3,1.06143555E2,1.4958887E2,2.3262036E2,1.4463177E2,1.5721613E2,1.5063428E2,2.0751953E2,1.2412793E2,3.9175903E1,1.10484375E2,8.707349E1,9.4878784E1,1.0845459E2,7.52749E1,6.9461365E1,9.130957E1,7.703496E1,7.8292114E1,6.639325E1,9.151868E1,7.289868E1,1.00457275E2,5.2313965E1,6.683984E1,0E0,0E0,0E0,0E0,0E0,0E0,0E0,0E0,0E0,0E0,0E0,0E0,0E0,0E0,0E0,0E0,0E0,0E0,0E0,0E0,0E0,0E0,0E0,0E0,0E0,0E0,0E0,0E0,0E0,0E0,0E0,0E0],"parents":[2147483647,0,0,1,1,2,2,3,3,4,4,5,5,6,6,7,7,8,8,9,9,10,10,11,11,12,12,13,13,14,14,15,15,16,16,17,17,18,18,19,19,20,20,21,21,22,22,23,23,24,24,25,25,26,26,27,27,28,28,29,29,30,30],"right_children":[2,4,6,8,10,12,14,16,18,20,22,24,26,28,30,32,34,36,38,40,42,44,46,48,50,52,54,56,58,60,62,-1,-1,-1,-1,-1,-1,-1,-1,-1,-1,-1,-1,-1,-1,-1,-1,-1,-1,-1,-1,-1,-1,-1,-1,-1,-1,-1,-1,-1,-1,-1,-1],"split_conditions":[5.181076E-1,3.9594837E-2,9.7981685E-1,4.680544E-3,1.222709E-1,8.834E-1,9.9511117E-1,4.517683E-4,1.9579161E-2,-5.614399E-1,-4.1750744E-1,7.275318E-1,1.4284137E0,9.682394E-1,9.991157E-1,4.0743858E-1,8.79618E-2,1.1171329E1,-4.0089753E-1,4.1974816E4,4.7751893E-3,1.1019591E-1,2.9970095E-1,2.1496353E-1,1.5309042E-1,1.406761E4,9.206264E-1,8.197319E0,1.3266177E3,4.006983E-3,4.4937424E-5,-1.0204779E-1,-7.636554E-2,-6.347319E-2,-1.5847215E-1,-4.5781646E-2,-1.7500514E-1,-3.7767556E-2,-2.163173E-2,-2.9940253E-2,-2.0332366E-2,-9.846286E-3,-1.7604135E-2,-8.966104E-3,-3.54075E-2,-6.2550316E-3,-6.030591E-4,3.4619663E-3,-1.1053143E-1,9.720385E-3,-1.0042914E-1,1.063441E-2,1.8495882E-2,2.028315E-2,3.1944737E-2,2.3354268E-2,3.3946432E-2,6.007276E-2,4.003066E-2,4.607589E-2,6.773049E-2,8.2816005E-2,1.5713349E-1],"split_indices":[0,1,0,1,0,0,1,1,1,21,21,0,21,1,1,8,16,35,21,3,32,17,0,17,16,13,1,21,4,19,5,0,0,0,0,0,0,0,0,0,0,0,0,0,0,0,0,0,0,0,0,0,0,0,0,0,0,0,0,0,0,0,0],"split_type":[0,0,0,0,0,0,0,0,0,0,0,0,0,0,0,0,0,0,0,0,0,0,0,0,0,0,0,0,0,0,0,0,0,0,0,0,0,0,0,0,0,0,0,0,0,0,0,0,0,0,0,0,0,0,0,0,0,0,0,0,0,0,0],"sum_hessian":[1.5341723E5,7.950848E4,7.3908766E4,1.0202045E4,6.930643E4,5.9969473E4,1.3939289E4,2.5266628E3,7.6753823E3,2.5519404E4,4.3787023E4,4.0265555E4,1.970392E4,1.1425867E4,2.5134219E3,6.406758E2,1.885987E3,3.6117354E3,4.063647E3,1.2776194E4,1.274321E4,1.5191239E4,2.8595785E4,2.0593906E4,1.9671648E4,1.0764992E4,8.938928E3,6.703978E3,4.721889E3,1.5393292E3,9.740926E2,3.0825574E2,3.3242004E2,1.8553829E3,3.0604155E1,3.599523E3,1.2212438E1,2.6738945E3,1.3897523E3,4.596397E3,8.1797974E3,5.5261978E3,7.217012E3,1.4939531E4,2.5170868E2,1.3995292E4,1.4600492E4,2.0580074E4,1.3832255E1,1.9656494E4,1.5153052E1,5.552374E3,5.212618E3,6.6846807E3,2.254247E3,2.8067014E3,3.8972764E3,7.4745795E2,3.974431E3,3.8076578E2,1.1585635E3,9.424257E2,3.1666897E1],"tree_param":{"num_deleted":"0","num_feature":"36","num_nodes":"63","size_leaf_vector":"1"}},{"base_weights":[6.58248E-5,-2.8729594E-1,3.0285436E-1,-8.272303E-1,-1.8609118E-1,2.2293605E-1,9.63975E-1,-1.5631732E0,-7.119324E-1,-3.389064E-1,-9.9309295E-2,1.3658792E-1,4.2417732E-1,8.4363157E-1,1.9182833E0,-2.0650635E0,-1.296874E0,-9.6858156E-1,-6.001249E-1,-5.138022E-1,-2.9895198E-1,-1.8417507E-1,-6.4128675E-2,6.1364323E-2,2.0368636E-1,5.976737E-1,3.6480084E-1,1.1259458E0,7.4232334E-1,1.6545442E0,2.5939586E0,-9.910491E-2,-1.5543292E-1,-8.129073E-2,-5.6581337E-2,-4.7877107E-2,-1.736795E-1,-3.6341876E-2,-2.3345478E-2,-2.5199642E-2,-1.3982077E-1,-8.920401E-3,-1.7311987E-2,-6.35162E-2,-8.802292E-3,-5.8473945E-3,-1.0840424E-3,3.139997E-3,-9.513926E-2,5.4392205E-3,1.2085519E-2,3.47779E-2,2.4697214E-2,1.08733475E-2,2.0135956E-2,2.3056203E-2,5.822162E-2,3.3286076E-2,4.7965124E-2,7.600445E-2,1.068105E-1,2.2225995E-1,1.229374E-1],"categories":[],"categories_nodes":[],"categories_segments":[],"categories_sizes":[],"default_left":[0,0,0,0,0,0,0,0,0,0,0,0,0,0,0,0,0,0,0,0,0,0,0,0,0,0,0,0,0,0,0,0,0,0,0,0,0,0,0,0,0,0,0,0,0,0,0,0,0,0,0,0,0,0,0,0,0,0,0,0,0,0,0],"id":5,"left_children":[1,3,5,7,9,11,13,15,17,19,21,23,25,27,29,31,33,35,37,39,41,43,45,47,49,51,53,55,57,59,61,-1,-1,-1,-1,-1,-1,-1,-1,-1,-1,-1,-1,-1,-1,-1,-1,-1,-1,-1,-1,-1,-1,-1,-1,-1,-1,-1,-1,-1,-1,-1,-1],"loss_changes":[1.33851875E4,4.312799E3,3.957546E3,1.0560371E3,8.8147314E2,1.161231E3,9.2611426E2,2.2274756E2,3.085537E2,1.6808057E2,1.2656836E2,2.3603271E2,2.0648438E2,2.043833E2,1.567732E2,4.4315918E1,5.8204956E1,8.703125E1,1.26372314E2,9.880591E1,1.1166565E2,1.0947592E2,6.719953E1,6.2293716E1,8.9167725E1,5.1586304E1,8.344141E1,4.7897217E1,8.717651E1,3.903296E1,5.214502E1,0E0,0E0,0E0,0E0,0E0,0E0,0E0,0E0,0E0,0E0,0E0,0E0,0E0,0E0,0E0,0E0,0E0,0E0,0E0,0E0,0E0,0E0,0E0,0E0,0E0,0E0,0E0,0E0,0E0,0E0,0E0,0E0],"parents":[2147483647,0,0,1,1,2,2,3,3,4,4,5,5,6,6,7,7,8,8,9,9,10,10,11,11,12,12,13,13,14,14,15,15,16,16,17,17,18,18,19,19,20,20,21,21,22,22,23,23,24,24,25,25,26,26,27,27,28,28,29,29,30,30],"right_children":[2,4,6,8,10,12,14,16,18,20,22,24,26,28,30,32,34,36,38,40,42,44,46,48,50,52,54,56,58,60,62,-1,-1,-1,-1,-1,-1,-1,-1,-1,-1,-1,-1,-1,-1,-1,-1,-1,-1,-1,-1,-1,-1,-1,-1,-1,-1,-1,-1,-1,-1,-1,-1],"split_conditions":[5.111323E-1,5.0942104E-2,9.682394E-1,4.1155092E-2,1.2656079E-1,9.1758263E-1,9.7504056E-1,1.7097138E-2,1.3020342E-2,3.0895895E4,2.6560152E-1,7.3358166E-1,2.5279389E4,2.1053472E3,9.925803E-1,5.013783E5,2.9296875E-1,1.1171329E1,-1.3653296E-1,1.1171329E1,1.2993076E-1,-5.545779E-4,-8.812493E-2,1.5309042E-1,1.2722738E-1,9.550781E-1,9.2120335E-2,1.9888615E-2,9.91911E-1,1.4463303E-5,9.965639E-1,-9.910491E-2,-1.5543292E-1,-8.129073E-2,-5.6581337E-2,-4.7877107E-2,-1.736795E-1,-3.6341876E-2,-2.3345478E-2,-2.5199642E-2,-1.3982077E-1,-8.920401E-3,-1.7311987E-2,-6.35162E-2,-8.802292E-3,-5.8473945E-3,-1.0840424E-3,3.139997E-3,-9.513926E-2,5.4392205E-3,1.2085519E-2,3.47779E-2,2.4697214E-2,1.08733475E-2,2.0135956E-2,2.3056203E-2,5.822162E-2,3.3286076E-2,4.7965124E-2,7.600445E-2,1.068105E-1,2.2225995E-1,1.229374E-1],"split_indices":[0,1,1,2,0,0,2,2,1,3,1,0,4,4,2,22,29,35,20,35,30,6,20,16,30,28,30,9,1,5,0,0,0,0,0,0,0,0,0,0,0,0,0,0,0,0,0,0,0,0,0,0,0,0,0,0,0,0,0,0,0,0,0],"split_type":[0,0,0,0,0,0,0,0,0,0,0,0,0,0,0,0,0,0,0,0,0,0,0,0,0,0,0,0,0,0,0,0,0,0,0,0,0,0,0,0,0,0,0,0,0,0,0,0,0,0,0,0,0,0,0,0,0,0,0,0,0,0,0],"sum_hessian":[1.5383333E5,7.892733E4,7.490601E4,1.2457663E4,6.6469664E4,6.682886E4,8.0771426E3,1.6856494E3,1.0772014E4,2.4074207E4,4.2395457E4,4.676481E4,2.0064055E4,7.1743076E3,9.0283496E2,5.820027E2,1.1036467E3,3.2664236E3,7.5055903E3,4.4747344E3,1.9599473E4,1.2423108E4,2.9972348E4,2.2048404E4,2.4716404E4,5.113496E3,1.4950559E4,1.8919432E3,5.2823647E3,6.51846E2,2.5098894E2,5.41827E2,4.0175636E1,3.660836E2,7.375632E2,3.253468E3,1.2955644E1,3.8443962E3,3.6611938E3,4.4568022E3,1.7931826E1,5.5236323E3,1.407584E4,9.1136154E1,1.2331973E4,1.3353899E4,1.6618447E4,2.2033268E4,1.5136328E1,7.0713325E3,1.7645072E4,2.627937E3,2.485559E3,3.0615295E3,1.1889029E4,1.0424159E2,1.7877017E3,3.907084E3,1.3752805E3,5.128435E2,1.3900249E2,1.4914197E1,2.3607474E2],"tree_param":{"num_deleted":"0","num_feature":"36","num_nodes":"63","size_leaf_vector":"1"}},{"base_weights":[-7.438319E-4,-2.2857952E-1,3.4897965E-1,-6.0476035E-1,-1.019807E-1,2.4117412E-1,7.88461E-1,-9.831568E-1,-4.80416E-1,-1.9811152E-1,-1.5576031E-2,1.7063433E-1,3.8132256E-1,1.1300579E0,6.696985E-1,-1.197936E0,-8.433123E-1,-1.1786586E0,-4.6667597E-1,-2.6935107E-1,-1.4049184E-1,-5.9660435E-2,4.8529364E-2,8.473149E-2,2.0524901E-1,2.8781724E-1,4.765482E-1,9.2736727E-1,1.2537498E0,4.7139424E-1,7.279039E-1,-1.2630591E-1,-5.8975328E-2,-4.7039E-2,-3.34577E-2,-8.963134E-2,-4.4199545E-2,-2.9632358E-2,-1.9993942E-2,-1.3317115E-2,-9.687392E-2,-1.3240351E-2,-4.7578276E-3,-2.847188E-3,-7.1843594E-2,-7.900222E-2,2.4876827E-3,-7.34502E-4,5.8894176E-3,1.0346197E-2,-7.00754E-2,9.149342E-3,1.7128758E-2,2.1984981E-2,3.1489223E-2,3.2839846E-2,5.1868297E-2,6.452506E-2,3.6731716E-2,1.4896377E-2,2.7872328E-2,3.7779406E-2,1.89002E-2],"categories":[],"categories_nodes":[],"categories_segments":[],"categories_sizes":[],"default_left":[0,0,0,0,0,0,0,0,0,0,0,0,0,0,0,0,0,0,0,0,0,0,0,0,0,0,0,0,0,0,0,0,0,0,0,0,0,0,0,0,0,0,0,0,0,0,0,0,0,0,0,0,0,0,0,0,0,0,0,0,0,0,0],"id":6,"left_children":[1,3,5,7,9,11,13,15,17,19,21,23,25,27,29,31,33,35,37,39,41,43,45,47,49,51,53,55,57,59,61,-1,-1,-1,-1,-1,-1,-1,-1,-1,-1,-1,-1,-1,-1,-1,-1,-1,-1,-1,-1,-1,-1,-1,-1,-1,-1,-1,-1,-1,-1,-1,-1],"loss_changes":[1.2307352E4,4.4541694E3,2.886665E3,1.1075986E3,5.812598E2,4.8366577E2,4.8615088E2,1.7391162E2,1.6952441E2,1.3593542E2,1.04157974E2,9.677069E1,1.4572559E2,7.6427246E1,1.0247876E2,5.3177246E1,5.930127E1,6.018988E1,1.4606592E2,7.38208E1,1.03198E2,8.1624695E1,3.0022503E1,3.073333E1,6.272705E1,4.7397766E1,4.554236E1,3.4340027E1,3.566504E1,3.0049927E1,6.640723E1,0E0,0E0,0E0,0E0,0E0,0E0,0E0,0E0,0E0,0E0,0E0,0E0,0E0,0E0,0E0,0E0,0E0,0E0,0E0,0E0,0E0,0E0,0E0,0E0,0E0,0E0,0E0,0E0,0E0,0E0,0E0,0E0],"parents":[2147483647,0,0,1,1,2,2,3,3,4,4,5,5,6,6,7,7,8,8,9,9,10,10,11,11,12,12,13,13,14,14,15,15,16,16,17,17,18,18,19,19,20,20,21,21,22,22,23,23,24,24,25,25,26,26,27,27,28,28,29,29,30,30],"right_children":[2,4,6,8,10,12,14,16,18,20,22,24,26,28,30,32,34,36,38,40,42,44,46,48,50,52,54,56,58,60,62,-1,-1,-1,-1,-1,-1,-1,-1,-1,-1,-1,-1,-1,-1,-1,-1,-1,-1,-1,-1,-1,-1,-1,-1,-1,-1,-1,-1,-1,-1,-1,-1],"split_conditions":[6.569893E-1,5.407343E-2,9.859165E-1,2.8898926E-3,2.8104374E-1,9.1758263E-1,2.1053472E3,2.9163176E-4,-6.2377625E0,-2.8747073E-1,4.22463E-2,1.3251291E-1,1.4284137E0,2.4003192E6,3.705874E-1,-6.0997836E-2,6.6015625E-1,-5.832488E-1,1.3255545E-2,8.9367434E-2,-7.054226E-3,5.8382336E-2,-9.5714274E-4,8.5349106E5,2.1496353E-1,4.3813082E4,1.6482988E5,9.4389334E-2,4.489772E-4,4.5997744E3,5.4057824E4,-1.2630591E-1,-5.8975328E-2,-4.7039E-2,-3.34577E-2,-8.963134E-2,-4.4199545E-2,-2.9632358E-2,-1.9993942E-2,-1.3317115E-2,-9.687392E-2,-1.3240351E-2,-4.7578276E-3,-2.847188E-3,-7.1843594E-2,-7.900222E-2,2.4876827E-3,-7.34502E-4,5.8894176E-3,1.0346197E-2,-7.00754E-2,9.149342E-3,1.7128758E-2,2.1984981E-2,3.1489223E-2,3.2839846E-2,5.1868297E-2,6.452506E-2,3.6731716E-2,1.4896377E-2,2.7872328E-2,3.7779406E-2,1.89002E-2],"split_indices":[0,0,0,0,0,0,4,0,35,21,19,30,21,3,21,15,29,20,0,15,15,32,6,3,17,14,22,20,6,13,4,0,0,0,0,0,0,0,0,0,0,0,0,0,0,0,0,0,0,0,0,0,0,0,0,0,0,0,0,0,0,0,0],"split_type":[0,0,0,0,0,0,0,0,0,0,0,0,0,0,0,0,0,0,0,0,0,0,0,0,0,0,0,0,0,0,0,0,0,0,0,0,0,0,0,0,0,0,0,0,0,0,0,0,0,0,0,0,0,0,0,0,0,0,0,0,0,0,0],"sum_hessian":[1.5445873E5,9.352802E4,6.093071E4,2.3549201E4,6.997882E4,4.892972E4,1.2000994E4,5.8227847E3,1.7726418E4,3.3124438E4,3.6854387E4,3.2549207E4,1.6380511E4,3.0937937E3,8.9072E3,2.2932085E3,3.5295762E3,3.4045306E2,1.7385965E4,1.481002E4,1.8314418E4,2.1837266E4,1.5017119E4,9.349676E3,2.3199531E4,8.266939E3,8.1135713E3,1.1757008E3,1.9180929E3,2.0232246E3,6.8839756E3,2.952218E1,2.2636863E3,2.2602346E3,1.2693416E3,1.08759254E2,2.316938E2,6.021771E3,1.1364193E4,1.4784513E4,2.5506945E1,4.892824E3,1.3421593E4,2.1795314E4,4.195192E1,1.0312032E1,1.5006808E4,2.3331301E3,7.0165454E3,2.3176244E4,2.3288252E1,2.8380413E3,5.4288984E3,6.543848E3,1.569723E3,3.4183612E2,8.338647E2,1.7898894E3,1.282035E2,6.72348E2,1.3508766E3,6.378173E3,5.0580273E2],"tree_param":{"num_deleted":"0","num_feature":"36","num_nodes":"63","size_leaf_vector":"1"}},{"base_weights":[1.2379675E-4,-2.428451E-1,2.9061535E-1,-7.4234766E-1,-1.5475577E-1,2.1518071E-1,8.639394E-1,-1.6490475E0,-6.683623E-1,-2.8430706E-1,-6.7620195E-2,1.3731931E-1,3.7739372E-1,7.566489E-1,1.6994016E0,-2.0446382E0,-1.4804538E0,-9.5975626E-1,-5.8249396E-1,-3.8213247E-1,-2.2190726E-1,-6.62784E-2,-2.289544E0,1.390979E-1,-2.4543083E0,3.062999E-1,4.776984E-1,6.2581646E-1,9.3417233E-1,1.481629E0,2.2289102E0,-9.6540265E-2,-2.1636999E-1,-6.3670784E-2,-9.140708E-2,-4.7393966E-2,-1.495449E-1,-3.490002E-2,-2.4092615E-2,-1.8800817E-2,-8.887849E-2,-8.2608145E-3,-1.4827934E-2,-8.211144E-3,-2.027481E-3,-3.771329E-2,-2.1352242E-1,4.2140223E-3,9.97916E-3,-2.671667E-1,-2.0081684E-2,7.838346E-2,1.5099722E-2,2.9276565E-2,1.933092E-2,7.5475397E-3,3.2773476E-2,5.179679E-2,3.952829E-2,7.56949E-2,-1.6616587E-2,9.726265E-2,1.7482933E-1],"categories":[],"categories_nodes":[],"categories_segments":[],"categories_sizes":[],"default_left":[0,0,0,0,0,0,0,0,0,0,0,0,0,0,0,0,0,0,0,0,0,0,0,0,0,0,0,0,0,0,0,0,0,0,0,0,0,0,0,0,0,0,0,0,0,0,0,0,0,0,0,0,0,0,0,0,0,0,0,0,0,0,0],"id":7,"left_children":[1,3,5,7,9,11,13,15,17,19,21,23,25,27,29,31,33,35,37,39,41,43,45,47,49,51,53,55,57,59,61,-1,-1,-1,-1,-1,-1,-1,-1,-1,-1,-1,-1,-1,-1,-1,-1,-1,-1,-1,-1,-1,-1,-1,-1,-1,-1,-1,-1,-1,-1,-1,-1],"loss_changes":[1.0920363E4,3.7070776E3,3.0475146E3,8.46188E2,8.085011E2,7.865144E2,7.3315967E2,6.0479248E1,2.9167578E2,1.7572632E2,1.2751933E2,1.9431024E2,1.438811E2,1.6810156E2,1.04130615E2,6.490222E1,4.599402E1,6.1256348E1,1.0456055E2,9.5050415E1,7.438031E1,1.0784419E2,7.528825E1,1.3941571E2,1.6931552E2,6.373169E1,8.203528E1,5.8821655E1,4.418506E1,3.9319946E1,9.011511E1,0E0,0E0,0E0,0E0,0E0,0E0,0E0,0E0,0E0,0E0,0E0,0E0,0E0,0E0,0E0,0E0,0E0,0E0,0E0,0E0,0E0,0E0,0E0,0E0,0E0,0E0,0E0,0E0,0E0,0E0,0E0,0E0],"parents":[2147483647,0,0,1,1,2,2,3,3,4,4,5,5,6,6,7,7,8,8,9,9,10,10,11,11,12,12,13,13,14,14,15,15,16,16,17,17,18,18,19,19,20,20,21,21,22,22,23,23,24,24,25,25,26,26,27,27,28,28,29,29,30,30],"right_children":[2,4,6,8,10,12,14,16,18,20,22,24,26,28,30,32,34,36,38,40,42,44,46,48,50,52,54,56,58,60,62,-1,-1,-1,-1,-1,-1,-1,-1,-1,-1,-1,-1,-1,-1,-1,-1,-1,-1,-1,-1,-1,-1,-1,-1,-1,-1,-1,-1,-1,-1,-1,-1],"split_conditions":[5.605027E-1,5.0942104E-2,9.682394E-1,2.5448162E-2,1.5729994E-1,9.1758263E-1,9.7504056E-1,7.718451E-3,7.5098397E-3,-7.641665E-1,1.5309042E-1,1.5309042E-1,7.1406336E0,9.899815E-1,9.925803E-1,2.62E1,6.133333E0,1.1171329E1,-9.348425E-1,1.1171329E1,2.05E2,2.6102597E-1,8.0315065E-1,7.747078E-1,1.4353277E-5,-3.505415E-2,3.5166676E4,1.8105969E-2,9.8046875E-1,6.9065456E5,1.4833164E-5,-9.6540265E-2,-2.1636999E-1,-6.3670784E-2,-9.140708E-2,-4.7393966E-2,-1.495449E-1,-3.490002E-2,-2.4092615E-2,-1.8800817E-2,-8.887849E-2,-8.2608145E-3,-1.4827934E-2,-8.211144E-3,-2.027481E-3,-3.771329E-2,-2.1352242E-1,4.2140223E-3,9.97916E-3,-2.671667E-1,-2.0081684E-2,7.838346E-2,1.5099722E-2,2.9276565E-2,1.933092E-2,7.5475397E-3,3.2773476E-2,5.179679E-2,3.952829E-2,7.56949E-2,-1.6616587E-2,9.726265E-2,1.7482933E-1],"split_indices":[25,1,1,2,25,25,2,2,1,21,16,16,21,1,2,11,12,35,21,35,23,1,10,25,5,15,4,30,28,22,5,0,0,0,0,0,0,0,0,0,0,0,0,0,0,0,0,0,0,0,0,0,0,0,0,0,0,0,0,0,0,0,0],"split_type":[0,0,0,0,0,0,0,0,0,0,0,0,0,0,0,0,0,0,0,0,0,0,0,0,0,0,0,0,0,0,0,0,0,0,0,0,0,0,0,0,0,0,0,0,0,0,0,0,0,0,0,0,0,0,0,0,0,0,0,0,0,0,0],"sum_hessian":[1.5472028E5,8.425176E4,7.0468516E4,1.262956E4,7.1622195E4,6.227598E4,8.192536E3,9.511998E2,1.1678359E4,2.8800287E4,4.282191E4,4.207976E4,2.019622E4,7.2618687E3,9.3066736E2,2.809192E2,6.7028064E2,2.6557856E3,9.022574E3,1.1214294E4,1.7585994E4,4.2797098E4,2.4814913E1,4.2051848E4,2.791314E1,1.1821468E4,8.374752E3,4.183332E3,3.0785364E3,6.621436E2,2.6852374E2,2.6933432E2,1.1584889E1,4.230368E2,2.4724384E2,2.6418047E3,1.3981052E1,4.1982764E3,4.824298E3,1.116662E4,4.7673172E1,9.997223E3,7.5887705E3,8.902316E3,3.389478E4,1.4757805E1,1.0057109E1,2.206073E4,1.9991117E4,1.0928612E1,1.6984528E1,3.8978035E1,1.178249E4,3.8322195E3,4.542533E3,2.4623314E2,3.9370989E3,1.7981237E3,1.2804127E3,6.5073303E2,1.1410603E1,2.2149599E2,4.7027752E1],"tree_param":{"num_deleted":"0","num_feature":"36","num_nodes":"63","size_leaf_vector":"1"}},{"base_weights":[-4.900233E-4,-2.8029877E-1,2.2733459E-1,-7.003204E-1,-1.8551375E-1,1.17751494E-1,5.9781873E-1,-1.1405929E0,-5.835725E-1,-3.2191938E-1,-1.2265795E-1,4.2528935E-2,2.1293436E-1,4.890076E-1,1.0222679E0,-1.1208808E0,-1.8858495E-1,-6.5573615E-1,-4.0827712E-1,-4.2492557E-1,-2.6459745E-1,-1.8071303E-1,-6.8588555E-2,-3.0410057E-3,9.4964795E-2,1.04246624E-1,2.478035E-1,3.9740536E-1,5.8306855E-1,8.493475E-1,1.2258835E0,-6.288115E-2,-4.8056398E-2,-3.223861E-2,-8.052858E-2,-3.020612E-2,-1.6409965E-2,-2.098732E-2,-1.4229095E-1,-1.0206387E-2,-1.7507074E-2,-8.611896E-3,-3.927997E-2,-7.7061146E-3,-1.7647762E-3,-5.4010052E-2,2.1544909E-5,4.8199673E-3,-9.9611655E-2,4.1309684E-3,1.2713149E-2,1.0374425E-2,1.6689096E-2,1.6067581E-2,2.5843529E-2,2.6454797E-2,3.6212984E-2,4.311048E-2,-4.0250804E-2,5.7130724E-2,8.557006E-2],"categories":[],"categories_nodes":[],"categories_segments":[],"categories_sizes":[],"default_left":[0,0,0,0,0,0,0,0,0,0,0,0,0,0,0,0,0,0,0,0,0,0,0,0,0,0,0,0,0,0,0,0,0,0,0,0,0,0,0,0,0,0,0,0,0,0,0,0,0,0,0,0,0,0,0,0,0,0,0,0,0],"id":8,"left_children":[1,3,5,7,9,11,13,15,17,19,21,23,25,27,29,31,-1,33,35,37,39,41,43,45,47,49,51,53,55,57,59,-1,-1,-1,-1,-1,-1,-1,-1,-1,-1,-1,-1,-1,-1,-1,-1,-1,-1,-1,-1,-1,-1,-1,-1,-1,-1,-1,-1,-1,-1],"loss_changes":[9.849598E3,2.760565E3,3.4575781E3,6.555713E2,4.850509E2,4.705893E2,8.9734863E2,1.3450195E2,1.2741113E2,1.0526221E2,1.21568054E2,8.772872E1,1.09931885E2,1.3310815E2,1.3859375E2,5.682007E1,0E0,7.379468E1,4.6003693E1,7.87865E1,5.925293E1,9.5612366E1,5.7107925E1,7.346531E1,5.1306168E1,2.2849098E1,7.606909E1,7.10968E1,5.7784424E1,4.6396973E1,7.1585205E1,0E0,0E0,0E0,0E0,0E0,0E0,0E0,0E0,0E0,0E0,0E0,0E0,0E0,0E0,0E0,0E0,0E0,0E0,0E0,0E0,0E0,0E0,0E0,0E0,0E0,0E0,0E0,0E0,0E0,0E0],"parents":[2147483647,0,0,1,1,2,2,3,3,4,4,5,5,6,6,7,7,8,8,9,9,10,10,11,11,12,12,13,13,14,14,15,15,17,17,18,18,19,19,20,20,21,21,22,22,23,23,24,24,25,25,26,26,27,27,28,28,29,29,30,30],"right_children":[2,4,6,8,10,12,14,16,18,20,22,24,26,28,30,32,-1,34,36,38,40,42,44,46,48,50,52,54,56,58,60,-1,-1,-1,-1,-1,-1,-1,-1,-1,-1,-1,-1,-1,-1,-1,-1,-1,-1,-1,-1,-1,-1,-1,-1,-1,-1,-1,-1,-1,-1],"split_conditions":[4.0593684E-1,5.0942104E-2,9.61387E-1,4.680544E-3,8.790559E-2,7.747078E-1,9.899815E-1,1.738E3,-3.2004157E-1,-9.083654E-1,-1.2647565E-1,9.608065E-2,1.0287896E-1,1.1703572E1,9.975515E-1,1.6172393E-3,-1.8858495E-1,5.0360076E-2,1.9579161E-2,2.1496353E-1,2.14E2,1.1019591E-1,-6.8568764E-3,-1.384604E-1,2.1496353E-1,9.131175E-1,8.4903747E-1,2.29E2,9.709363E-1,5.8382336E-2,1.49726375E-5,-6.288115E-2,-4.8056398E-2,-3.223861E-2,-8.052858E-2,-3.020612E-2,-1.6409965E-2,-2.098732E-2,-1.4229095E-1,-1.0206387E-2,-1.7507074E-2,-8.611896E-3,-3.927997E-2,-7.7061146E-3,-1.7647762E-3,-5.4010052E-2,2.1544909E-5,4.8199673E-3,-9.9611655E-2,4.1309684E-3,1.2713149E-2,1.0374425E-2,1.6689096E-2,1.6067581E-2,2.5843529E-2,2.6454797E-2,3.6212984E-2,4.311048E-2,-4.0250804E-2,5.7130724E-2,8.557006E-2],"split_indices":[0,1,0,1,0,0,1,23,21,21,21,21,30,21,1,1,0,15,1,17,23,17,15,17,17,1,1,23,1,32,5,0,0,0,0,0,0,0,0,0,0,0,0,0,0,0,0,0,0,0,0,0,0,0,0,0,0,0,0,0,0],"split_type":[0,0,0,0,0,0,0,0,0,0,0,0,0,0,0,0,0,0,0,0,0,0,0,0,0,0,0,0,0,0,0,0,0,0,0,0,0,0,0,0,0,0,0,0,0,0,0,0,0,0,0,0,0,0,0,0,0,0,0,0,0],"sum_hessian":[1.5450798E5,6.93427E4,8.516528E4,1.2766043E4,5.657666E4,6.5725945E4,1.9439334E4,2.673842E3,1.0092201E4,1.7845465E4,3.8731195E4,3.671316E4,2.901279E4,1.5474476E4,3.9648586E3,2.6553743E3,1.8467916E1,7.147186E3,2.9450146E3,6.3779746E3,1.146749E4,1.867608E4,2.0055117E4,1.9643078E4,1.7070082E4,7.048009E3,2.1964781E4,7.842347E3,7.632128E3,2.1468323E3,1.8180264E3,1.427025E3,1.2283491E3,7.0677056E3,7.948048E1,8.5279675E2,2.092218E3,6.36553E3,1.2444795E1,6.7203604E3,4.7471304E3,1.8419291E4,2.5678934E2,5.6180503E3,1.4437066E4,6.2113796E1,1.9580963E4,1.705931E4,1.07712145E1,6.161308E3,8.8670056E2,1.4955573E4,7.0092075E3,4.794054E3,3.048293E3,5.524894E3,2.1072341E3,2.130745E3,1.6087025E1,1.554734E3,2.632924E2],"tree_param":{"num_deleted":"0","num_feature":"36","num_nodes":"61","size_leaf_vector":"1"}},{"base_weights":[-7.0954684E-6,-2.3424536E-1,2.5084558E-1,-6.6960096E-1,-1.5157722E-1,1.8628791E-1,7.656957E-1,-1.2525154E0,-5.749104E-1,-2.633076E-1,-6.817951E-2,1.1902075E-1,3.391594E-1,6.553125E-1,1.3643353E0,-1.8792477E0,-1.1259873E0,-7.2491735E-1,-4.61214E-1,-3.4919697E-1,-2.0866437E-1,-3.50104E-1,-6.007588E-2,6.976752E-2,1.8356338E-1,2.356755E-1,4.0612862E-1,5.6401736E-1,8.593192E-1,1.103834E0,1.658843E0,-8.8854365E-2,-2.0963171E-1,-6.0613435E-2,-4.028776E-2,-3.5697382E-2,-1.5677832E-1,-2.8204521E-2,-1.7237606E-2,-1.710475E-2,-6.507021E-2,-1.4140121E-2,-7.881021E-3,-1.5844518E-2,-1.3239312E-1,-5.9776665E-3,-1.4912554E-3,-9.434157E-2,3.5532285E-3,8.872111E-3,4.0634125E-2,7.916631E-2,1.1558816E-2,2.0154268E-2,1.0291262E-1,1.7877324E-2,3.0464E-2,3.431904E-2,4.835674E-2,5.7261158E-2,-3.053994E-3,6.1920412E-2,9.258669E-2],"categories":[],"categories_nodes":[],"categories_segments":[],"categories_sizes":[],"default_left":[0,0,0,0,0,0,0,0,0,0,0,0,0,0,0,0,0,0,0,0,0,0,0,0,0,0,0,0,0,0,0,0,0,0,0,0,0,0,0,0,0,0,0,0,0,0,0,0,0,0,0,0,0,0,0,0,0,0,0,0,0,0,0],"id":9,"left_children":[1,3,5,7,9,11,13,15,17,19,21,23,25,27,29,31,33,35,37,39,41,43,45,47,49,51,53,55,57,59,61,-1,-1,-1,-1,-1,-1,-1,-1,-1,-1,-1,-1,-1,-1,-1,-1,-1,-1,-1,-1,-1,-1,-1,-1,-1,-1,-1,-1,-1,-1,-1,-1],"loss_changes":[9.084661E3,2.8773633E3,2.4812495E3,7.0351514E2,6.2609985E2,6.821438E2,5.48751E2,1.392024E2,1.8689136E2,1.3470996E2,8.788324E1,1.4644012E2,1.4038477E2,1.3035205E2,9.744678E1,6.294226E1,4.0060425E1,1.22876465E2,7.4656006E1,7.5058716E1,6.638611E1,8.119119E1,6.7292984E1,6.645055E1,7.664111E1,4.7937347E1,6.1038696E1,4.5163452E1,3.97948E1,3.332129E1,4.6802246E1,0E0,0E0,0E0,0E0,0E0,0E0,0E0,0E0,0E0,0E0,0E0,0E0,0E0,0E0,0E0,0E0,0E0,0E0,0E0,0E0,0E0,0E0,0E0,0E0,0E0,0E0,0E0,0E0,0E0,0E0,0E0,0E0],"parents":[2147483647,0,0,1,1,2,2,3,3,4,4,5,5,6,6,7,7,8,8,9,9,10,10,11,11,12,12,13,13,14,14,15,15,16,16,17,17,18,18,19,19,20,20,21,21,22,22,23,23,24,24,25,25,26,26,27,27,28,28,29,29,30,30],"right_children":[2,4,6,8,10,12,14,16,18,20,22,24,26,28,30,32,34,36,38,40,42,44,46,48,50,52,54,56,58,60,62,-1,-1,-1,-1,-1,-1,-1,-1,-1,-1,-1,-1,-1,-1,-1,-1,-1,-1,-1,-1,-1,-1,-1,-1,-1,-1,-1,-1,-1,-1,-1,-1],"split_conditions":[5.181076E-1,5.0942104E-2,9.682394E-1,4.1155092E-2,1.5729994E-1,9.1758263E-1,9.6650726E-1,7.718451E-3,1.9579161E-2,-7.641665E-1,1.8634494E-1,7.747078E-1,6.619937E-1,9.9917513E-1,9.8366886E-1,2.62E1,-5.466605E-1,1.1171329E1,-1.206405E-1,9.772727E0,-2.680049E-3,1.0455954E-1,-4.1750744E-1,-1.3346184E-3,9.028664E-1,-2.7784506E-2,9.5853096E-1,7.863574E-2,1.154317E5,4.5578882E-1,2.3379765E-2,-8.8854365E-2,-2.0963171E-1,-6.0613435E-2,-4.028776E-2,-3.5697382E-2,-1.5677832E-1,-2.8204521E-2,-1.7237606E-2,-1.710475E-2,-6.507021E-2,-1.4140121E-2,-7.881021E-3,-1.5844518E-2,-1.3239312E-1,-5.9776665E-3,-1.4912554E-3,-9.434157E-2,3.5532285E-3,8.872111E-3,4.0634125E-2,7.916631E-2,1.1558816E-2,2.0154268E-2,1.0291262E-1,1.7877324E-2,3.0464E-2,3.431904E-2,4.835674E-2,5.7261158E-2,-3.053994E-3,6.1920412E-2,9.258669E-2],"split_indices":[0,1,1,2,0,0,2,2,1,21,2,0,21,0,2,11,21,35,20,35,15,17,21,7,2,15,2,30,14,30,19,0,0,0,0,0,0,0,0,0,0,0,0,0,0,0,0,0,0,0,0,0,0,0,0,0,0,0,0,0,0,0,0],"split_type":[0,0,0,0,0,0,0,0,0,0,0,0,0,0,0,0,0,0,0,0,0,0,0,0,0,0,0,0,0,0,0,0,0,0,0,0,0,0,0,0,0,0,0,0,0,0,0,0,0,0,0,0,0,0,0,0,0,0,0,0,0,0,0],"sum_hessian":[1.5460606E5,7.99507E4,7.465536E4,1.2757695E4,6.719301E4,6.633846E4,8.316897E3,1.7810897E3,1.0976605E4,2.8717354E4,3.8475652E4,4.6068836E4,2.0269625E4,7.023862E3,1.2930358E3,2.968499E2,1.4842397E3,4.7302734E3,6.2463325E3,1.11640625E4,1.7553291E4,1.0738633E3,3.740179E4,2.6130459E4,1.9938377E4,7.9654937E3,1.2304131E4,4.8549746E3,2.1688872E3,6.886507E2,6.043851E2,2.8598868E2,1.0861248E1,1.1670197E3,3.1722012E2,4.7101357E3,2.013752E1,3.3145698E3,2.9317625E3,1.1082762E4,8.130042E1,7.1556436E3,1.0397647E4,1.0596837E3,1.4179609E1,1.2608561E4,2.4793227E4,1.6347607E1,2.6114111E4,1.9747521E4,1.90856E2,2.533693E1,7.9401567E3,1.2282749E4,2.138131E1,8.745425E2,3.980432E3,8.3572845E2,1.3331587E3,6.650389E2,2.3611776E1,1.9241269E2,4.119724E2],"tree_param":{"num_deleted":"0","num_feature":"36","num_nodes":"63","size_leaf_vector":"1"}},{"base_weights":[-1.5068694E-3,-2.576891E-1,2.0305952E-1,-6.758221E-1,-1.8107644E-1,1.1231086E-1,5.497627E-1,-1.0882157E0,-5.878037E-1,-3.1442145E-1,-1.1708779E-1,1.9963888E-2,1.8279077E-1,4.442405E-1,9.1182494E-1,-1.0674518E0,-1.6383754E-1,-7.4127936E-1,-5.0234425E-1,-4.2488223E-1,-2.626131E-1,-1.147424E-1,-1.3914372E0,-1.1320987E-2,8.257792E-2,1.402816E-1,2.6450506E-1,6.9925094E-1,4.120644E-1,7.77745E-1,1.1564761E0,-5.6062706E-2,-3.8734302E-2,-3.634839E-2,-1.6299596E-1,-2.4657667E-2,-8.555903E-2,-2.089492E-2,-8.790234E-2,-1.1273514E-2,-1.9633958E-2,-9.1887405E-3,-3.7577364E-3,-4.2193543E-2,-2.0223176E-1,-4.6215206E-4,-5.9467614E-2,-5.9209494E-3,5.119202E-3,-7.232345E-2,7.108332E-3,1.0471121E-2,1.91163E-2,-1.8964598E-2,3.598927E-2,1.273721E-2,2.2849934E-2,3.9592013E-2,-2.4735209E-2,6.1148178E-2,3.175443E-2],"categories":[],"categories_nodes":[],"categories_segments":[],"categories_sizes":[],"default_left":[0,0,0,0,0,0,0,0,0,0,0,0,0,0,0,0,0,0,0,0,0,0,0,0,0,0,0,0,0,0,0,0,0,0,0,0,0,0,0,0,0,0,0,0,0,0,0,0,0,0,0,0,0,0,0,0,0,0,0,0,0],"id":10,"left_children":[1,3,5,7,9,11,13,15,17,19,21,23,25,27,29,31,-1,33,35,37,39,41,43,45,47,49,51,53,55,57,59,-1,-1,-1,-1,-1,-1,-1,-1,-1,-1,-1,-1,-1,-1,-1,-1,-1,-1,-1,-1,-1,-1,-1,-1,-1,-1,-1,-1,-1,-1],"loss_changes":[8.125103E3,2.2049902E3,2.7121814E3,3.8626562E2,4.9637085E2,4.4468298E2,6.828164E2,8.164673E1,1.14869385E2,1.0784631E2,1.1734503E2,5.7934196E1,1.3456201E2,1.13346436E2,1.3145142E2,2.839038E1,0E0,1.1083215E2,6.1894897E1,5.5327393E1,6.1962036E1,1.07231445E2,1.0138307E2,4.826635E1,3.9239548E1,7.645264E1,8.5967834E1,3.460565E1,8.683179E1,4.7192627E1,4.866858E1,0E0,0E0,0E0,0E0,0E0,0E0,0E0,0E0,0E0,0E0,0E0,0E0,0E0,0E0,0E0,0E0,0E0,0E0,0E0,0E0,0E0,0E0,0E0,0E0,0E0,0E0,0E0,0E0,0E0,0E0],"parents":[2147483647,0,0,1,1,2,2,3,3,4,4,5,5,6,6,7,7,8,8,9,9,10,10,11,11,12,12,13,13,14,14,15,15,17,17,18,18,19,19,20,20,21,21,22,22,23,23,24,24,25,25,26,26,27,27,28,28,29,29,30,30],"right_children":[2,4,6,8,10,12,14,16,18,20,22,24,26,28,30,32,-1,34,36,38,40,42,44,46,48,50,52,54,56,58,60,-1,-1,-1,-1,-1,-1,-1,-1,-1,-1,-1,-1,-1,-1,-1,-1,-1,-1,-1,-1,-1,-1,-1,-1,-1,-1,-1,-1,-1,-1],"split_conditions":[3.9896563E-1,3.9594837E-2,9.6810645E-1,2.4221912E-3,8.112754E-2,7.025613E-1,9.899815E-1,1.738E3,1.3020342E-2,-9.4814026E-1,1.7132512E-1,6.1840534E-1,1.9344877E0,2.7146755E3,9.984453E-1,-1.5752836E-3,-1.6383754E-1,1.1171329E1,5.492702E-2,1.1171329E1,3.19E2,-4.344921E-1,1.5309042E-1,1.2099378E-1,-4.062869E-2,-9.5714274E-4,8.4903747E-1,-4.090906E-2,8.095499E-3,7.085214E-2,6.5786555E-2,-5.6062706E-2,-3.8734302E-2,-3.634839E-2,-1.6299596E-1,-2.4657667E-2,-8.555903E-2,-2.089492E-2,-8.790234E-2,-1.1273514E-2,-1.9633958E-2,-9.1887405E-3,-3.7577364E-3,-4.2193543E-2,-2.0223176E-1,-4.6215206E-4,-5.9467614E-2,-5.9209494E-3,5.119202E-3,-7.232345E-2,7.108332E-3,1.0471121E-2,1.91163E-2,-1.8964598E-2,3.598927E-2,1.273721E-2,2.2849934E-2,3.9592013E-2,-2.4735209E-2,6.1148178E-2,3.175443E-2],"split_indices":[0,1,0,1,0,0,1,23,1,21,17,21,21,4,1,19,0,35,15,35,23,21,16,16,16,6,1,15,20,15,17,0,0,0,0,0,0,0,0,0,0,0,0,0,0,0,0,0,0,0,0,0,0,0,0,0,0,0,0,0,0],"split_type":[0,0,0,0,0,0,0,0,0,0,0,0,0,0,0,0,0,0,0,0,0,0,0,0,0,0,0,0,0,0,0,0,0,0,0,0,0,0,0,0,0,0,0,0,0,0,0,0,0,0,0,0,0,0,0,0,0,0,0,0,0],"sum_hessian":[1.5503866E5,6.883504E4,8.6203625E4,1.0658073E4,5.8176965E4,6.8321875E4,1.788175E4,1.8726687E3,8.785404E3,1.8863555E4,3.9313406E4,2.9573803E4,3.8748074E4,1.3848007E4,4.0337437E3,1.8565424E3,1.612636E1,3.1395137E3,5.6458906E3,6.0203496E3,1.2843206E4,3.9242273E4,7.113386E1,1.9721064E4,9.852738E3,2.5490303E4,1.32577705E4,1.5491945E3,1.2298812E4,2.608401E3,1.4253428E3,1.5659366E3,2.9060568E2,3.1230564E3,1.6457375E1,5.6046855E3,4.1205067E1,5.990283E3,3.006682E1,9.992417E3,2.8507893E3,1.4300909E4,2.4941365E4,6.0057304E1,1.1076549E1,1.9687344E4,3.3718933E1,8.833482E2,8.969391E3,2.9337006E1,2.5460965E4,9.036078E3,4.2216924E3,2.8617788E1,1.5205767E3,2.7338723E3,9.564939E3,2.580197E3,2.8203808E1,1.2629459E3,1.6239682E2],"tree_param":{"num_deleted":"0","num_feature":"36","num_nodes":"61","size_leaf_vector":"1"}},{"base_weights":[2.1089015E-3,-2.2528584E-1,2.1106103E-1,-5.669251E-1,-1.4206703E-1,1.4908086E-1,6.7827225E-1,-1.3011721E0,-5.110735E-1,-3.1422806E-1,-1.0294475E-1,6.679399E-2,2.5402656E-1,6.153274E-1,1.587289E0,-1.7327492E0,-1.1133392E0,-6.9495004E-1,-4.3127277E-1,-2.0244928E-1,-4.0096197E-1,-1.9458634E-1,-6.538214E-2,6.801226E-2,-1.9373472E0,1.9772989E-1,3.6181477E-1,6.212962E-1,-1.427375E-1,1.344808E0,1.8812972E0,-6.25466E-2,-1.0397303E-1,-4.9196642E-2,-7.56285E-2,-3.2384608E-2,-4.614224E-2,-2.6638493E-2,-1.607011E-2,-3.0087456E-2,-9.369739E-3,-1.950415E-2,-7.039591E-2,-7.981181E-3,-1.6184123E-2,-8.228581E-3,-2.5340747E-3,1.6898144E-3,6.5144263E-3,-3.1967677E-2,-1.6971251E-1,9.455052E-3,3.192508E-2,1.9532926E-2,1.1209184E-2,2.5964046E-2,3.8953867E-2,7.085516E-2,1.0860253E-2,8.75224E-2,1.5034941E-1],"categories":[],"categories_nodes":[],"categories_segments":[],"categories_sizes":[],"default_left":[0,0,0,0,0,0,0,0,0,0,0,0,0,0,0,0,0,0,0,0,0,0,0,0,0,0,0,0,0,0,0,0,0,0,0,0,0,0,0,0,0,0,0,0,0,0,0,0,0,0,0,0,0,0,0,0,0,0,0,0,0],"id":11,"left_children":[1,3,5,7,9,11,13,15,17,19,21,23,25,27,29,31,33,35,37,39,41,43,45,47,49,51,53,55,-1,57,59,-1,-1,-1,-1,-1,-1,-1,-1,-1,-1,-1,-1,-1,-1,-1,-1,-1,-1,-1,-1,-1,-1,-1,-1,-1,-1,-1,-1,-1,-1],"loss_changes":[7.3684775E3,2.1112432E3,2.3401646E3,5.958345E2,4.021825E2,6.161559E2,5.4059717E2,8.137073E1,1.9807227E2,1.0711694E2,1.6749329E2,9.778299E1,1.9021387E2,1.8515479E2,4.1124268E1,4.9152893E1,3.5645325E1,4.344934E1,1.0499036E2,2.8939941E1,6.764343E1,6.3798767E1,5.0320755E1,8.51689E1,4.3841354E1,7.8234436E1,4.261792E1,1.4187524E2,0E0,2.7333984E1,3.5132996E1,0E0,0E0,0E0,0E0,0E0,0E0,0E0,0E0,0E0,0E0,0E0,0E0,0E0,0E0,0E0,0E0,0E0,0E0,0E0,0E0,0E0,0E0,0E0,0E0,0E0,0E0,0E0,0E0,0E0,0E0],"parents":[2147483647,0,0,1,1,2,2,3,3,4,4,5,5,6,6,7,7,8,8,9,9,10,10,11,11,12,12,13,13,14,14,15,15,16,16,17,17,18,18,19,19,20,20,21,21,22,22,23,23,24,24,25,25,26,26,27,27,29,29,30,30],"right_children":[2,4,6,8,10,12,14,16,18,20,22,24,26,28,30,32,34,36,38,40,42,44,46,48,50,52,54,56,-1,58,60,-1,-1,-1,-1,-1,-1,-1,-1,-1,-1,-1,-1,-1,-1,-1,-1,-1,-1,-1,-1,-1,-1,-1,-1,-1,-1,-1,-1,-1,-1],"split_conditions":[4.5481446E-1,5.9909444E-2,9.6263707E-1,2.5448162E-2,9.032837E4,8.3825654E-1,9.8366886E-1,7.718451E-3,1.3020342E-2,2.8807396E-1,1.9950119E-1,2.1496353E-1,7.1406336E0,1.5309042E-1,3.2579514E-1,-3.729752E-2,2.0116518E-4,3.75E-1,-1.3653296E-1,-4.0524473E0,1.324E3,3.55E2,-3.5040334E-2,6.1840534E-1,-8.572812E-3,9.028664E-1,2.7893532E6,9.899815E-1,-1.427375E-1,2.8141046E-1,1.4338372E7,-6.25466E-2,-1.0397303E-1,-4.9196642E-2,-7.56285E-2,-3.2384608E-2,-4.614224E-2,-2.6638493E-2,-1.607011E-2,-3.0087456E-2,-9.369739E-3,-1.950415E-2,-7.039591E-2,-7.981181E-3,-1.6184123E-2,-8.228581E-3,-2.5340747E-3,1.6898144E-3,6.5144263E-3,-3.1967677E-2,-1.6971251E-1,9.455052E-3,3.192508E-2,1.9532926E-2,1.1209184E-2,2.5964046E-2,3.8953867E-2,7.085516E-2,1.0860253E-2,8.75224E-2,1.5034941E-1],"split_indices":[0,1,1,2,3,0,2,2,1,30,1,17,21,16,20,33,7,28,20,35,23,23,17,21,33,2,3,1,0,20,3,0,0,0,0,0,0,0,0,0,0,0,0,0,0,0,0,0,0,0,0,0,0,0,0,0,0,0,0,0,0],"split_type":[0,0,0,0,0,0,0,0,0,0,0,0,0,0,0,0,0,0,0,0,0,0,0,0,0,0,0,0,0,0,0,0,0,0,0,0,0,0,0,0,0,0,0,0,0,0,0,0,0,0,0,0,0,0,0,0,0,0,0,0,0],"sum_hessian":[1.5507612E5,7.4260805E4,8.081532E4,1.4544652E4,5.9716152E4,7.1351195E4,9.464121E3,1.0265753E3,1.3518076E4,1.1056041E4,4.8660113E4,3.9993965E4,3.1357232E4,8.852787E3,6.1133374E2,3.0880963E2,7.177657E2,4.0888538E3,9.429223E3,4.832049E3,6.2239927E3,1.4145391E4,3.4514723E4,3.9970633E4,2.333117E1,2.0600594E4,1.0756639E4,8.838405E3,1.4381784E1,3.380795E2,2.732542E2,1.311548E2,1.7765483E2,5.4467847E2,1.730872E2,3.3897686E3,6.9908514E2,4.8993833E3,4.5298394E3,1.7414418E2,4.657905E3,6.158841E3,6.515163E1,1.1132614E4,3.0127754E3,4.4537544E3,3.0060967E4,2.5798113E4,1.417252E4,1.3099405E1,1.0231765E1,2.0206447E4,3.9414645E2,8.891404E3,1.8652351E3,5.3703975E3,3.468008E3,3.1746857E2,2.0610928E1,2.4708792E2,2.6166288E1],"tree_param":{"num_deleted":"0","num_feature":"36","num_nodes":"61","size_leaf_vector":"1"}},{"base_weights":[6.6236145E-4,-1.865458E-1,2.2375515E-1,-5.28608E-1,-1.1484502E-1,1.549256E-1,5.7541615E-1,-1.0526747E0,-4.5390257E-1,-1.952463E-1,-3.7217878E-2,2.795203E-1,1.0741114E-1,4.877118E-1,1.0660206E0,-1.3847667E0,-8.70032E-1,-6.2675595E-1,-3.8883263E-1,-9.371873E-2,-2.3271538E-1,-1.6385116E-1,-2.4421217E-2,1.836797E-1,3.330616E-1,1.0865288E-1,-1.6609366E0,5.788877E-1,3.8047794E-1,8.82827E-1,1.3874177E0,-6.675829E-2,-1.6913699E-1,-1.5762454E-1,-4.229972E-2,-3.340825E-2,-1.9349584E-2,-2.4159042E-2,-1.5382046E-2,-1.2335723E-2,-3.6235244E-3,-1.1516881E-2,-9.667172E-2,-2.7683893E-2,-7.1155587E-3,-1.1678811E-3,-7.422175E-2,5.380473E-3,1.2710734E-2,2.2020148E-2,1.3161744E-2,5.2676015E-3,3.6765754E-2,-1.8049133E-1,-1.794923E-2,2.4841832E-2,3.5561252E-2,1.9403365E-2,-5.3737994E-2,4.536842E-2,-2.588397E-2,6.0700443E-2,9.7932324E-2],"categories":[],"categories_nodes":[],"categories_segments":[],"categories_sizes":[],"default_left":[0,0,0,0,0,0,0,0,0,0,0,0,0,0,0,0,0,0,0,0,0,0,0,0,0,0,0,0,0,0,0,0,0,0,0,0,0,0,0,0,0,0,0,0,0,0,0,0,0,0,0,0,0,0,0,0,0,0,0,0,0,0,0],"id":12,"left_children":[1,3,5,7,9,11,13,15,17,19,21,23,25,27,29,31,33,35,37,39,41,43,45,47,49,51,53,55,57,59,61,-1,-1,-1,-1,-1,-1,-1,-1,-1,-1,-1,-1,-1,-1,-1,-1,-1,-1,-1,-1,-1,-1,-1,-1,-1,-1,-1,-1,-1,-1,-1,-1],"loss_changes":[6.477181E3,2.0681167E3,1.7126736E3,5.716079E2,4.3510028E2,3.5031934E2,4.9785425E2,1.0932837E2,1.43625E2,1.3025073E2,5.7474773E1,8.377258E1,9.425839E1,9.586743E1,1.0214844E2,5.939734E1,6.1987E1,3.4457153E1,7.105737E1,2.9997604E1,1.007041E2,2.725483E1,4.999232E1,3.1403564E1,7.84386E1,8.848572E1,7.5143326E1,5.730139E1,5.0327393E1,3.900067E1,6.0589355E1,0E0,0E0,0E0,0E0,0E0,0E0,0E0,0E0,0E0,0E0,0E0,0E0,0E0,0E0,0E0,0E0,0E0,0E0,0E0,0E0,0E0,0E0,0E0,0E0,0E0,0E0,0E0,0E0,0E0,0E0,0E0,0E0],"parents":[2147483647,0,0,1,1,2,2,3,3,4,4,5,5,6,6,7,7,8,8,9,9,10,10,11,11,12,12,13,13,14,14,15,15,16,16,17,17,18,18,19,19,20,20,21,21,22,22,23,23,24,24,25,25,26,26,27,27,28,28,29,29,30,30],"right_children":[2,4,6,8,10,12,14,16,18,20,22,24,26,28,30,32,34,36,38,40,42,44,46,48,50,52,54,56,58,60,62,-1,-1,-1,-1,-1,-1,-1,-1,-1,-1,-1,-1,-1,-1,-1,-1,-1,-1,-1,-1,-1,-1,-1,-1,-1,-1,-1,-1,-1,-1,-1,-1],"split_conditions":[5.605027E-1,5.9909444E-2,9.5070267E-1,4.1155092E-2,2.1218707E-1,1.1548215E5,9.5853096E-1,1.7097138E-2,1.3020342E-2,1.2722738E-1,-2.8881118E0,4.9927983E-2,1.5309042E-1,1.6840928E4,9.8366886E-1,3.22E2,-7.01791E-4,9.430232E-1,-2.1082836E-1,-2.6667602E-2,8.9367434E-2,2.1530779E-1,1.5309042E-1,2E1,4.0706652E4,9.090095E-1,-4.856898E-2,1.4164005E-5,1.1171329E1,5.8382336E-2,1.4540908E-5,-6.675829E-2,-1.6913699E-1,-1.5762454E-1,-4.229972E-2,-3.340825E-2,-1.9349584E-2,-2.4159042E-2,-1.5382046E-2,-1.2335723E-2,-3.6235244E-3,-1.1516881E-2,-9.667172E-2,-2.7683893E-2,-7.1155587E-3,-1.1678811E-3,-7.422175E-2,5.380473E-3,1.2710734E-2,2.2020148E-2,1.3161744E-2,5.2676015E-3,3.6765754E-2,-1.8049133E-1,-1.794923E-2,2.4841832E-2,3.5561252E-2,1.9403365E-2,-5.3737994E-2,4.536842E-2,-2.588397E-2,6.0700443E-2,9.7932324E-2],"split_indices":[25,1,1,2,25,4,2,2,1,30,35,20,16,4,2,24,6,8,20,16,15,2,16,24,4,2,20,5,35,32,5,0,0,0,0,0,0,0,0,0,0,0,0,0,0,0,0,0,0,0,0,0,0,0,0,0,0,0,0,0,0,0,0],"split_type":[0,0,0,0,0,0,0,0,0,0,0,0,0,0,0,0,0,0,0,0,0,0,0,0,0,0,0,0,0,0,0,0,0,0,0,0,0,0,0,0,0,0,0,0,0,0,0,0,0,0,0,0,0,0,0,0,0,0,0,0,0,0,0],"sum_hessian":[1.5508511E5,8.432446E4,7.076066E4,1.4611438E4,6.971302E4,5.917914E4,1.1581514E4,1.8213542E3,1.2790085E4,3.4243875E4,3.546915E4,1.6336331E4,4.284281E4,9.826792E3,1.754722E3,6.4393335E2,1.1774209E3,3.4956157E3,9.294469E3,9.232007E3,2.501187E4,3.2542192E3,3.2214928E4,5.8568384E3,1.0479493E4,4.2813684E4,2.912547E1,5.3086753E3,4.5181167E3,1.1200498E3,6.346722E2,6.299624E2,1.3970961E1,1.0914376E1,1.1665065E3,2.9792842E3,5.1633167E2,4.2966406E3,4.997828E3,1.1245062E3,8.107501E3,2.4978082E4,3.3786167E1,1.691038E2,3.0851152E3,3.2192492E4,2.2435703E1,2.819068E3,3.03777E3,4.1281597E3,6.351333E3,4.259051E4,2.2317169E2,1.0954727E1,1.8170742E1,3.2798652E3,2.0288098E3,4.495406E3,2.2710993E1,1.1011069E3,1.8942867E1,4.892692E2,1.45403E2],"tree_param":{"num_deleted":"0","num_feature":"36","num_nodes":"63","size_leaf_vector":"1"}},{"base_weights":[-1.4375036E-3,-2.0815976E-1,1.805777E-1,-6.629662E-1,-1.5477942E-1,9.8391846E-2,4.6533582E-1,-1.373087E0,-5.979906E-1,-3.0310884E-1,-9.381724E-2,4.7968954E-2,1.8444465E-1,4.0260786E-1,1.0570978E0,-1.312303E0,-1.9584954E-1,-5.046281E-1,-7.8105855E-1,-4.1720617E-1,-2.2448604E-1,-1.6083215E-1,-5.561397E-2,7.6548154E-3,1.1722913E-1,1.1241507E-1,2.4819957E-1,5.3199697E-1,3.1768963E-1,9.081902E-1,1.3162822E0,-7.0406966E-2,-3.43432E-2,-3.0086925E-2,-1.7836671E-2,-3.7771907E-2,-1.1144793E-1,-2.672638E-2,-1.7144285E-2,-9.603852E-3,-1.8319543E-2,-6.5002046E-3,-1.4432825E-2,-2.7063775E-3,-1.327768E-1,4.988187E-4,-4.357217E-2,3.0481275E-3,7.946511E-3,3.073861E-3,8.835194E-3,1.2523748E-2,-9.2187E-2,1.9993229E-2,3.0202327E-2,4.835787E-3,1.7800277E-2,1.15098774E-1,4.4089973E-2,3.623448E-2,6.950551E-2],"categories":[],"categories_nodes":[],"categories_segments":[],"categories_sizes":[],"default_left":[0,0,0,0,0,0,0,0,0,0,0,0,0,0,0,0,0,0,0,0,0,0,0,0,0,0,0,0,0,0,0,0,0,0,0,0,0,0,0,0,0,0,0,0,0,0,0,0,0,0,0,0,0,0,0,0,0,0,0,0,0],"id":13,"left_children":[1,3,5,7,9,11,13,15,17,19,21,23,25,27,29,31,-1,33,35,37,39,41,43,45,47,49,51,53,55,57,59,-1,-1,-1,-1,-1,-1,-1,-1,-1,-1,-1,-1,-1,-1,-1,-1,-1,-1,-1,-1,-1,-1,-1,-1,-1,-1,-1,-1,-1,-1],"loss_changes":[5.8410356E3,1.7645295E3,1.9319187E3,3.5144385E2,5.8819995E2,2.7796478E2,6.8589185E2,9.370325E1,1.1918555E2,1.6987964E2,1.1802841E2,1.12790504E2,1.0866504E2,1.8352734E2,6.717212E1,3.6543945E1,0E0,6.637146E1,8.590527E1,6.720715E1,5.1529846E1,6.59259E1,1.13344864E2,5.2121567E1,3.4862534E1,3.6388E1,6.022278E1,6.2812256E1,8.545062E1,3.9471863E1,2.7126343E1,0E0,0E0,0E0,0E0,0E0,0E0,0E0,0E0,0E0,0E0,0E0,0E0,0E0,0E0,0E0,0E0,0E0,0E0,0E0,0E0,0E0,0E0,0E0,0E0,0E0,0E0,0E0,0E0,0E0,0E0],"parents":[2147483647,0,0,1,1,2,2,3,3,4,4,5,5,6,6,7,7,8,8,9,9,10,10,11,11,12,12,13,13,14,14,15,15,17,17,18,18,19,19,20,20,21,21,22,22,23,23,24,24,25,25,26,26,27,27,28,28,29,29,30,30],"right_children":[2,4,6,8,10,12,14,16,18,20,22,24,26,28,30,32,-1,34,36,38,40,42,44,46,48,50,52,54,56,58,60,-1,-1,-1,-1,-1,-1,-1,-1,-1,-1,-1,-1,-1,-1,-1,-1,-1,-1,-1,-1,-1,-1,-1,-1,-1,-1,-1,-1,-1,-1],"split_conditions":[4.4463155E-1,1.1264903E-1,9.095679E-1,1.7097138E-2,1.3020277E-1,7.449583E-1,9.5853096E-1,3.22E1,3.38E2,-8.8954306E-1,2.3868673E-1,6.1840534E-1,2.8737143E-1,1.6840928E4,9.8366886E-1,4.220796E-1,-1.9584954E-1,-6.7806184E-1,1.1171329E1,4.0785646E-1,3.47E2,6.0333333E0,2.1496353E-1,2.8366667E1,0E0,1.4159994E-3,2.1496353E-1,8.452399E4,4.361717E-2,9.6263707E-1,2.2E0,-7.0406966E-2,-3.43432E-2,-3.0086925E-2,-1.7836671E-2,-3.7771907E-2,-1.1144793E-1,-2.672638E-2,-1.7144285E-2,-9.603852E-3,-1.8319543E-2,-6.5002046E-3,-1.4432825E-2,-2.7063775E-3,-1.327768E-1,4.988187E-4,-4.357217E-2,3.0481275E-3,7.946511E-3,3.073861E-3,8.835194E-3,1.2523748E-2,-9.2187E-2,1.9993229E-2,3.0202327E-2,4.835787E-3,1.7800277E-2,1.15098774E-1,4.4089973E-2,3.623448E-2,6.950551E-2],"split_indices":[1,2,1,2,1,1,2,11,23,21,1,21,21,4,2,30,0,21,35,9,23,12,17,12,15,15,17,14,30,1,12,0,0,0,0,0,0,0,0,0,0,0,0,0,0,0,0,0,0,0,0,0,0,0,0,0,0,0,0,0,0],"split_type":[0,0,0,0,0,0,0,0,0,0,0,0,0,0,0,0,0,0,0,0,0,0,0,0,0,0,0,0,0,0,0,0,0,0,0,0,0,0,0,0,0,0,0,0,0,0,0,0,0,0,0,0,0,0,0,0,0,0,0,0,0],"sum_hessian":[1.5523492E5,7.268425E4,8.255067E4,7.6336104E3,6.5050637E4,6.4062523E4,1.8488146E4,6.3823065E2,6.99538E3,1.8946705E4,4.610393E4,4.039469E4,2.366783E4,1.6717715E4,1.7704318E3,6.2481714E2,1.3413523E1,4.635226E3,2.3601536E3,7.727808E3,1.1218897E4,1.673854E4,2.936539E4,2.5533541E4,1.4861151E4,1.1114058E4,1.2553771E4,6.6222266E3,1.0095489E4,1.1272844E3,6.431474E2,5.407121E2,8.410505E1,2.7961516E3,1.8390745E3,2.3206123E3,3.954125E1,2.994513E3,4.733295E3,9.134959E3,2.0839382E3,1.3487666E4,3.2508723E3,2.9349633E4,1.5758867E1,2.5467275E4,6.626637E1,6.326872E3,8.534279E3,6.2019956E3,4.9120615E3,1.2541012E4,1.2760634E1,2.3390935E3,4.2831333E3,1.4923562E3,8.603133E3,1.9345703E1,1.1079387E3,7.255697E1,5.7059045E2],"tree_param":{"num_deleted":"0","num_feature":"36","num_nodes":"61","size_leaf_vector":"1"}},{"base_weights":[-3.3599834E-4,-1.5306377E-1,2.2866918E-1,-4.1106474E-1,-6.985319E-2,1.7234334E-1,5.863438E-1,-8.6522377E-1,-3.4953344E-1,-1.5095758E-1,-2.1794617E-2,1.3647516E-1,3.2214406E-1,5.306651E-1,1.2767293E0,-1.4995027E0,-7.842463E-1,-4.8907873E-1,-2.642432E-1,-1.442713E-1,-8.342566E-1,-2.067747E-2,-1.6387832E0,1.3784257E-1,-1.6698006E0,1.6624017E-1,3.5924482E-1,4.810271E-1,7.441385E-1,1.1977861E0,2.5123112E0,-7.008945E-2,-1.8855539E-1,-3.779062E-2,-7.366873E-2,-2.8395792E-2,-2.1033023E-2,-1.2841268E-2,-6.243757E-2,-1.139962E-2,-5.6592803E-3,-3.3475753E-2,-1.3179336E-1,-2.4776328E-3,1.1740718E-3,-1.8826346E-1,-1.6375078E-2,6.640547E-3,3.2923367E-2,-4.0602285E-2,-1.5975767E-1,9.1294525E-3,-1.07416846E-1,1.957116E-2,8.791859E-3,2.0686494E-2,3.2473482E-2,-2.5969509E-2,3.8287412E-2,5.77837E-2,1.642496E-1,1.5738738E-1,4.9153525E-2],"categories":[],"categories_nodes":[],"categories_segments":[],"categories_sizes":[],"default_left":[0,0,0,0,0,0,0,0,0,0,0,0,0,0,0,0,0,0,0,0,0,0,0,0,0,0,0,0,0,0,0,0,0,0,0,0,0,0,0,0,0,0,0,0,0,0,0,0,0,0,0,0,0,0,0,0,0,0,0,0,0,0,0],"id":14,"left_children":[1,3,5,7,9,11,13,15,17,19,21,23,25,27,29,31,33,35,37,39,41,43,45,47,49,51,53,55,57,59,61,-1,-1,-1,-1,-1,-1,-1,-1,-1,-1,-1,-1,-1,-1,-1,-1,-1,-1,-1,-1,-1,-1,-1,-1,-1,-1,-1,-1,-1,-1,-1,-1],"loss_changes":[5.426296E3,1.9981106E3,1.2504297E3,6.3397754E2,2.7430948E2,2.881073E2,3.2393457E2,1.378894E2,2.3779956E2,1.1951416E2,7.97961E1,1.0710437E2,5.986084E1,8.2465576E1,5.839441E1,6.2510498E1,4.5974487E1,4.0658936E1,9.030542E1,6.7465454E1,7.348619E1,5.631327E1,8.380797E1,1.1317975E2,4.0331367E1,7.581748E1,4.93125E1,7.164966E1,4.0610596E1,4.838092E1,3.2756866E1,0E0,0E0,0E0,0E0,0E0,0E0,0E0,0E0,0E0,0E0,0E0,0E0,0E0,0E0,0E0,0E0,0E0,0E0,0E0,0E0,0E0,0E0,0E0,0E0,0E0,0E0,0E0,0E0,0E0,0E0,0E0,0E0],"parents":[2147483647,0,0,1,1,2,2,3,3,4,4,5,5,6,6,7,7,8,8,9,9,10,10,11,11,12,12,13,13,14,14,15,15,16,16,17,17,18,18,19,19,20,20,21,21,22,22,23,23,24,24,25,25,26,26,27,27,28,28,29,29,30,30],"right_children":[2,4,6,8,10,12,14,16,18,20,22,24,26,28,30,32,34,36,38,40,42,44,46,48,50,52,54,56,58,60,62,-1,-1,-1,-1,-1,-1,-1,-1,-1,-1,-1,-1,-1,-1,-1,-1,-1,-1,-1,-1,-1,-1,-1,-1,-1,-1,-1,-1,-1,-1,-1,-1],"split_conditions":[6.5019417E-1,1.0749256E-1,9.682394E-1,5.4901283E-2,2.1218707E-1,9.6590734E-1,9.8366886E-1,7.718451E-3,2.1951324E4,8.207143E-2,1.5309042E-1,1.5309042E-1,4.1192034E-3,9.5102715E-1,3.0213307E-5,9.945037E-2,2.12E1,5.5952573E3,5.0360076E-2,9.365171E4,8.9367434E-2,4.22463E-2,2.510991E-2,9.090095E-1,5.3328384E-2,1.2556688E-1,3.8730405E6,1.4596516E-5,-1.0982669E-3,8.878369E-4,8.7447023E-1,-7.008945E-2,-1.8855539E-1,-3.779062E-2,-7.366873E-2,-2.8395792E-2,-2.1033023E-2,-1.2841268E-2,-6.243757E-2,-1.139962E-2,-5.6592803E-3,-3.3475753E-2,-1.3179336E-1,-2.4776328E-3,1.1740718E-3,-1.8826346E-1,-1.6375078E-2,6.640547E-3,3.2923367E-2,-4.0602285E-2,-1.5975767E-1,9.1294525E-3,-1.07416846E-1,1.957116E-2,8.791859E-3,2.0686494E-2,3.2473482E-2,-2.5969509E-2,3.8287412E-2,5.77837E-2,1.642496E-1,1.5738738E-1,4.9153525E-2],"split_indices":[0,1,1,2,0,0,2,2,3,16,16,16,20,2,5,17,11,3,15,3,15,19,34,2,32,17,3,5,7,6,18,0,0,0,0,0,0,0,0,0,0,0,0,0,0,0,0,0,0,0,0,0,0,0,0,0,0,0,0,0,0,0,0],"split_type":[0,0,0,0,0,0,0,0,0,0,0,0,0,0,0,0,0,0,0,0,0,0,0,0,0,0,0,0,0,0,0,0,0,0,0,0,0,0,0,0,0,0,0,0,0,0,0,0,0,0,0,0,0,0,0,0,0,0,0,0,0,0,0],"sum_hessian":[1.5514384E5,9.307244E4,6.20714E4,2.2696432E4,7.037601E4,5.3627703E4,8.443693E3,2.706542E3,1.9989889E4,2.6184496E4,4.419151E4,4.3269254E4,1.0358449E4,7.8151777E3,6.2851556E2,3.0443692E2,2.4021052E3,7.581271E3,1.2408618E4,2.5931955E4,2.5254079E2,4.4162016E4,2.9497923E1,4.3237445E4,3.1808517E1,1.9922306E3,8.366219E3,6.343423E3,1.4717549E3,5.926214E2,3.5894127E1,2.9343198E2,1.1004948E1,2.3089336E3,9.3171524E1,3.5190435E3,4.0622275E3,1.2317076E4,9.154257E1,7.019757E3,1.89122E4,2.3263956E2,1.9901234E1,2.670179E4,1.7460225E4,1.0537681E1,1.8960241E1,4.2824816E4,4.1263055E2,2.134046E1,1.0468059E1,1.9791719E3,1.3058634E1,7.1165103E3,1.2497081E3,4.5350195E3,1.8084037E3,2.4360415E1,1.4473945E3,5.8242395E2,1.0197484E1,2.4609795E1,1.1284331E1],"tree_param":{"num_deleted":"0","num_feature":"36","num_nodes":"63","size_leaf_vector":"1"}},{"base_weights":[2.3919165E-3,-1.3939911E-1,2.2669514E-1,-3.8598818E-1,-6.1489485E-2,1.7121838E-1,5.657255E-1,-7.2647655E-1,-3.1171462E-1,-1.2501308E-1,-4.3461397E-3,1.1291162E-1,2.60714E-1,4.9714622E-1,1.0587984E0,-1.0579197E0,-6.1545926E-1,-5.0830877E-1,-2.685568E-1,-1.2341043E-1,-1.9015542E0,-2.6398282E-3,-7.3858243E-1,6.415004E-2,1.598579E-1,1.629911E-1,3.169319E-1,4.348674E-1,6.575698E-1,1.6594933E-1,1.0330232E0,-5.1507276E-2,-1.6191195E-1,-2.9674849E-2,-1.0606437E-1,-3.0935494E-2,-1.594258E-2,-8.29919E-3,-1.5978018E-2,-1.1471923E-2,-4.872233E-3,-2.6256561E-2,-1.6254951E-1,-1.6186181E-3,1.8410927E-3,-8.386542E-2,-7.00123E-3,1.3677152E-3,7.0761256E-3,7.65642E-3,4.1429315E-2,8.325251E-3,-8.639663E-2,1.5685966E-2,1.267102E-1,3.0893339E-2,1.8775273E-2,3.217649E-2,1.15624085E-1,3.9743345E-2,5.9780367E-2],"categories":[],"categories_nodes":[],"categories_segments":[],"categories_sizes":[],"default_left":[0,0,0,0,0,0,0,0,0,0,0,0,0,0,0,0,0,0,0,0,0,0,0,0,0,0,0,0,0,0,0,0,0,0,0,0,0,0,0,0,0,0,0,0,0,0,0,0,0,0,0,0,0,0,0,0,0,0,0,0,0],"id":15,"left_children":[1,3,5,7,9,11,13,15,17,19,21,23,25,27,29,31,33,35,37,39,41,43,45,47,49,51,53,55,57,-1,59,-1,-1,-1,-1,-1,-1,-1,-1,-1,-1,-1,-1,-1,-1,-1,-1,-1,-1,-1,-1,-1,-1,-1,-1,-1,-1,-1,-1,-1,-1],"loss_changes":[4.9312163E3,1.8250374E3,1.1293743E3,5.765708E2,2.6204773E2,2.692743E2,2.85011E2,1.496084E2,1.5874072E2,9.7101074E1,4.7611893E1,7.1529175E1,1.117926E2,7.379773E1,5.6586426E1,5.8626587E1,9.9984985E1,7.028314E1,8.028711E1,9.401514E1,5.5395264E1,4.448992E1,4.927375E1,4.3642803E1,7.152234E1,4.9701416E1,9.125464E1,5.7825073E1,4.6647095E1,0E0,3.8545044E1,0E0,0E0,0E0,0E0,0E0,0E0,0E0,0E0,0E0,0E0,0E0,0E0,0E0,0E0,0E0,0E0,0E0,0E0,0E0,0E0,0E0,0E0,0E0,0E0,0E0,0E0,0E0,0E0,0E0,0E0],"parents":[2147483647,0,0,1,1,2,2,3,3,4,4,5,5,6,6,7,7,8,8,9,9,10,10,11,11,12,12,13,13,14,14,15,15,16,16,17,17,18,18,19,19,20,20,21,21,22,22,23,23,24,24,25,25,26,26,27,27,28,28,30,30],"right_children":[2,4,6,8,10,12,14,16,18,20,22,24,26,28,30,32,34,36,38,40,42,44,46,48,50,52,54,56,58,-1,60,-1,-1,-1,-1,-1,-1,-1,-1,-1,-1,-1,-1,-1,-1,-1,-1,-1,-1,-1,-1,-1,-1,-1,-1,-1,-1,-1,-1,-1,-1],"split_conditions":[6.702792E-1,1.0749256E-1,9.682394E-1,7.386653E-2,2.8104374E-1,9.1758263E-1,9.7504056E-1,2.5448162E-2,6.7000684E3,1.4076923E1,5.8382336E-2,1.8253708E-2,5.3126145E-2,1.4596516E-5,1.1837326E6,2.027E3,1.2556688E-1,7.241407E-1,1.59E2,9.032837E4,4.9852677E-2,3.119199E-2,-9.536568E-3,5.8337525E-3,8.902513E-1,1.1171329E1,9.5853096E-1,1.3266177E3,8.1300395E6,1.6594933E-1,2.59E2,-5.1507276E-2,-1.6191195E-1,-2.9674849E-2,-1.0606437E-1,-3.0935494E-2,-1.594258E-2,-8.29919E-3,-1.5978018E-2,-1.1471923E-2,-4.872233E-3,-2.6256561E-2,-1.6254951E-1,-1.6186181E-3,1.8410927E-3,-8.386542E-2,-7.00123E-3,1.3677152E-3,7.0761256E-3,7.65642E-3,4.1429315E-2,8.325251E-3,-8.639663E-2,1.5685966E-2,1.267102E-1,3.0893339E-2,1.8775273E-2,3.217649E-2,1.15624085E-1,3.9743345E-2,5.9780367E-2],"split_indices":[0,1,1,2,0,0,2,2,3,35,32,19,20,5,3,23,17,8,23,3,32,19,34,15,2,35,2,4,14,0,23,0,0,0,0,0,0,0,0,0,0,0,0,0,0,0,0,0,0,0,0,0,0,0,0,0,0,0,0,0,0],"split_type":[0,0,0,0,0,0,0,0,0,0,0,0,0,0,0,0,0,0,0,0,0,0,0,0,0,0,0,0,0,0,0,0,0,0,0,0,0,0,0,0,0,0,0,0,0,0,0,0,0,0,0,0,0,0,0,0,0,0,0,0,0],"sum_hessian":[1.5504731E5,9.499656E4,6.0050746E4,2.2806992E4,7.218957E4,5.1607527E4,8.443219E3,4.0825923E3,1.87244E4,3.4185715E4,3.8003855E4,3.1250172E4,2.0357355E4,7.4140425E3,1.0291769E3,1.02221875E3,3.0603735E3,3.3686448E3,1.5355755E4,3.4155973E4,2.974331E1,3.7916746E4,8.711215E1,1.5329885E4,1.5920287E4,7.435763E3,1.2921593E4,5.3433755E3,2.070667E3,1.0163794E1,1.01901306E3,1.01081494E3,1.1403854E1,3.0177542E3,4.2619366E1,2.126954E3,1.2416906E3,5.101136E3,1.0254619E4,6.717608E3,2.7438363E4,1.5412118E1,1.4331194E1,2.1624143E4,1.6292603E4,3.321632E1,5.3895832E1,1.0390071E4,4.9398135E3,1.5762892E4,1.5739528E2,7.4228813E3,1.2881986E1,1.2904038E4,1.7555021E1,1.3064575E3,4.0369177E3,2.0546245E3,1.6042274E1,4.1581213E2,6.032009E2],"tree_param":{"num_deleted":"0","num_feature":"36","num_nodes":"61","size_leaf_vector":"1"}},{"base_weights":[-9.194585E-4,-1.6622283E-1,1.7375124E-1,-5.67795E-1,-1.23654306E-1,9.630194E-2,3.903993E-1,-8.0620354E-1,-4.3790987E-1,-2.708191E-1,-7.219E-2,4.9044605E-2,1.5452303E-1,3.4494638E-1,8.576766E-1,-8.996311E-1,-4.5846263E-1,-4.2669055E-1,-2.4710152E0,-3.728106E-1,-1.9915833E-1,-1.248415E-1,-3.2888867E-2,1.8291827E-2,1.09123796E-1,1.5181665E-1,1.5167401E0,5.5639297E-1,3.0474648E-1,7.1193844E-1,1.1019176E0,-5.1919747E-2,-3.397237E-2,-3.0374704E-2,-1.0522715E-2,-2.5082815E-2,-1.547641E-2,-5.0804894E-2,-2.2191715E-1,-1.8398486E-2,-1.3315153E-1,-7.100696E-3,-1.4895225E-2,-6.3219876E-3,6.9051474E-2,-1.5919189E-3,-6.040738E-2,1.1135801E-3,-2.4817057E-2,5.6259334E-3,-3.745258E-2,7.6840133E-3,-9.338923E-2,2.0598056E-2,1.0702157E-1,2.7149841E-2,6.104293E-2,1.0898674E-2,1.8513152E-2,3.693078E-2,-6.521142E-2,4.8243564E-2,7.433869E-2],"categories":[],"categories_nodes":[],"categories_segments":[],"categories_sizes":[],"default_left":[0,0,0,0,0,0,0,0,0,0,0,0,0,0,0,0,0,0,0,0,0,0,0,0,0,0,0,0,0,0,0,0,0,0,0,0,0,0,0,0,0,0,0,0,0,0,0,0,0,0,0,0,0,0,0,0,0,0,0,0,0,0,0],"id":16,"left_children":[1,3,5,7,9,11,13,15,17,19,21,23,25,27,29,31,33,35,37,39,41,43,45,47,49,51,53,55,57,59,61,-1,-1,-1,-1,-1,-1,-1,-1,-1,-1,-1,-1,-1,-1,-1,-1,-1,-1,-1,-1,-1,-1,-1,-1,-1,-1,-1,-1,-1,-1,-1,-1],"loss_changes":[4.4755527E3,1.3612844E3,1.2645623E3,2.359956E2,5.453362E2,1.5275055E2,4.212417E2,8.7000244E1,1.1169592E2,1.3628052E2,1.10393036E2,5.6622025E1,9.147363E1,1.5359326E2,6.181897E1,6.406006E1,2.100756E1,4.303235E1,7.253958E1,8.436206E1,6.1800232E1,5.5054077E1,3.7678158E1,4.1531258E1,3.031363E1,9.3726135E1,3.302587E1,2.5048828E1,8.6343506E1,6.0360107E1,3.3135254E1,0E0,0E0,0E0,0E0,0E0,0E0,0E0,0E0,0E0,0E0,0E0,0E0,0E0,0E0,0E0,0E0,0E0,0E0,0E0,0E0,0E0,0E0,0E0,0E0,0E0,0E0,0E0,0E0,0E0,0E0,0E0,0E0],"parents":[2147483647,0,0,1,1,2,2,3,3,4,4,5,5,6,6,7,7,8,8,9,9,10,10,11,11,12,12,13,13,14,14,15,15,16,16,17,17,18,18,19,19,20,20,21,21,22,22,23,23,24,24,25,25,26,26,27,27,28,28,29,29,30,30],"right_children":[2,4,6,8,10,12,14,16,18,20,22,24,26,28,30,32,34,36,38,40,42,44,46,48,50,52,54,56,58,60,62,-1,-1,-1,-1,-1,-1,-1,-1,-1,-1,-1,-1,-1,-1,-1,-1,-1,-1,-1,-1,-1,-1,-1,-1,-1,-1,-1,-1,-1,-1,-1,-1],"split_conditions":[5.111323E-1,1.1264903E-1,9.61387E-1,5.4901283E-2,9.704216E4,8.076964E-1,9.5853096E-1,-5.466605E-1,1.1171329E1,-9.300318E-1,2.1218707E-1,7.56801E-1,9.5853096E-1,2.7146755E3,9.8366886E-1,6.1592265E6,-3.620717E-3,4.1974816E4,-9.973551E-1,8.9367434E-2,8.6176805E-3,1.3829153E-3,1.4076923E1,2.1266666E1,1.738E3,2.1496353E-1,3.522867E-2,4.4937424E-5,1.50283955E4,5.8382336E-2,1.4463303E-5,-5.1919747E-2,-3.397237E-2,-3.0374704E-2,-1.0522715E-2,-2.5082815E-2,-1.547641E-2,-5.0804894E-2,-2.2191715E-1,-1.8398486E-2,-1.3315153E-1,-7.100696E-3,-1.4895225E-2,-6.3219876E-3,6.9051474E-2,-1.5919189E-3,-6.040738E-2,1.1135801E-3,-2.4817057E-2,5.6259334E-3,-3.745258E-2,7.6840133E-3,-9.338923E-2,2.0598056E-2,1.0702157E-1,2.7149841E-2,6.104293E-2,1.0898674E-2,1.8513152E-2,3.693078E-2,-6.521142E-2,4.8243564E-2,7.433869E-2],"split_indices":[0,2,0,2,3,0,2,21,35,21,0,21,2,4,2,4,20,3,21,27,32,6,35,12,23,17,20,5,13,32,5,0,0,0,0,0,0,0,0,0,0,0,0,0,0,0,0,0,0,0,0,0,0,0,0,0,0,0,0,0,0,0,0],"split_type":[0,0,0,0,0,0,0,0,0,0,0,0,0,0,0,0,0,0,0,0,0,0,0,0,0,0,0,0,0,0,0,0,0,0,0,0,0,0,0,0,0,0,0,0,0,0,0,0,0,0,0,0,0,0,0,0,0,0,0,0,0,0,0],"sum_hessian":[1.550027E5,7.963678E4,7.536593E4,7.6315806E3,7.2005195E4,5.5519695E4,1.9846234E4,2.689572E3,4.9420083E3,1.8655262E4,5.3349938E4,3.0646309E4,2.4873387E4,1.8088475E4,1.7577606E3,2.1187424E3,5.708296E2,4.91609E3,2.5918697E1,7.6966997E3,1.0958562E4,2.2801168E4,3.0548768E4,2.0271318E4,1.037499E4,2.4825176E4,4.8209892E1,2.887537E3,1.52009375E4,1.103324E3,6.544367E2,1.2973883E3,8.213542E2,3.5565964E2,2.1516994E2,2.9958975E3,1.9201923E3,1.5771519E1,1.0147179E1,7.6816235E3,1.5076109E1,6.9430537E3,4.0155078E3,2.277791E4,2.325928E1,3.0522512E4,2.6255032E1,2.0116709E4,1.5461037E2,1.0334975E4,4.00154E1,2.4803213E4,2.196345E1,1.7994957E1,3.0214937E1,2.8322537E3,5.5283295E1,6.5414624E3,8.659475E3,1.0895411E3,1.3782738E1,4.8517432E2,1.6926239E2],"tree_param":{"num_deleted":"0","num_feature":"36","num_nodes":"63","size_leaf_vector":"1"}},{"base_weights":[8.839824E-4,-1.565765E-1,1.6984348E-1,-4.771547E-1,-1.0674774E-1,9.3144976E-2,3.6683014E-1,-7.6926166E-1,-4.1107005E-1,-1.8877886E-1,-4.9940627E-2,5.5716842E-2,1.6292907E-1,3.042468E-1,6.1544234E-1,-7.4958587E-1,-2.050697E0,-2.897558E-1,-4.861259E-1,-2.5517035E-1,-1.2431552E-1,-4.607277E-2,-4.4893113E-1,5.6869853E-2,-1.1354335E-1,9.2879936E-2,2.0773137E-1,1.8816179E-1,3.6230198E-1,5.056908E-1,7.386161E-1,-3.6134105E-2,-5.9671737E-2,-4.4480316E-2,-1.8941288E-1,-1.8972982E-2,-1.0093989E-2,-3.137644E-2,-2.0958768E-2,-1.2401141E-2,-5.9551597E-2,-3.7300684E-3,-1.0495461E-2,-7.997496E-3,-1.6718218E-3,-4.8609696E-2,-4.527283E-3,3.7293142E-4,4.323684E-3,4.8597734E-3,-4.581128E-2,1.0891535E-2,-1.466506E-3,5.800966E-3,1.6629526E-2,1.9740598E-2,1.1886667E-2,2.5953263E-2,-5.057907E-2,3.597713E-2,1.0676038E-1],"categories":[],"categories_nodes":[],"categories_segments":[],"categories_sizes":[],"default_left":[0,0,0,0,0,0,0,0,0,0,0,0,0,0,0,0,0,0,0,0,0,0,0,0,0,0,0,0,0,0,0,0,0,0,0,0,0,0,0,0,0,0,0,0,0,0,0,0,0,0,0,0,0,0,0,0,0,0,0,0,0],"id":17,"left_children":[1,3,5,7,9,11,13,15,17,19,21,23,25,27,29,31,33,35,37,39,41,43,45,47,-1,49,51,53,55,57,59,-1,-1,-1,-1,-1,-1,-1,-1,-1,-1,-1,-1,-1,-1,-1,-1,-1,-1,-1,-1,-1,-1,-1,-1,-1,-1,-1,-1,-1,-1],"loss_changes":[4.1212407E3,1.2807858E3,1.1289619E3,2.0789868E2,3.233786E2,1.4047253E2,3.2563306E2,4.86084E1,7.997119E1,1.2149066E2,6.32583E1,9.4046875E1,5.8907104E1,1.1269153E2,5.6544678E1,2.2546509E1,5.6145073E1,2.6451813E1,5.1180786E1,9.326471E1,6.1294724E1,5.8434128E1,7.371746E1,5.118715E1,0E0,3.1993305E1,2.7421936E1,5.8102905E1,4.5070923E1,4.5770874E1,5.125244E1,0E0,0E0,0E0,0E0,0E0,0E0,0E0,0E0,0E0,0E0,0E0,0E0,0E0,0E0,0E0,0E0,0E0,0E0,0E0,0E0,0E0,0E0,0E0,0E0,0E0,0E0,0E0,0E0,0E0,0E0],"parents":[2147483647,0,0,1,1,2,2,3,3,4,4,5,5,6,6,7,7,8,8,9,9,10,10,11,11,12,12,13,13,14,14,15,15,16,16,17,17,18,18,19,19,20,20,21,21,22,22,23,23,25,25,26,26,27,27,28,28,29,29,30,30],"right_children":[2,4,6,8,10,12,14,16,18,20,22,24,26,28,30,32,34,36,38,40,42,44,46,48,-1,50,52,54,56,58,60,-1,-1,-1,-1,-1,-1,-1,-1,-1,-1,-1,-1,-1,-1,-1,-1,-1,-1,-1,-1,-1,-1,-1,-1,-1,-1,-1,-1,-1,-1],"split_conditions":[5.181076E-1,3.9594837E-2,8.939089E-1,2.4221912E-3,1.3928452E-1,1.4284137E0,9.899815E-1,5.3328384E-2,2.7E1,-5.614399E-1,1.1019591E-1,1.4076923E1,7.747078E-1,4.0042776E-1,9.975515E-1,2.9197081E-5,-9.993205E-1,-8.1547713E-1,1.1017954E-2,1.418E3,2.24E2,-2.7622378E0,3.2994202E-1,8.4325156E5,-1.1354335E-1,1.738E3,3.4443142E6,6.9951103E-3,4.1510522E6,1.2099378E-1,1.553E3,-3.6134105E-2,-5.9671737E-2,-4.4480316E-2,-1.8941288E-1,-1.8972982E-2,-1.0093989E-2,-3.137644E-2,-2.0958768E-2,-1.2401141E-2,-5.9551597E-2,-3.7300684E-3,-1.0495461E-2,-7.997496E-3,-1.6718218E-3,-4.8609696E-2,-4.527283E-3,3.7293142E-4,4.323684E-3,4.8597734E-3,-4.581128E-2,1.0891535E-2,-1.466506E-3,5.800966E-3,1.6629526E-2,1.9740598E-2,1.1886667E-2,2.5953263E-2,-5.057907E-2,3.597713E-2,1.0676038E-1],"split_indices":[0,1,1,1,0,21,1,32,24,21,17,35,0,21,1,5,21,21,1,23,23,35,1,3,0,23,3,27,3,16,23,0,0,0,0,0,0,0,0,0,0,0,0,0,0,0,0,0,0,0,0,0,0,0,0,0,0,0,0,0,0],"split_type":[0,0,0,0,0,0,0,0,0,0,0,0,0,0,0,0,0,0,0,0,0,0,0,0,0,0,0,0,0,0,0,0,0,0,0,0,0,0,0,0,0,0,0,0,0,0,0,0,0,0,0,0,0,0,0,0,0,0,0,0,0],"sum_hessian":[1.5490598E5,8.018152E4,7.472447E4,1.0785214E4,6.939631E4,5.3784473E4,2.093999E4,1.9878585E3,8.797355E3,2.8393273E4,4.1003035E4,3.500931E4,1.8775164E4,1.6730607E4,4.2093833E3,1.9593585E3,2.8499958E1,3.3643506E3,5.433005E3,1.3985991E4,1.4407281E4,4.061047E4,3.9256677E2,3.4992945E4,1.6366272E1,7.325185E3,1.1449978E4,5.5790938E3,1.1151515E4,2.2286738E3,1.9807095E3,1.8498582E3,1.095004E2,1.7990286E1,1.0509672E1,1.663219E3,1.7011316E3,1.7431056E3,3.6898992E3,1.388124E4,1.04751015E2,9.115011E3,5.2922705E3,4.055063E3,3.6555406E4,1.5888017E2,2.3368658E2,1.3110948E4,2.1881996E4,7.2948916E3,3.0293571E1,1.0982193E4,4.6778458E2,3.721833E3,1.8572605E3,8.841806E3,2.3097083E3,2.2098525E3,1.8821445E1,1.9555177E3,2.5191727E1],"tree_param":{"num_deleted":"0","num_feature":"36","num_nodes":"61","size_leaf_vector":"1"}},{"base_weights":[2.3019123E-4,-1.7437924E-1,1.3722546E-1,-5.1277244E-1,-1.3138384E-1,7.5061485E-2,3.7306458E-1,-9.325451E-1,-4.4539785E-1,-2.4659766E-1,-8.457682E-2,2.9430285E-2,1.4167981E-1,3.1769347E-1,7.1507823E-1,-8.17955E-1,-1.395898E0,-4.3422514E-1,-1.4890658E0,-3.4764543E-1,-1.8376467E-1,-1.3032171E-1,-5.010897E-2,3.0415893E-2,-1.4171593E0,1.3378485E-1,5.551233E-1,5.0491494E-1,2.8672928E-1,6.0518837E-1,1.0274004E0,-1.0456832E-1,-3.9591286E-2,-9.0241E-2,-4.9560547E-2,-1.65603E-2,-2.5044188E-2,-4.559227E-2,-1.721268E-1,-1.650192E-2,-4.1911546E-2,-1.7283069E-2,-7.644078E-3,-6.4257286E-3,-8.391702E-2,-6.27125E-3,-1.0881033E-3,1.8179113E-4,4.0845894E-3,-1.4627774E-1,1.1622372E-2,2.2740331E-3,8.018924E-3,1.5560855E-2,4.2414803E-2,1.3526945E-2,2.8409058E-2,9.106199E-3,1.626868E-2,3.130254E-2,-1.9007592E-2,4.4340607E-2,7.8896195E-2],"categories":[],"categories_nodes":[],"categories_segments":[],"categories_sizes":[],"default_left":[0,0,0,0,0,0,0,0,0,0,0,0,0,0,0,0,0,0,0,0,0,0,0,0,0,0,0,0,0,0,0,0,0,0,0,0,0,0,0,0,0,0,0,0,0,0,0,0,0,0,0,0,0,0,0,0,0,0,0,0,0,0,0],"id":18,"left_children":[1,3,5,7,9,11,13,15,17,19,21,23,25,27,29,31,33,35,37,39,41,43,45,47,49,51,53,55,57,59,61,-1,-1,-1,-1,-1,-1,-1,-1,-1,-1,-1,-1,-1,-1,-1,-1,-1,-1,-1,-1,-1,-1,-1,-1,-1,-1,-1,-1,-1,-1,-1,-1],"loss_changes":[3.7143984E3,9.9318726E2,1.2756279E3,2.1723633E2,3.2663904E2,2.0932874E2,3.4350317E2,5.532245E1,7.6701904E1,1.11038086E2,6.791165E1,5.831421E1,9.12995E1,9.04259E1,8.615149E1,2.679303E1,3.286963E1,4.4912964E1,7.56196E1,5.766565E1,5.390451E1,5.1563232E1,5.244786E1,5.6084354E1,6.997319E1,6.450165E1,3.7220978E1,3.2703735E1,5.4142944E1,3.8733826E1,4.9420227E1,0E0,0E0,0E0,0E0,0E0,0E0,0E0,0E0,0E0,0E0,0E0,0E0,0E0,0E0,0E0,0E0,0E0,0E0,0E0,0E0,0E0,0E0,0E0,0E0,0E0,0E0,0E0,0E0,0E0,0E0,0E0,0E0],"parents":[2147483647,0,0,1,1,2,2,3,3,4,4,5,5,6,6,7,7,8,8,9,9,10,10,11,11,12,12,13,13,14,14,15,15,16,16,17,17,18,18,19,19,20,20,21,21,22,22,23,23,24,24,25,25,26,26,27,27,28,28,29,29,30,30],"right_children":[2,4,6,8,10,12,14,16,18,20,22,24,26,28,30,32,34,36,38,40,42,44,46,48,50,52,54,56,58,60,62,-1,-1,-1,-1,-1,-1,-1,-1,-1,-1,-1,-1,-1,-1,-1,-1,-1,-1,-1,-1,-1,-1,-1,-1,-1,-1,-1,-1,-1,-1,-1,-1],"split_conditions":[3.9232647E-1,1.1264903E-1,9.6810645E-1,2.5448162E-2,9.032837E4,7.9720896E-1,9.437867E-1,1.4749371E-5,1.3590957E-1,-9.5570844E-1,-2.8747073E-1,2.1496353E-1,9.090095E-1,2.1053472E3,9.8366886E-1,-5.238982E-4,4.6671104E-1,1.3749957E-5,2.8366667E1,3.5403363E-2,-1.43377585E-2,2.1496353E-1,-6.8568764E-3,6.1840534E-1,1.4288674E-5,9.746875E-2,9.999815E4,1.1237641E-1,3.1380916E-1,2.58E1,1.4812291E-5,-1.0456832E-1,-3.9591286E-2,-9.0241E-2,-4.9560547E-2,-1.65603E-2,-2.5044188E-2,-4.559227E-2,-1.721268E-1,-1.650192E-2,-4.1911546E-2,-1.7283069E-2,-7.644078E-3,-6.4257286E-3,-8.391702E-2,-6.27125E-3,-1.0881033E-3,1.8179113E-4,4.0845894E-3,-1.4627774E-1,1.1622372E-2,2.2740331E-3,8.018924E-3,1.5560855E-2,4.2414803E-2,1.3526945E-2,2.8409058E-2,9.106199E-3,1.626868E-2,3.130254E-2,-1.9007592E-2,4.4340607E-2,7.8896195E-2],"split_indices":[25,2,25,2,3,25,2,5,17,21,21,17,2,4,2,6,18,5,12,32,15,17,15,21,5,30,22,9,21,12,5,0,0,0,0,0,0,0,0,0,0,0,0,0,0,0,0,0,0,0,0,0,0,0,0,0,0,0,0,0,0,0,0],"split_type":[0,0,0,0,0,0,0,0,0,0,0,0,0,0,0,0,0,0,0,0,0,0,0,0,0,0,0,0,0,0,0,0,0,0,0,0,0,0,0,0,0,0,0,0,0,0,0,0,0,0,0,0,0,0,0,0,0,0,0,0,0,0,0],"sum_hessian":[1.5527789E5,6.826694E4,8.701095E4,7.694763E3,6.0572176E4,6.886136E4,1.8149596E4,1.0624435E3,6.63232E3,1.7497766E4,4.307441E4,4.0868984E4,2.7992373E4,1.56223125E4,2.5272832E3,8.5400745E2,2.0843607E2,6.563472E3,6.8847336E1,6.707024E3,1.0790742E4,1.8508115E4,2.4566295E4,4.0842137E4,2.6848038E1,2.7469154E4,5.232169E2,2.2148938E3,1.3407419E4,1.8716758E3,6.556074E2,1.5581991E1,8.384255E2,1.019547E2,1.0648138E2,2.5808308E3,3.9826416E3,5.4276302E1,1.4571031E1,6.476264E3,2.3075966E2,1.7270314E3,9.063711E3,1.8487617E4,2.049919E1,6.7167817E3,1.7849512E4,2.6830393E4,1.4011746E4,1.3620242E1,1.3227796E1,6.358491E3,2.1110664E4,2.8673123E2,2.364857E2,4.719146E2,1.7429792E3,3.6184478E3,9.788972E3,1.8332258E3,3.8449947E1,5.243213E2,1.3128616E2],"tree_param":{"num_deleted":"0","num_feature":"36","num_nodes":"63","size_leaf_vector":"1"}},{"base_weights":[4.5482913E-4,-1.4239317E-1,1.5132882E-1,-4.7058716E-1,-1.04932085E-1,1.0230787E-1,4.1806027E-1,-9.507766E-1,-4.2740092E-1,-2.3444639E-1,-6.40461E-2,4.9444467E-2,1.6036767E-1,3.6386082E-1,7.9889286E-1,-9.063212E-1,-1.4578733E-1,-5.1993483E-1,-3.2682672E-1,-3.632791E-1,-2.0237172E-1,-4.5648683E-2,-1.5266638E-1,5.063423E-2,-9.2522465E-2,8.4676504E-2,2.111222E-1,1.9082664E-1,4.14066E-1,7.5078785E-1,1.5827556E0,-4.7700733E-2,2.5860896E-2,-2.9717645E-2,-1.5302919E-2,-1.5893161E-2,-7.7940635E-2,-2.074381E-2,-8.130822E-3,-2.6468182E-2,-9.513796E-3,-4.475821E-3,-5.8825494E-4,-1.2579274E-2,-5.4035415E-3,5.7761517E-5,4.1600065E-3,4.3460075E-3,-9.9760756E-2,1.0276071E-2,3.9771643E-2,2.1118275E-3,1.4434784E-2,1.7926548E-2,2.6991485E-2,3.3223823E-2,5.301682E-2,1.300445E-1,5.9880883E-2],"categories":[],"categories_nodes":[],"categories_segments":[],"categories_sizes":[],"default_left":[0,0,0,0,0,0,0,0,0,0,0,0,0,0,0,0,0,0,0,0,0,0,0,0,0,0,0,0,0,0,0,0,0,0,0,0,0,0,0,0,0,0,0,0,0,0,0,0,0,0,0,0,0,0,0,0,0,0,0],"id":19,"left_children":[1,3,5,7,9,11,13,15,17,19,21,23,25,27,29,31,-1,33,35,37,39,41,43,45,-1,47,49,51,53,55,57,-1,-1,-1,-1,-1,-1,-1,-1,-1,-1,-1,-1,-1,-1,-1,-1,-1,-1,-1,-1,-1,-1,-1,-1,-1,-1,-1,-1],"loss_changes":[3.3466987E3,9.8060706E2,9.8742224E2,1.6904993E2,3.790948E2,1.9580121E2,2.4171045E2,5.6185425E1,6.961975E1,7.090979E1,8.871297E1,7.557957E1,1.1678369E2,8.9099365E1,5.3860046E1,4.5303223E1,0E0,6.19541E1,3.9215637E1,3.5371887E1,5.4307007E1,6.698078E1,4.1238037E1,5.3777214E1,0E0,5.713121E1,5.9395386E1,3.3587936E1,5.537329E1,3.6095093E1,2.9630585E1,0E0,0E0,0E0,0E0,0E0,0E0,0E0,0E0,0E0,0E0,0E0,0E0,0E0,0E0,0E0,0E0,0E0,0E0,0E0,0E0,0E0,0E0,0E0,0E0,0E0,0E0,0E0,0E0],"parents":[2147483647,0,0,1,1,2,2,3,3,4,4,5,5,6,6,7,7,8,8,9,9,10,10,11,11,12,12,13,13,14,14,15,15,17,17,18,18,19,19,20,20,21,21,22,22,23,23,25,25,26,26,27,27,28,28,29,29,30,30],"right_children":[2,4,6,8,10,12,14,16,18,20,22,24,26,28,30,32,-1,34,36,38,40,42,44,46,-1,48,50,52,54,56,58,-1,-1,-1,-1,-1,-1,-1,-1,-1,-1,-1,-1,-1,-1,-1,-1,-1,-1,-1,-1,-1,-1,-1,-1,-1,-1,-1,-1],"split_conditions":[5.111323E-1,1.1779772E-1,9.5070267E-1,1.7097138E-2,5.6762606E-2,7.449583E-1,9.6650726E-1,3.22E1,-1.418418E-1,4.6972265E-3,6.3E0,2.1496353E-1,3.522867E-2,1.3510443E-1,3.0213307E-5,1.324E3,-1.4578733E-1,6.1592265E6,3.1533333E1,3.6870822E6,-7.4138835E-2,-3.3873193E-2,2.890625E-1,1.9971499E-1,-9.2522465E-2,1.5309042E-1,9.090095E-1,4.2701375E4,1.4596516E-5,9.925803E-1,-6.4287796E-3,-4.7700733E-2,2.5860896E-2,-2.9717645E-2,-1.5302919E-2,-1.5893161E-2,-7.7940635E-2,-2.074381E-2,-8.130822E-3,-2.6468182E-2,-9.513796E-3,-4.475821E-3,-5.8825494E-4,-1.2579274E-2,-5.4035415E-3,5.7761517E-5,4.1600065E-3,4.3460075E-3,-9.9760756E-2,1.0276071E-2,3.9771643E-2,2.1118275E-3,1.4434784E-2,1.7926548E-2,2.6991485E-2,3.3223823E-2,5.301682E-2,1.300445E-1,5.9880883E-2],"split_indices":[0,2,1,2,0,1,2,11,20,0,12,17,20,30,5,23,0,4,12,4,17,19,29,30,0,16,2,14,5,2,34,0,0,0,0,0,0,0,0,0,0,0,0,0,0,0,0,0,0,0,0,0,0,0,0,0,0,0,0],"split_type":[0,0,0,0,0,0,0,0,0,0,0,0,0,0,0,0,0,0,0,0,0,0,0,0,0,0,0,0,0,0,0,0,0,0,0,0,0,0,0,0,0,0,0,0,0,0,0,0,0,0,0,0,0,0,0,0,0,0,0],"sum_hessian":[1.552825E5,7.9762836E4,7.5519664E4,8.170456E3,7.159238E4,6.3796312E4,1.1723352E4,6.724496E2,7.4980063E3,1.71768E4,5.4415582E4,3.3393453E4,3.0402861E4,1.0264483E4,1.4588688E3,6.5900165E2,1.3447963E1,3.9029255E3,3.5950806E3,3.421901E3,1.3754899E4,4.506225E4,9.353331E3,3.3373527E4,1.9926098E1,1.2204593E4,1.8198268E4,2.3094998E3,7.9549834E3,1.3763605E3,8.250828E1,6.379577E2,2.1043915E1,2.8941357E3,1.0087899E3,3.570362E3,2.4718683E1,2.7211377E3,7.007633E2,4.8913364E2,1.3265766E4,1.9637158E4,2.5425094E4,2.904999E3,6.448332E3,1.3247288E4,2.0126238E4,1.2192398E4,1.2194098E1,1.8026828E4,1.7144048E2,9.1767175E2,1.391828E3,5.520901E3,2.4340825E3,1.0787261E3,2.976344E2,2.1065985E1,6.144229E1],"tree_param":{"num_deleted":"0","num_feature":"36","num_nodes":"59","size_leaf_vector":"1"}},{"base_weights":[9.414152E-4,-1.7121984E-1,1.10305555E-1,-4.4604877E-1,-1.2781346E-1,3.53359E-1,6.425515E-2,-7.857446E-1,-3.9553317E-1,-2.2646932E-1,-7.9420894E-2,3.1454214E-1,6.7129743E-1,2.2048227E-2,1.3779314E-1,-7.377118E-1,-1.6223292E0,-3.8805866E-1,-1.7101696E0,-2.2391605E-1,-1.2520872E-1,-1.2137209E-1,-4.219949E-2,2.3738204E-1,3.885959E-1,-6.6854256E-1,6.9187313E-1,2.5495486E-2,-3.538652E-1,1.3188231E-1,8.99481E-1,-4.8529856E-2,-3.0876463E-2,-2.5794229E-2,-1.1163123E-1,-2.3087876E-2,-1.4840347E-2,-1.7098139E-1,-3.951898E-2,-1.4829221E-2,-7.806604E-3,-1.0659607E-1,-5.9767715E-3,-1.207581E-3,-7.1511725E-3,7.196653E-3,1.4622214E-2,1.1310579E-2,2.1245698E-2,1.5413843E-2,-7.215796E-2,2.775222E-2,4.513979E-2,-2.0069045E-4,2.99104E-3,1.3968116E-3,-3.290836E-2,6.662931E-3,-7.6410435E-2,5.6640375E-2,1.6142106E-2],"categories":[],"categories_nodes":[],"categories_segments":[],"categories_sizes":[],"default_left":[0,0,0,0,0,0,0,0,0,0,0,0,0,0,0,0,0,0,0,0,0,0,0,0,0,0,0,0,0,0,0,0,0,0,0,0,0,0,0,0,0,0,0,0,0,0,0,0,0,0,0,0,0,0,0,0,0,0,0,0,0],"id":20,"left_children":[1,3,5,7,9,11,13,15,17,19,21,23,25,27,29,31,33,35,37,39,-1,41,43,45,47,49,51,53,55,57,59,-1,-1,-1,-1,-1,-1,-1,-1,-1,-1,-1,-1,-1,-1,-1,-1,-1,-1,-1,-1,-1,-1,-1,-1,-1,-1,-1,-1,-1,-1],"loss_changes":[2.9213748E3,7.189784E2,1.0619907E3,1.4075903E2,2.4850226E2,1.8631152E2,2.4759354E2,4.152771E1,6.967883E1,9.906207E1,5.453032E1,7.6881226E1,4.577234E1,6.568871E1,1.3084583E2,2.7594788E1,3.7268738E1,4.7742554E1,6.0470093E1,8.42442E1,0E0,6.037558E1,3.3673813E1,3.39169E1,4.0433228E1,1.9638824E1,4.6229248E1,5.087311E1,5.353598E1,6.615646E1,2.974887E1,0E0,0E0,0E0,0E0,0E0,0E0,0E0,0E0,0E0,0E0,0E0,0E0,0E0,0E0,0E0,0E0,0E0,0E0,0E0,0E0,0E0,0E0,0E0,0E0,0E0,0E0,0E0,0E0,0E0,0E0],"parents":[2147483647,0,0,1,1,2,2,3,3,4,4,5,5,6,6,7,7,8,8,9,9,10,10,11,11,12,12,13,13,14,14,15,15,16,16,17,17,18,18,19,19,21,21,22,22,23,23,24,24,25,25,26,26,27,27,28,28,29,29,30,30],"right_children":[2,4,6,8,10,12,14,16,18,20,22,24,26,28,30,32,34,36,38,40,-1,42,44,46,48,50,52,54,56,58,60,-1,-1,-1,-1,-1,-1,-1,-1,-1,-1,-1,-1,-1,-1,-1,-1,-1,-1,-1,-1,-1,-1,-1,-1,-1,-1,-1,-1,-1,-1],"split_conditions":[3.123475E-1,1.1779772E-1,4.0706652E4,2.5448162E-2,9.032837E4,9.5853096E-1,8.127911E-1,3.0213307E-5,1.1171329E1,8.9367434E-2,-9.671775E-2,2.620908E1,-1.0982669E-3,4.6779443E-2,9.5853096E-1,3.3855286E-1,1.9603188E-1,4.9565372E-1,-5.832488E-1,-8.678867E-1,-1.2520872E-1,-1.3346184E-3,1.9192309E-4,1.8774305E-2,6.353622E-2,3.8095444E-1,9.8366886E-1,1.09508105E-1,5.8928855E-2,1.5309042E-1,1.4147373E-2,-4.8529856E-2,-3.0876463E-2,-2.5794229E-2,-1.1163123E-1,-2.3087876E-2,-1.4840347E-2,-1.7098139E-1,-3.951898E-2,-1.4829221E-2,-7.806604E-3,-1.0659607E-1,-5.9767715E-3,-1.207581E-3,-7.1511725E-3,7.196653E-3,1.4622214E-2,1.1310579E-2,2.1245698E-2,1.5413843E-2,-7.215796E-2,2.775222E-2,4.513979E-2,-2.0069045E-4,2.99104E-3,1.3968116E-3,-3.290836E-2,6.662931E-3,-7.6410435E-2,5.6640375E-2,1.6142106E-2],"split_indices":[0,2,4,2,3,2,0,5,35,15,20,21,7,15,2,10,31,8,20,21,0,7,7,20,8,10,2,21,16,16,15,0,0,0,0,0,0,0,0,0,0,0,0,0,0,0,0,0,0,0,0,0,0,0,0,0,0,0,0,0,0],"split_type":[0,0,0,0,0,0,0,0,0,0,0,0,0,0,0,0,0,0,0,0,0,0,0,0,0,0,0,0,0,0,0,0,0,0,0,0,0,0,0,0,0,0,0,0,0,0,0,0,0,0,0,0,0,0,0,0,0,0,0,0,0],"sum_hessian":[1.5515697E5,6.0273594E4,9.4883375E4,8.219879E3,5.2053715E4,1.5112601E4,7.977077E4,1.0622367E3,7.157642E3,1.7129287E4,3.4924426E4,1.3470042E4,1.642558E3,5.0682816E4,2.9087959E4,1.0063392E3,5.589752E1,7.118465E3,3.9177563E1,1.7111205E4,1.8083076E1,1.6417953E4,1.8506475E4,6.5987246E3,6.8713174E3,2.4366632E1,1.6181913E3,5.0223184E4,4.596321E2,2.8865135E4,2.2282518E2,3.4014413E2,6.6619507E2,2.0527378E1,3.537014E1,3.9357346E3,3.18273E3,1.2754707E1,2.6422857E1,8.25644E3,8.854764E3,1.3925867E1,1.6404027E4,1.5697756E4,2.8087185E3,2.4478933E3,4.1508315E3,1.2572338E3,5.614084E3,1.1043017E1,1.3323615E1,9.8368915E2,6.345022E2,2.700662E4,2.3216566E4,2.0425977E2,2.5537234E2,2.8842143E4,2.2991856E1,1.5794934E2,6.487584E1],"tree_param":{"num_deleted":"0","num_feature":"36","num_nodes":"61","size_leaf_vector":"1"}},{"base_weights":[-1.0735748E-3,-1.5109158E-1,1.1674451E-1,-3.879989E-1,-1.06594905E-1,7.532884E-2,3.8117814E-1,-6.6214406E-1,-3.3128855E-1,-1.697427E-1,-5.289645E-2,3.884387E-2,1.5341441E-1,3.2405356E-1,6.892713E-1,-5.8115023E-1,-9.706165E-1,-2.6622912E-1,-4.173175E-1,-1.475758E-1,-3.511113E-1,-5.078441E-2,-9.8685324E-1,8.906088E-3,7.448959E-2,1.13270774E-1,2.2558743E-1,1.7091042E-1,3.6904123E-1,-1.7647672E-1,7.135461E-1,-1.1465619E-1,-2.812438E-2,-7.033431E-2,-2.8466282E-2,-1.8546918E-2,-1.0015182E-2,-2.3422014E-2,-1.1111124E-2,-1.05287746E-1,-7.279461E-3,-1.6520709E-2,-5.182025E-2,-4.3591345E-3,-4.6126297E-4,2.0191042E-2,-9.1714576E-2,5.6907715E-4,-2.4804287E-2,3.8046066E-3,-6.0931798E-2,5.792131E-3,-1.05883114E-1,1.2967273E-2,3.5665135E-3,1.1074443E-3,1.3461405E-2,1.5453291E-2,2.5324184E-2,-4.8649937E-2,5.8064748E-2,2.6323065E-2,4.2995505E-2],"categories":[],"categories_nodes":[],"categories_segments":[],"categories_sizes":[],"default_left":[0,0,0,0,0,0,0,0,0,0,0,0,0,0,0,0,0,0,0,0,0,0,0,0,0,0,0,0,0,0,0,0,0,0,0,0,0,0,0,0,0,0,0,0,0,0,0,0,0,0,0,0,0,0,0,0,0,0,0,0,0,0,0],"id":21,"left_children":[1,3,5,7,9,11,13,15,17,19,21,23,25,27,29,31,33,35,37,39,41,43,45,47,49,51,53,55,57,59,61,-1,-1,-1,-1,-1,-1,-1,-1,-1,-1,-1,-1,-1,-1,-1,-1,-1,-1,-1,-1,-1,-1,-1,-1,-1,-1,-1,-1,-1,-1,-1,-1],"loss_changes":[2.7390593E3,7.185714E2,9.5057996E2,1.6735754E2,1.9460211E2,2.1380087E2,2.0663525E2,4.5570618E1,4.9888306E1,1.05984436E2,6.1134262E1,5.4584305E1,6.9215454E1,6.826074E1,3.8742798E1,4.551773E1,6.613611E1,3.5057312E1,3.824463E1,9.112497E1,4.0388916E1,4.681501E1,8.3155014E1,3.4760536E1,4.8478577E1,8.8368774E1,4.445639E1,3.2955322E1,6.302246E1,5.538708E1,4.849597E1,0E0,0E0,0E0,0E0,0E0,0E0,0E0,0E0,0E0,0E0,0E0,0E0,0E0,0E0,0E0,0E0,0E0,0E0,0E0,0E0,0E0,0E0,0E0,0E0,0E0,0E0,0E0,0E0,0E0,0E0,0E0,0E0],"parents":[2147483647,0,0,1,1,2,2,3,3,4,4,5,5,6,6,7,7,8,8,9,9,10,10,11,11,12,12,13,13,14,14,15,15,16,16,17,17,18,18,19,19,20,20,21,21,22,22,23,23,24,24,25,25,26,26,27,27,28,28,29,29,30,30],"right_children":[2,4,6,8,10,12,14,16,18,20,22,24,26,28,30,32,34,36,38,40,42,44,46,48,50,52,54,56,58,60,62,-1,-1,-1,-1,-1,-1,-1,-1,-1,-1,-1,-1,-1,-1,-1,-1,-1,-1,-1,-1,-1,-1,-1,-1,-1,-1,-1,-1,-1,-1,-1,-1],"split_conditions":[3.9232647E-1,3.9594837E-2,9.5070267E-1,4.1155092E-2,1.9950119E-1,8.750747E-1,9.5853096E-1,1.4764397E-5,2.7E2,2.987048E-4,1.7132512E-1,1.5994357E-1,7.1406336E0,1.3510443E-1,-9.664255E-4,-9.664255E-4,5.11088E6,7.790997E3,6.1592265E6,-1.3346184E-3,1.324E3,-4.0861648E-2,2.5E-1,1.324E3,7.085214E-2,1.1171329E1,2.6144732E6,4.2701375E4,1.4596516E-5,2.1829788E6,2.57E2,-1.1465619E-1,-2.812438E-2,-7.033431E-2,-2.8466282E-2,-1.8546918E-2,-1.0015182E-2,-2.3422014E-2,-1.1111124E-2,-1.05287746E-1,-7.279461E-3,-1.6520709E-2,-5.182025E-2,-4.3591345E-3,-4.6126297E-4,2.0191042E-2,-9.1714576E-2,5.6907715E-4,-2.4804287E-2,3.8046066E-3,-6.0931798E-2,5.792131E-3,-1.05883114E-1,1.2967273E-2,3.5665135E-3,1.1074443E-3,1.3461405E-2,1.5453291E-2,2.5324184E-2,-4.8649937E-2,5.8064748E-2,2.6323065E-2,4.2995505E-2],"split_indices":[25,1,1,2,1,25,2,5,23,6,17,21,21,30,7,7,4,3,4,7,23,21,28,23,15,35,3,14,5,14,23,0,0,0,0,0,0,0,0,0,0,0,0,0,0,0,0,0,0,0,0,0,0,0,0,0,0,0,0,0,0,0,0],"split_type":[0,0,0,0,0,0,0,0,0,0,0,0,0,0,0,0,0,0,0,0,0,0,0,0,0,0,0,0,0,0,0,0,0,0,0,0,0,0,0,0,0,0,0,0,0,0,0,0,0,0,0,0,0,0,0,0,0,0,0,0,0,0,0],"sum_hessian":[1.5496745E5,6.816832E4,8.679913E4,1.0777813E4,5.7390504E4,7.50466E4,1.1752535E4,1.8455433E3,8.93227E3,2.6373678E4,3.1016826E4,5.1149043E4,2.3897559E4,9.916023E3,1.8365114E3,1.4640264E3,3.815169E2,5.0883203E3,3.8439492E3,2.3502955E4,2.8707236E3,3.0947896E4,6.89309E1,2.780103E4,2.3348012E4,1.5357867E4,8.539691E3,2.2526262E3,7.6633975E3,4.9918674E1,1.7865928E3,1.44733925E1,1.449553E3,1.8163486E2,1.9988205E2,1.9641074E3,3.1242131E3,3.0447112E3,7.99238E2,2.2746222E1,2.3480207E4,2.7880032E3,8.27206E1,1.6497758E4,1.4450139E4,2.629819E1,4.2632713E1,2.7666387E4,1.3464238E2,2.3320053E4,2.7958857E1,1.534113E4,1.6737402E1,7.005836E3,1.5338553E3,8.9685187E2,1.3557744E3,5.337524E3,2.3258733E3,3.1459852E1,1.8458824E1,7.8622485E2,1.0003679E3],"tree_param":{"num_deleted":"0","num_feature":"36","num_nodes":"63","size_leaf_vector":"1"}},{"base_weights":[1.1588207E-3,-1.0202626E-1,1.6451292E-1,-2.733487E-1,-4.5855757E-2,1.2284729E-1,4.1230702E-1,-4.763676E-1,-2.2160786E-1,-4.4732947E-2,-1.656992E0,7.970146E-2,1.872151E-1,3.4808677E-1,5.7164013E-1,-4.0144244E-1,-6.199156E-1,-2.900241E-1,-1.5092683E-1,-1.0041667E-1,-1.3928569E-2,-9.0115803E-1,-1.6692829E-1,-1.4747833E0,8.094334E-2,1.3533817E-1,2.4852979E-1,2.2891639E-1,4.085761E-1,4.4704893E-1,6.898297E-1,-2.5848541E-2,-1.6190557E-2,-3.7836157E-2,-1.9979877E-2,-1.4178312E-2,-7.3533274E-2,-4.6840487E-3,-1.4897026E-2,-3.304539E-3,-7.846646E-3,-2.1757502E-3,1.2896208E-3,2.5403766E-2,-8.235749E-2,1.816336E-2,-1.6353592E-1,2.1825822E-3,6.7502684E-3,6.918306E-3,-4.7488656E-2,-8.7140445E-3,1.2857961E-2,8.922304E-3,1.917343E-2,-1.6669255E-3,2.1880789E-2,1.9328093E-2,4.0798154E-2,3.7941683E-2,1.5348581E-2],"categories":[],"categories_nodes":[],"categories_segments":[],"categories_sizes":[],"default_left":[0,0,0,0,0,0,0,0,0,0,0,0,0,0,0,0,0,0,0,0,0,0,0,0,0,0,0,0,0,0,0,0,0,0,0,0,0,0,0,0,0,0,0,0,0,0,0,0,0,0,0,0,0,0,0,0,0,0,0,0,0],"id":22,"left_children":[1,3,5,7,9,11,13,15,17,19,21,23,25,27,29,31,33,35,37,39,41,43,-1,45,47,49,51,53,55,57,59,-1,-1,-1,-1,-1,-1,-1,-1,-1,-1,-1,-1,-1,-1,-1,-1,-1,-1,-1,-1,-1,-1,-1,-1,-1,-1,-1,-1,-1,-1],"loss_changes":[2.6121213E3,9.1397015E2,6.193491E2,2.4622693E2,1.2931781E2,1.4261963E2,8.815967E1,5.0966553E1,9.033435E1,1.2260507E2,6.026764E1,5.9481888E1,6.552283E1,4.429004E1,3.619684E1,2.7918793E1,4.8864807E1,7.198352E1,7.735443E1,4.9377594E1,5.408505E1,3.8384796E1,0E0,8.238891E1,6.1940765E1,3.6820374E1,3.4504272E1,1.61195E1,5.24093E1,2.6678299E1,3.3328857E1,0E0,0E0,0E0,0E0,0E0,0E0,0E0,0E0,0E0,0E0,0E0,0E0,0E0,0E0,0E0,0E0,0E0,0E0,0E0,0E0,0E0,0E0,0E0,0E0,0E0,0E0,0E0,0E0,0E0,0E0],"parents":[2147483647,0,0,1,1,2,2,3,3,4,4,5,5,6,6,7,7,8,8,9,9,10,10,11,11,12,12,13,13,14,14,15,15,16,16,17,17,18,18,19,19,20,20,21,21,23,23,24,24,25,25,26,26,27,27,28,28,29,29,30,30],"right_children":[2,4,6,8,10,12,14,16,18,20,22,24,26,28,30,32,34,36,38,40,42,44,-1,46,48,50,52,54,56,58,60,-1,-1,-1,-1,-1,-1,-1,-1,-1,-1,-1,-1,-1,-1,-1,-1,-1,-1,-1,-1,-1,-1,-1,-1,-1,-1,-1,-1,-1,-1],"split_conditions":[6.702792E-1,1.1120002E-1,9.682394E-1,1.1017954E-2,2.1496353E-1,1.8206296E0,9.963779E-1,5.766667E0,-1.3653296E-1,2.1218707E-1,-8.572812E-3,-9.5714274E-4,8.4903747E-1,8.452399E4,7.497162E4,2.4221912E-3,6.8735915E-1,3.1533333E1,1.6694935E-4,9.227177E-3,3.8067248E-2,2.4300654E-1,-1.6692829E-1,1.6857581E5,1.4159994E-3,3.7033333E1,1.582071E-3,1.4464768E-2,1.7898196E-2,1.49618845E-5,6.7507885E-2,-2.5848541E-2,-1.6190557E-2,-3.7836157E-2,-1.9979877E-2,-1.4178312E-2,-7.3533274E-2,-4.6840487E-3,-1.4897026E-2,-3.304539E-3,-7.846646E-3,-2.1757502E-3,1.2896208E-3,2.5403766E-2,-8.235749E-2,1.816336E-2,-1.6353592E-1,2.1825822E-3,6.7502684E-3,6.918306E-3,-4.7488656E-2,-8.7140445E-3,1.2857961E-2,8.922304E-3,1.917343E-2,-1.6669255E-3,2.1880789E-2,1.9328093E-2,4.0798154E-2,3.7941683E-2,1.5348581E-2],"split_indices":[0,1,1,1,17,21,1,12,20,0,33,6,1,14,22,1,8,12,6,32,20,1,0,13,15,12,8,16,9,5,17,0,0,0,0,0,0,0,0,0,0,0,0,0,0,0,0,0,0,0,0,0,0,0,0,0,0,0,0,0,0],"split_type":[0,0,0,0,0,0,0,0,0,0,0,0,0,0,0,0,0,0,0,0,0,0,0,0,0,0,0,0,0,0,0,0,0,0,0,0,0,0,0,0,0,0,0,0,0,0,0,0,0,0,0,0,0,0,0,0,0,0,0,0,0],"sum_hessian":[1.5496755E5,9.497533E4,5.9992223E4,2.3449496E4,7.1525836E4,5.135806E4,8.634166E3,4.760846E3,1.868865E4,7.147705E4,4.878496E1,3.0749121E4,2.0608938E4,6.1560957E3,2.4780698E3,3.1306133E3,1.6302329E3,9.494895E3,9.193756E3,2.5457102E4,4.6019945E4,3.471649E1,1.4068471E1,2.3598694E1,3.0725521E4,1.1165379E4,9.443559E3,2.0742966E3,4.0817993E3,1.208692E3,1.2693778E3,1.255926E3,1.8746874E3,1.00422205E3,6.2601086E2,9.444476E3,5.041908E1,6.618289E3,2.5754673E3,1.5839153E4,9.617948E3,2.6374574E4,1.9645371E4,1.212687E1,2.258962E1,1.2056842E1,1.1541851E1,1.818406E4,1.2541461E4,1.1135179E4,3.0199682E1,1.8850055E2,9.255059E3,1.5652921E3,5.090045E2,2.5167982E2,3.8301194E3,1.0401904E3,1.6850163E2,1.0746987E3,1.9467906E2],"tree_param":{"num_deleted":"0","num_feature":"36","num_nodes":"61","size_leaf_vector":"1"}},{"base_weights":[-1.05877676E-4,-1.0064923E-1,1.422232E-1,-2.5748816E-1,-4.511766E-2,3.0461684E-1,9.223692E-2,-6.809746E-1,-2.3097311E-1,-3.529915E-1,-4.028868E-2,2.6314965E-1,5.320374E-1,8.891905E-2,8.458293E-1,-6.4733785E-1,-1.5511742E0,-3.3004478E-1,-1.824502E-1,-1.5615802E-1,-5.843842E-1,-8.7343745E-2,-1.5308089E-2,1.3799994E-1,2.9878294E-1,4.6885815E-1,9.1545E-1,9.0209655E-2,-1.4630921E0,-9.523092E-2,1.0457069E0,-2.8904473E-2,-5.2124437E-2,-1.1639305E-1,-1.3306935E-2,-1.6290147E-2,-1.1606478E-1,-4.17085E-3,-1.12942485E-2,-1.5470493E-2,1.4165312E-3,-7.068731E-2,-2.1025842E-2,-4.184942E-3,-3.858919E-2,-6.8754615E-4,-4.0567618E-2,-8.42253E-2,7.2832257E-3,1.3172517E-2,1.9762596E-2,-1.9701328E-2,2.4469135E-2,4.8296142E-2,-1.9011041E-2,1.2258667E-3,5.7658968E-3,-3.2268528E-2,-1.6591275E-1,2.630035E-2,-3.3513565E-2,3.5023946E-2,8.306973E-2],"categories":[],"categories_nodes":[],"categories_segments":[],"categories_sizes":[],"default_left":[0,0,0,0,0,0,0,0,0,0,0,0,0,0,0,0,0,0,0,0,0,0,0,0,0,0,0,0,0,0,0,0,0,0,0,0,0,0,0,0,0,0,0,0,0,0,0,0,0,0,0,0,0,0,0,0,0,0,0,0,0,0,0],"id":23,"left_children":[1,3,5,7,9,11,13,15,17,19,21,23,25,27,29,31,33,35,37,39,41,43,45,47,49,51,53,55,57,59,61,-1,-1,-1,-1,-1,-1,-1,-1,-1,-1,-1,-1,-1,-1,-1,-1,-1,-1,-1,-1,-1,-1,-1,-1,-1,-1,-1,-1,-1,-1,-1,-1],"loss_changes":[2.2183328E3,7.911933E2,5.208961E2,2.6657092E2,9.973074E1,1.4229419E2,1.22617615E2,3.994922E1,1.07410034E2,4.7091248E1,7.764486E1,5.6934692E1,5.5969788E1,9.7993774E1,4.053691E1,3.6304504E1,5.0634308E1,6.131317E1,6.4539825E1,1.5873821E1,6.406938E1,5.708116E1,5.347659E1,3.982424E1,3.3789795E1,3.5629944E1,2.1838684E1,8.051724E1,5.952806E1,1.4134229E1,3.654367E1,0E0,0E0,0E0,0E0,0E0,0E0,0E0,0E0,0E0,0E0,0E0,0E0,0E0,0E0,0E0,0E0,0E0,0E0,0E0,0E0,0E0,0E0,0E0,0E0,0E0,0E0,0E0,0E0,0E0,0E0,0E0,0E0],"parents":[2147483647,0,0,1,1,2,2,3,3,4,4,5,5,6,6,7,7,8,8,9,9,10,10,11,11,12,12,13,13,14,14,15,15,16,16,17,17,18,18,19,19,20,20,21,21,22,22,23,23,24,24,25,25,26,26,27,27,28,28,29,29,30,30],"right_children":[2,4,6,8,10,12,14,16,18,20,22,24,26,28,30,32,34,36,38,40,42,44,46,48,50,52,54,56,58,60,62,-1,-1,-1,-1,-1,-1,-1,-1,-1,-1,-1,-1,-1,-1,-1,-1,-1,-1,-1,-1,-1,-1,-1,-1,-1,-1,-1,-1,-1,-1,-1,-1],"split_conditions":[6.3006145E-1,9.032837E4,4.0706652E4,3.3479527E-2,1.0217274E-1,9.437867E-1,9.5853096E-1,5.983106E-4,1.4608644E-1,3.8E1,2.5825116E5,1.610991E-1,9.925803E-1,1.5309042E-1,1.44E2,1.4980937E-5,1.2023666E4,2.601E3,2.0649733E-1,-2.4359275E-2,2.3669348E6,4.4937424E-5,1.7132512E-1,-8.091502E-4,1.8482843E-2,-9.664255E-4,8.828671E0,1.3251291E-1,5.8382336E-2,1.950258E-1,3.0000302E-1,-2.8904473E-2,-5.2124437E-2,-1.1639305E-1,-1.3306935E-2,-1.6290147E-2,-1.1606478E-1,-4.17085E-3,-1.12942485E-2,-1.5470493E-2,1.4165312E-3,-7.068731E-2,-2.1025842E-2,-4.184942E-3,-3.858919E-2,-6.8754615E-4,-4.0567618E-2,-8.42253E-2,7.2832257E-3,1.3172517E-2,1.9762596E-2,-1.9701328E-2,2.4469135E-2,4.8296142E-2,-1.9011041E-2,1.2258667E-3,5.7658968E-3,-3.2268528E-2,-1.6591275E-1,2.630035E-2,-3.3513565E-2,3.5023946E-2,8.306973E-2],"split_indices":[0,3,4,2,2,2,2,7,2,24,3,30,2,16,23,5,3,23,30,20,4,5,17,7,17,7,35,30,32,30,31,0,0,0,0,0,0,0,0,0,0,0,0,0,0,0,0,0,0,0,0,0,0,0,0,0,0,0,0,0,0,0,0],"split_type":[0,0,0,0,0,0,0,0,0,0,0,0,0,0,0,0,0,0,0,0,0,0,0,0,0,0,0,0,0,0,0,0,0,0,0,0,0,0,0,0,0,0,0,0,0,0,0,0,0,0,0,0,0,0,0,0,0,0,0,0,0,0,0],"sum_hessian":[1.5501512E5,9.084276E4,6.4172367E4,2.375301E4,6.708975E4,1.5102572E4,4.9069797E4,1.3981243E3,2.2354887E4,1.0349347E3,6.605481E4,1.2775315E4,2.3272568E3,4.8855816E4,2.139814E2,1.3477714E3,5.0352947E1,7.3474414E3,1.5007445E4,5.6013354E2,4.748011E2,2.2905684E4,4.314913E4,2.8323914E3,9.942924E3,1.9999288E3,3.2732806E2,4.8816164E4,3.9652145E1,3.7578495E1,1.7640291E2,1.1488955E3,1.988758E2,3.0878307E1,1.9474638E1,7.332984E3,1.4457489E1,4.576269E3,1.0431176E4,3.055996E2,2.5453395E2,7.707638E1,3.977247E2,2.2785465E4,1.2021912E2,4.3065906E4,8.322525E1,1.0945551E1,2.8214458E3,7.2802114E3,2.6627124E3,4.6042274E1,1.9538866E3,3.1530005E2,1.2028024E1,1.3499244E4,3.5316918E4,2.8456797E1,1.1195352E1,1.8104637E1,1.9473856E1,1.1439638E2,6.200653E1],"tree_param":{"num_deleted":"0","num_feature":"36","num_nodes":"63","size_leaf_vector":"1"}},{"base_weights":[6.9022726E-4,-1.4872655E-1,8.736481E-2,-3.7863266E-1,-1.1295074E-1,3.8468346E-2,2.552657E-1,-1.0410919E0,-3.4893742E-1,-2.645067E-1,-8.918445E-2,-2.7810968E-3,7.892098E-2,2.2453547E-1,5.85975E-1,-4.2839643E-1,-1.2198161E0,-4.7110677E-1,-2.8816864E-1,-2.605114E-1,-1.0482397E-1,-1.5232863E-3,-1.1614214E-1,-1.488744E-3,-1.3613636E0,3.94922E-2,1.22499675E-1,1.2161934E-1,2.6723978E-1,4.657144E-1,7.912903E-1,-3.867678E-2,3.3821404E-2,-5.5696595E-2,-1.40963E-1,-3.9354604E-2,-2.0824976E-2,-1.3919674E-2,-6.464853E-2,-1.7025452E-2,-1.0611142E-2,