{"learner":{"attributes":{},"feature_names":["realized_vol_1h","price_trend_1h","liq_imbalance_1h","volume_vs_1h_avg_ratio","cvd_ratio_30m","funding_vs_30d_zscore","oi_vs_7d_avg_ratio","liq_cascade_active","oi_price_direction","hours_to_funding","liq_1h_vs_4h_avg","oi_funding_pressure"],"feature_types":[],"gradient_booster":{"model":{"cats":{"enc":[],"feature_segments":[],"sorted_idx":[]},"gbtree_model_param":{"num_parallel_tree":"1","num_trees":"50"},"iteration_indptr":[0,1,2,3,4,5,6,7,8,9,10,11,12,13,14,15,16,17,18,19,20,21,22,23,24,25,26,27,28,29,30,31,32,33,34,35,36,37,38,39,40,41,42,43,44,45,46,47,48,49,50],"tree_info":[0,0,0,0,0,0,0,0,0,0,0,0,0,0,0,0,0,0,0,0,0,0,0,0,0,0,0,0,0,0,0,0,0,0,0,0,0,0,0,0,0,0,0,0,0,0,0,0,0,0],"trees":[{"base_weights":[8.275697E-3,-9.2893934E-1,2.5637815E0,-1.5597184E0,-1.5509027E-1,2.0296848E0,5.4145083E0,-2.0282803E0,-1.2302204E0,-4.1022956E-1,4.585894E-1,1.556258E0,2.9333553E0,5.2022023E0,7.5133953E0,-1.1838493E0,-2.0908277E0,-1.5280713E0,-1.1709683E0,2.5071654E-2,-4.6319813E-1,8.5860366E-1,2.2189677E-1,1.155085E0,1.9175895E0,6.0993314E0,2.8713017E0,5.805012E0,4.6133614E0,8.393811E0,1.3039176E0,-1.4234881E-1,6.801676E-2,-2.3516181E-1,-1.80034E-1,-1.4515823E-1,-2.2041745E-1,-1.1916379E-1,-5.3399056E-2,5.0507512E-2,-2.7648998E-2,-4.9242835E-2,4.0205035E-2,1.29393255E-2,1.1861521E-1,1.1878477E-2,9.492949E-2,1.5559487E-1,8.609461E-2,1.7309046E-1,2.6138052E-1,8.757391E-2,7.1905726E-1,3.338766E-1,2.4891166E-1,-9.92476E-2,5.868112E-1,5.6394E-1,3.986905E-1,7.80922E-1,1.3740922E0,6.2432164E-1,-2.5603915E-2],"categories":[],"categories_nodes":[],"categories_segments":[],"categories_sizes":[],"default_left":[0,0,0,0,0,0,0,0,0,0,0,0,0,0,0,0,0,0,0,0,0,0,0,0,0,0,0,0,0,0,0,0,0,0,0,0,0,0,0,0,0,0,0,0,0,0,0,0,0,0,0,0,0,0,0,0,0,0,0,0,0,0,0],"id":0,"left_children":[1,3,5,7,9,11,13,15,17,19,21,23,25,27,29,31,33,35,37,39,41,43,45,47,49,51,53,55,57,59,61,-1,-1,-1,-1,-1,-1,-1,-1,-1,-1,-1,-1,-1,-1,-1,-1,-1,-1,-1,-1,-1,-1,-1,-1,-1,-1,-1,-1,-1,-1,-1,-1],"loss_changes":[1.3935645E5,2.078034E4,2.376079E4,3.6185664E3,2.9937227E3,5.6217188E3,1.0584453E3,5.0889844E2,2.4128125E2,3.114004E2,5.3144006E2,1.2490488E3,8.704922E2,7.683242E2,1.2136455E3,3.0025104E2,6.785586E2,1.1481299E2,1.5066699E2,2.1234406E2,3.047068E2,4.9833008E2,2.6457446E2,4.8126416E2,5.8555273E2,4.8392017E2,7.8403516E2,4.7891797E2,7.089883E2,5.0536523E2,2.2504616E2,0E0,0E0,0E0,0E0,0E0,0E0,0E0,0E0,0E0,0E0,0E0,0E0,0E0,0E0,0E0,0E0,0E0,0E0,0E0,0E0,0E0,0E0,0E0,0E0,0E0,0E0,0E0,0E0,0E0,0E0,0E0,0E0],"parents":[2147483647,0,0,1,1,2,2,3,3,4,4,5,5,6,6,7,7,8,8,9,9,10,10,11,11,12,12,13,13,14,14,15,15,16,16,17,17,18,18,19,19,20,20,21,21,22,22,23,23,24,24,25,25,26,26,27,27,28,28,29,29,30,30],"right_children":[2,4,6,8,10,12,14,16,18,20,22,24,26,28,30,32,34,36,38,40,42,44,46,48,50,52,54,56,58,60,62,-1,-1,-1,-1,-1,-1,-1,-1,-1,-1,-1,-1,-1,-1,-1,-1,-1,-1,-1,-1,-1,-1,-1,-1,-1,-1,-1,-1,-1,-1,-1,-1],"split_conditions":[5.0764763E-1,3.1066108E-1,9.76088E-1,2.0412816E-1,4.3334296E-1,6.9868296E-1,1.7071537E0,6.691205E-2,2.2333002E-1,-3.8653123E-1,3.2564E0,5.76514E-1,3.8841644E-1,2.75E0,7.570026E0,1.976293E0,1.5889195E-1,4.437144E-1,7.75E0,1E0,5.813787E-1,1.1667E0,3.1492215E-1,-4.2785004E-2,2.0881836E0,1.1667E0,0E0,-9.971398E-1,-5.138746E-1,6.75E0,-1.9239612E0,-1.4234881E-1,6.801676E-2,-2.3516181E-1,-1.80034E-1,-1.4515823E-1,-2.2041745E-1,-1.1916379E-1,-5.3399056E-2,5.0507512E-2,-2.7648998E-2,-4.9242835E-2,4.0205035E-2,1.29393255E-2,1.1861521E-1,1.1878477E-2,9.492949E-2,1.5559487E-1,8.609461E-2,1.7309046E-1,2.6138052E-1,8.757391E-2,7.1905726E-1,3.338766E-1,2.4891166E-1,-9.92476E-2,5.868112E-1,5.6394E-1,3.986905E-1,7.80922E-1,1.3740922E0,6.2432164E-1,-2.5603915E-2],"split_indices":[0,0,0,0,0,0,0,0,0,1,9,0,3,9,3,3,0,4,9,8,1,9,4,4,3,9,4,2,1,9,1,0,0,0,0,0,0,0,0,0,0,0,0,0,0,0,0,0,0,0,0,0,0,0,0,0,0,0,0,0,0,0,0],"split_type":[0,0,0,0,0,0,0,0,0,0,0,0,0,0,0,0,0,0,0,0,0,0,0,0,0,0,0,0,0,0,0,0,0,0,0,0,0,0,0,0,0,0,0,0,0,0,0,0,0,0,0,0,0,0,0,0,0,0,0,0,0,0,0],"sum_hessian":[5.8183E4,4.2571E4,1.5612E4,2.3453E4,1.9118E4,1.315E4,2.462E3,9.681E3,1.3772E4,1.3504E4,5.614E3,8.631E3,4.519E3,2.239E3,2.23E2,6.69E2,9.012E3,2.281E3,1.1491E4,1.465E3,1.2039E4,2.086E3,3.528E3,4.092E3,4.539E3,8.5E1,4.434E3,1.102E3,1.137E3,1.95E2,2.8E1,5.93E2,7.6E1,4.745E3,4.267E3,2.052E3,2.29E2,1.1129E4,3.62E2,5.65E2,9E2,1.1646E4,3.93E2,6.47E2,1.439E3,3.091E3,4.37E2,1.73E3,2.362E3,3.582E3,9.57E2,1.5E1,7E1,1.991E3,2.443E3,1E1,1.092E3,4.28E2,7.09E2,1.78E2,1.7E1,6E0,2.2E1],"tree_param":{"num_deleted":"0","num_feature":"12","num_nodes":"63","size_leaf_vector":"1"}},{"base_weights":[8.443144E-3,-8.5419416E-1,2.2344728E0,-1.387269E0,-1.4556803E-1,1.7635734E0,4.841381E0,-1.8302829E0,-1.0862262E0,-3.818346E-1,3.1112197E-1,1.9275256E0,-6.6975677E-1,5.007491E0,1.2540895E0,-2.003869E0,-1.5878762E0,-1.3752851E0,-9.941705E-1,-7.1646696E-1,-2.6718387E-1,3.9349395E-1,-3.6402836E-1,1.508026E0,2.7985952E0,-1.182822E0,1.322854E0,4.7925773E0,7.3646374E0,-9.87288E-1,3.638271E0,-1.1230158E-1,-2.1257047E-1,-1.667522E-1,-1.2665291E-1,-5.8629807E-2,-1.4766373E-1,3.036364E-2,-1.0120191E-1,7.9605676E-2,-8.109804E-2,-1.9012373E-2,-1.04189776E-1,1.5356511E-2,6.1145812E-2,1.2854919E-1,-5.568297E-2,1.1677673E-1,1.8603025E-1,3.2636067E-1,2.433013E-1,-1.788723E-1,-8.577686E-2,2.529604E-1,4.1959338E-2,4.721957E-1,9.369909E-1,7.83689E-1,1.139321E-2,1.6922991E-1,-1.3882568E-1,1.0210513E0,1.5173803E-1],"categories":[],"categories_nodes":[],"categories_segments":[],"categories_sizes":[],"default_left":[0,0,0,0,0,0,0,0,0,0,0,0,0,0,0,0,0,0,0,0,0,0,0,0,0,0,0,0,0,0,0,0,0,0,0,0,0,0,0,0,0,0,0,0,0,0,0,0,0,0,0,0,0,0,0,0,0,0,0,0,0,0,0],"id":1,"left_children":[1,3,5,7,9,11,13,15,17,19,21,23,25,27,29,31,33,35,37,39,41,43,45,47,49,51,53,55,57,59,61,-1,-1,-1,-1,-1,-1,-1,-1,-1,-1,-1,-1,-1,-1,-1,-1,-1,-1,-1,-1,-1,-1,-1,-1,-1,-1,-1,-1,-1,-1,-1,-1],"loss_changes":[1.1138254E5,1.5791293E4,1.9878453E4,3.1797266E3,1.9367185E3,5.476078E3,1.4703164E3,4.0291992E2,3.7667383E2,4.5363818E2,3.4049762E2,4.6939023E3,8.879327E2,1.1642969E3,5.967595E2,6.0074805E2,1.0108203E2,2.7333594E2,2.4999121E2,4.320802E2,5.258746E2,2.8518024E2,2.1252356E2,1.0382578E3,7.0231836E2,1.3436133E2,1.9296039E2,6.581758E2,6.7024414E2,6.466633E1,7.372131E2,0E0,0E0,0E0,0E0,0E0,0E0,0E0,0E0,0E0,0E0,0E0,0E0,0E0,0E0,0E0,0E0,0E0,0E0,0E0,0E0,0E0,0E0,0E0,0E0,0E0,0E0,0E0,0E0,0E0,0E0,0E0,0E0],"parents":[2147483647,0,0,1,1,2,2,3,3,4,4,5,5,6,6,7,7,8,8,9,9,10,10,11,11,12,12,13,13,14,14,15,15,16,16,17,17,18,18,19,19,20,20,21,21,22,22,23,23,24,24,25,25,26,26,27,27,28,28,29,29,30,30],"right_children":[2,4,6,8,10,12,14,16,18,20,22,24,26,28,30,32,34,36,38,40,42,44,46,48,50,52,54,56,58,60,62,-1,-1,-1,-1,-1,-1,-1,-1,-1,-1,-1,-1,-1,-1,-1,-1,-1,-1,-1,-1,-1,-1,-1,-1,-1,-1,-1,-1,-1,-1,-1,-1],"split_conditions":[4.975385E-1,3.1424204E-1,9.76088E-1,2.0412816E-1,4.2133066E-1,9.600715E-1,9.600715E-1,1.6144994E-1,-2.6249316E-1,-3.3047965E-1,8.1078404E-1,6.9868296E-1,1.772298E0,1.7071537E0,1.772298E0,6.691205E-2,4.3891713E-1,3.9402837E-1,-3.7554124E-5,-3.018097E0,9.191413E-1,4.5393696E-1,-3.2851714E-1,5.76514E-1,-1.0802111E-2,-8.098013E-3,9.579282E-6,9.191413E-1,7.570026E0,-2.1520518E-1,1.069905E0,-1.1230158E-1,-2.1257047E-1,-1.667522E-1,-1.2665291E-1,-5.8629807E-2,-1.4766373E-1,3.036364E-2,-1.0120191E-1,7.9605676E-2,-8.109804E-2,-1.9012373E-2,-1.04189776E-1,1.5356511E-2,6.1145812E-2,1.2854919E-1,-5.568297E-2,1.1677673E-1,1.8603025E-1,3.2636067E-1,2.433013E-1,-1.788723E-1,-8.577686E-2,2.529604E-1,4.1959338E-2,4.721957E-1,9.369909E-1,7.83689E-1,1.139321E-2,1.6922991E-1,-1.3882568E-1,1.0210513E0,1.5173803E-1],"split_indices":[0,0,0,0,0,5,5,0,5,5,5,0,5,0,5,0,5,3,11,5,5,0,4,0,4,4,11,5,3,4,0,0,0,0,0,0,0,0,0,0,0,0,0,0,0,0,0,0,0,0,0,0,0,0,0,0,0,0,0,0,0,0,0],"split_type":[0,0,0,0,0,0,0,0,0,0,0,0,0,0,0,0,0,0,0,0,0,0,0,0,0,0,0,0,0,0,0,0,0,0,0,0,0,0,0,0,0,0,0,0,0,0,0,0,0,0,0,0,0,0,0,0,0,0,0,0,0,0,0],"sum_hessian":[5.8002E4,4.1803E4,1.6199E4,2.3856E4,1.7947E4,1.3722E4,2.477E3,9.65E3,1.4206E4,1.1828E4,6.119E3,1.2856E4,8.66E2,2.367E3,1.1E2,5.619E3,4.031E3,3.428E3,1.0778E4,3.017E3,8.811E3,5.454E3,6.65E2,8.679E3,4.177E3,6.89E2,1.77E2,2.172E3,1.95E2,5.7E1,5.3E1,6.84E2,4.935E3,3.227E3,8.04E2,3.91E2,3.037E3,1.46E2,1.0632E4,1.77E2,2.84E3,8.015E3,7.96E2,2.597E3,2.857E3,6.9E1,5.96E2,4.417E3,4.262E3,1.835E3,2.342E3,2.39E2,4.5E2,7.5E1,1.02E2,2.141E3,3.1E1,1.83E2,1.2E1,7E0,5E1,1.2E1,4.1E1],"tree_param":{"num_deleted":"0","num_feature":"12","num_nodes":"63","size_leaf_vector":"1"}},{"base_weights":[-2.4350905E-3,-7.3492724E-1,2.1659374E0,-1.2634038E0,-8.313792E-2,1.7237337E0,4.587633E0,-1.5893953E0,-9.715622E-1,-3.323108E-1,4.1426113E-1,2.587901E0,1.152979E0,6.633949E0,4.2670245E0,-1.8058748E0,-1.3896092E0,-3.7828726E-1,-1.0324018E0,-8.6841546E-2,-5.606907E-1,1.4368244E0,2.5006524E-1,1.5683917E0,2.9175632E0,1.3106121E0,-4.139749E-1,9.584741E0,5.3144293E0,4.4346523E0,8.523659E-1,-1.085534E-1,-1.9069545E-1,-3.4371525E-2,-1.4379916E-1,2.1916425E-3,-6.298267E-2,-1.1141556E-1,-5.2682526E-2,-3.174672E-2,1.49189485E-2,-1.1700034E-1,-4.166456E-2,1.078772E0,1.3512532E-1,1.2639301E-2,1.1636039E-1,1.637617E-1,-1.0268114E-1,4.0676758E-1,2.6064274E-1,9.0449944E-2,2.0272246E-1,-1.018667E-1,1.4942303E-1,1.1048135E0,6.96081E-1,4.2352572E-1,8.0594677E-1,4.2939004E-1,7.938559E-1,6.330374E-1,-7.351757E-2],"categories":[],"categories_nodes":[],"categories_segments":[],"categories_sizes":[],"default_left":[0,0,0,0,0,0,0,0,0,0,0,0,0,0,0,0,0,0,0,0,0,0,0,0,0,0,0,0,0,0,0,0,0,0,0,0,0,0,0,0,0,0,0,0,0,0,0,0,0,0,0,0,0,0,0,0,0,0,0,0,0,0,0],"id":2,"left_children":[1,3,5,7,9,11,13,15,17,19,21,23,25,27,29,31,33,35,37,39,41,43,45,47,49,51,53,55,57,59,61,-1,-1,-1,-1,-1,-1,-1,-1,-1,-1,-1,-1,-1,-1,-1,-1,-1,-1,-1,-1,-1,-1,-1,-1,-1,-1,-1,-1,-1,-1,-1,-1],"loss_changes":[9.229545E4,1.496166E4,1.5705156E4,2.2805234E3,2.4107385E3,6.1174766E3,1.4576836E3,4.874668E2,4.5653027E2,7.2643616E2,1.0896519E3,1.6540469E3,1.8468955E3,1.1366201E3,1.1186797E3,3.935879E2,2.9786035E2,1.18700226E2,4.739541E2,3.401016E2,5.8870264E2,7.039739E2,6.319724E2,2.1870312E2,1.3234297E3,1.9748105E3,7.907737E2,2.8020117E2,5.968501E2,8.8766797E2,8.134345E2,0E0,0E0,0E0,0E0,0E0,0E0,0E0,0E0,0E0,0E0,0E0,0E0,0E0,0E0,0E0,0E0,0E0,0E0,0E0,0E0,0E0,0E0,0E0,0E0,0E0,0E0,0E0,0E0,0E0,0E0,0E0,0E0],"parents":[2147483647,0,0,1,1,2,2,3,3,4,4,5,5,6,6,7,7,8,8,9,9,10,10,11,11,12,12,13,13,14,14,15,15,16,16,17,17,18,18,19,19,20,20,21,21,22,22,23,23,24,24,25,25,26,26,27,27,28,28,29,29,30,30],"right_children":[2,4,6,8,10,12,14,16,18,20,22,24,26,28,30,32,34,36,38,40,42,44,46,48,50,52,54,56,58,60,62,-1,-1,-1,-1,-1,-1,-1,-1,-1,-1,-1,-1,-1,-1,-1,-1,-1,-1,-1,-1,-1,-1,-1,-1,-1,-1,-1,-1,-1,-1,-1,-1],"split_conditions":[5.22043E-1,3.1424204E-1,1.0058535E0,2.1768232E-1,4.3334296E-1,9.6144783E-1,8.209757E-1,1.5889195E-1,9.129413E-1,1.0016273E0,8.8824E-1,5.76514E-1,9.600715E-1,-4.5680147E-1,9.600715E-1,6.691205E-2,3.333E-1,3.2564E0,1.1139272E0,3.7014055E-1,-7.6685643E-1,-4.4671254E0,1.1006472E0,8.980948E-1,8.209757E-1,6.9868296E-1,1.772298E0,-1.667259E-2,1.4666436E0,1.140179E0,1.069905E0,-1.085534E-1,-1.9069545E-1,-3.4371525E-2,-1.4379916E-1,2.1916425E-3,-6.298267E-2,-1.1141556E-1,-5.2682526E-2,-3.174672E-2,1.49189485E-2,-1.1700034E-1,-4.166456E-2,1.078772E0,1.3512532E-1,1.2639301E-2,1.1636039E-1,1.637617E-1,-1.0268114E-1,4.0676758E-1,2.6064274E-1,9.0449944E-2,2.0272246E-1,-1.018667E-1,1.4942303E-1,1.1048135E0,6.96081E-1,4.2352572E-1,8.0594677E-1,4.2939004E-1,7.938559E-1,6.330374E-1,-7.351757E-2],"split_indices":[0,0,0,0,0,6,6,0,6,6,6,0,5,1,5,0,9,9,6,0,5,5,6,5,6,0,5,4,0,6,0,0,0,0,0,0,0,0,0,0,0,0,0,0,0,0,0,0,0,0,0,0,0,0,0,0,0,0,0,0,0,0,0],"split_type":[0,0,0,0,0,0,0,0,0,0,0,0,0,0,0,0,0,0,0,0,0,0,0,0,0,0,0,0,0,0,0,0,0,0,0,0,0,0,0,0,0,0,0,0,0,0,0,0,0,0,0,0,0,0,0,0,0,0,0,0,0,0,0],"sum_hessian":[5.8107E4,4.3435E4,1.4672E4,2.3986E4,1.9449E4,1.2408E4,2.264E3,1.1328E4,1.2658E4,1.2958E4,6.491E3,4.934E3,7.474E3,3.04E2,1.96E3,5.433E3,5.895E3,1.178E3,1.148E4,6.246E3,6.712E3,8.97E2,5.594E3,1.207E3,3.727E3,6.791E3,6.83E2,9.2E1,2.12E2,1.868E3,9.2E1,6.7E2,4.763E3,2.61E2,5.634E3,4.55E2,7.23E2,9.881E3,1.599E3,3.159E3,3.087E3,1.282E3,5.43E3,7E0,8.9E2,4.928E3,6.66E2,1.176E3,3.1E1,7.91E2,2.936E3,4.336E3,2.455E3,5.19E2,1.64E2,5.7E1,3.5E1,1.54E2,5.8E1,1.798E3,7E1,2E1,7.2E1],"tree_param":{"num_deleted":"0","num_feature":"12","num_nodes":"63","size_leaf_vector":"1"}},{"base_weights":[-1.0911011E-5,-6.9137096E-1,1.7870768E0,-1.1164888E0,-1.16038404E-1,1.3808941E0,4.060348E0,-1.4588263E0,-8.79522E-1,2.1681516E-1,-3.4731525E-1,2.1415086E0,8.850401E-1,5.936916E0,3.717288E0,-1.6124701E0,-1.276049E0,-2.4361809E-1,-9.4514745E-1,2.3607198E-2,8.99732E-1,-4.6658605E-1,2.0083074E-1,4.7265086E0,2.0373435E0,3.916769E-1,1.3186852E0,8.025109E0,5.0967197E0,4.4619164E0,2.9384212E0,-8.49961E-2,-1.7168783E-1,-7.8995325E-2,-1.3480273E-1,-2.707979E-2,5.830906E-1,-1.0255464E-1,-4.957653E-2,3.874768E-1,6.6584785E-4,1.5484016E-1,6.530121E-2,-4.8912674E-2,3.9537987E-1,-1.486276E-3,9.341226E-2,1.071907E0,4.003954E-1,1.1608688E-1,2.2976294E-1,1.7141161E-2,1.457518E-1,1.6941077E-1,9.750309E-2,8.566972E-1,1.9123435E-1,4.381573E-1,7.6163787E-1,4.2488882E-1,1.1662668E0,3.4458825E-1,1.51942E-1],"categories":[],"categories_nodes":[],"categories_segments":[],"categories_sizes":[],"default_left":[0,0,0,0,0,0,0,0,0,0,0,0,0,0,0,0,0,0,0,0,0,0,0,0,0,0,0,0,0,0,0,0,0,0,0,0,0,0,0,0,0,0,0,0,0,0,0,0,0,0,0,0,0,0,0,0,0,0,0,0,0,0,0],"id":3,"left_children":[1,3,5,7,9,11,13,15,17,19,21,23,25,27,29,31,33,35,37,39,41,43,45,47,49,51,53,55,57,59,61,-1,-1,-1,-1,-1,-1,-1,-1,-1,-1,-1,-1,-1,-1,-1,-1,-1,-1,-1,-1,-1,-1,-1,-1,-1,-1,-1,-1,-1,-1,-1,-1],"loss_changes":[7.1978984E4,1.0274111E4,1.4999969E4,1.9583965E3,1.3742689E3,5.1986797E3,1.5635469E3,2.7539844E2,5.9561035E2,9.6568396E2,6.8871826E2,1.4554512E3,1.785706E3,6.240508E2,1.1961211E3,4.2558008E2,1.5697705E2,2.2232367E2,4.6708594E2,3.7241763E2,2.5729297E2,8.63907E2,2.9784097E2,8.663716E2,1.1909297E3,9.16988E2,5.7156494E2,3.3803125E2,4.585537E2,1.5825859E3,7.3069336E2,0E0,0E0,0E0,0E0,0E0,0E0,0E0,0E0,0E0,0E0,0E0,0E0,0E0,0E0,0E0,0E0,0E0,0E0,0E0,0E0,0E0,0E0,0E0,0E0,0E0,0E0,0E0,0E0,0E0,0E0,0E0,0E0],"parents":[2147483647,0,0,1,1,2,2,3,3,4,4,5,5,6,6,7,7,8,8,9,9,10,10,11,11,12,12,13,13,14,14,15,15,16,16,17,17,18,18,19,19,20,20,21,21,22,22,23,23,24,24,25,25,26,26,27,27,28,28,29,29,30,30],"right_children":[2,4,6,8,10,12,14,16,18,20,22,24,26,28,30,32,34,36,38,40,42,44,46,48,50,52,54,56,58,60,62,-1,-1,-1,-1,-1,-1,-1,-1,-1,-1,-1,-1,-1,-1,-1,-1,-1,-1,-1,-1,-1,-1,-1,-1,-1,-1,-1,-1,-1,-1,-1,-1],"split_conditions":[4.975385E-1,3.1594962E-1,9.76088E-1,2.0603998E-1,9.84893E-1,9.6144783E-1,8.28429E-1,1.5889195E-1,9.145157E-1,4.4843778E-1,1.1031812E0,-1.1825688E0,6.1085874E-1,-4.5680147E-1,2.6661E0,6.691205E-2,9.5154136E-1,6.014151E-1,1.1084361E0,-1.1780605E-4,2.4167E0,8.8802255E-5,6.25E0,7.2254086E-1,5.470821E-1,1.1006472E0,3.5014E0,7.570026E0,1.4666436E0,1.140179E0,1.0333375E0,-8.49961E-2,-1.7168783E-1,-7.8995325E-2,-1.3480273E-1,-2.707979E-2,5.830906E-1,-1.0255464E-1,-4.957653E-2,3.874768E-1,6.6584785E-4,1.5484016E-1,6.530121E-2,-4.8912674E-2,3.9537987E-1,-1.486276E-3,9.341226E-2,1.071907E0,4.003954E-1,1.1608688E-1,2.2976294E-1,1.7141161E-2,1.457518E-1,1.6941077E-1,9.750309E-2,8.566972E-1,1.9123435E-1,4.381573E-1,7.6163787E-1,4.2488882E-1,1.1662668E0,3.4458825E-1,1.51942E-1],"split_indices":[0,0,0,0,6,6,6,0,6,0,6,1,0,1,9,0,6,1,6,11,9,11,9,3,0,6,9,3,0,6,6,0,0,0,0,0,0,0,0,0,0,0,0,0,0,0,0,0,0,0,0,0,0,0,0,0,0,0,0,0,0,0,0],"split_type":[0,0,0,0,0,0,0,0,0,0,0,0,0,0,0,0,0,0,0,0,0,0,0,0,0,0,0,0,0,0,0,0,0,0,0,0,0,0,0,0,0,0,0,0,0,0,0,0,0,0,0,0,0,0,0,0,0,0,0,0,0,0,0],"sum_hessian":[5.8256E4,4.2006E4,1.625E4,2.4156E4,1.785E4,1.3788E4,2.462E3,9.879E3,1.4277E4,7.318E3,1.0532E4,5.44E3,8.348E3,3.78E2,2.084E3,5.363E3,4.516E3,1.336E3,1.2941E4,5.705E3,1.613E3,8.65E3,1.882E3,2.09E2,5.231E3,3.906E3,4.442E3,1.06E2,2.72E2,1.063E3,1.021E3,6.47E2,4.716E3,5.84E2,3.932E3,1.331E3,5E0,1.0976E4,1.965E3,2.4E1,5.681E3,4.43E2,1.17E3,8.607E3,4.3E1,1.455E3,4.27E2,2.1E1,1.88E2,1.199E3,4.032E3,3.238E3,6.68E2,2.121E3,2.321E3,9.7E1,9E0,2.14E2,5.8E1,1.034E3,2.9E1,7.51E2,2.7E2],"tree_param":{"num_deleted":"0","num_feature":"12","num_nodes":"63","size_leaf_vector":"1"}},{"base_weights":[9.382316E-3,2.2781324E0,-1.11548096E-1,3.8574367E0,1.794691E0,-2.5305897E-1,1.6662184E0,6.7845087E0,2.998987E0,1.9534907E0,4.937583E-1,3.9876264E-1,-3.6027637E-1,1.8948685E0,-5.791049E-1,6.988146E-1,7.3838058E0,3.233987E0,3.13782E-1,1.446097E0,2.458431E0,2.1289566E0,4.4483714E-2,8.2897097E-1,2.034959E-1,-4.8871058E-1,2.4230653E-1,1.5820274E0,3.5332766E0,-1.5530754E0,2.4013977E0,4.3075296E-1,-2.9972523E-1,7.729594E-1,-3.39795E-2,2.6911807E-1,5.7526225E-1,4.3387866E-1,-5.6496985E-2,2.1544449E-1,4.3067012E-2,3.0470178E-1,1.6171393E-1,4.2476034E-1,1.0979849E-1,-2.5521547E-2,1.907631E-1,1.2560922E-1,4.1678004E-2,-6.3554407E-3,5.0780166E-2,-6.0701508E-2,1.036804E-2,3.3805754E-2,-8.067217E-2,2.9529595E-1,1.3954389E-1,7.515463E-1,3.1906825E-1,-1.0947833E-1,-2.1526538E-1,4.6054688E-1,-7.6848224E-2],"categories":[],"categories_nodes":[],"categories_segments":[],"categories_sizes":[],"default_left":[0,0,0,0,0,0,0,0,0,0,0,0,0,0,0,0,0,0,0,0,0,0,0,0,0,0,0,0,0,0,0,0,0,0,0,0,0,0,0,0,0,0,0,0,0,0,0,0,0,0,0,0,0,0,0,0,0,0,0,0,0,0,0],"id":4,"left_children":[1,3,5,7,9,11,13,15,17,19,21,23,25,27,29,31,33,35,37,39,41,43,45,47,49,51,53,55,57,59,61,-1,-1,-1,-1,-1,-1,-1,-1,-1,-1,-1,-1,-1,-1,-1,-1,-1,-1,-1,-1,-1,-1,-1,-1,-1,-1,-1,-1,-1,-1,-1,-1],"loss_changes":[1.5912362E4,2.2339531E3,1.3852802E4,1.7059082E3,4.6365186E2,3.5646409E3,2.0854756E3,5.60146E2,3.353203E2,5.0987646E2,1.8062994E2,6.050901E2,3.389899E3,1.8831973E3,1.0952281E3,2.129815E2,3.7919922E2,6.544131E2,1.580784E2,7.1978613E2,4.9173096E2,1.11102264E2,1.08813286E2,3.954253E2,4.0286258E2,2.5303926E3,7.7330133E2,7.878364E2,7.809419E2,7.56814E1,6.532969E2,0E0,0E0,0E0,0E0,0E0,0E0,0E0,0E0,0E0,0E0,0E0,0E0,0E0,0E0,0E0,0E0,0E0,0E0,0E0,0E0,0E0,0E0,0E0,0E0,0E0,0E0,0E0,0E0,0E0,0E0,0E0,0E0],"parents":[2147483647,0,0,1,1,2,2,3,3,4,4,5,5,6,6,7,7,8,8,9,9,10,10,11,11,12,12,13,13,14,14,15,15,16,16,17,17,18,18,19,19,20,20,21,21,22,22,23,23,24,24,25,25,26,26,27,27,28,28,29,29,30,30],"right_children":[2,4,6,8,10,12,14,16,18,20,22,24,26,28,30,32,34,36,38,40,42,44,46,48,50,52,54,56,58,60,62,-1,-1,-1,-1,-1,-1,-1,-1,-1,-1,-1,-1,-1,-1,-1,-1,-1,-1,-1,-1,-1,-1,-1,-1,-1,-1,-1,-1,-1,-1,-1,-1],"split_conditions":[-7.0238596E-1,-1.3455397E0,5.633601E-1,1.5977151E0,6.9041216E-1,-2.9508716E-1,9.600715E-1,7.211E-1,7.823117E-1,2.8054243E-2,-2.8126842E-1,-4.981178E-1,2.5201684E-1,1.2492614E0,1.772298E0,1.314E-1,6.19216E-1,4.8306915E-1,-1.1780605E-4,3.2954301E-6,1.8693932E0,8.3800066E-1,2.6126105E-5,4.0833E0,5.3056132E-2,6.1500427E-6,9.600715E-1,-1.3840045E0,-5.1552634E-5,5E0,2.4167E0,4.3075296E-1,-2.9972523E-1,7.729594E-1,-3.39795E-2,2.6911807E-1,5.7526225E-1,4.3387866E-1,-5.6496985E-2,2.1544449E-1,4.3067012E-2,3.0470178E-1,1.6171393E-1,4.2476034E-1,1.0979849E-1,-2.5521547E-2,1.907631E-1,1.2560922E-1,4.1678004E-2,-6.3554407E-3,5.0780166E-2,-6.0701508E-2,1.036804E-2,3.3805754E-2,-8.067217E-2,2.9529595E-1,1.3954389E-1,7.515463E-1,3.1906825E-1,-1.0947833E-1,-2.1526538E-1,4.6054688E-1,-7.6848224E-2],"split_indices":[1,1,1,3,5,1,5,9,5,5,4,1,1,1,5,9,5,5,11,11,3,3,11,9,5,11,5,5,11,9,9,0,0,0,0,0,0,0,0,0,0,0,0,0,0,0,0,0,0,0,0,0,0,0,0,0,0,0,0,0,0,0,0],"split_type":[0,0,0,0,0,0,0,0,0,0,0,0,0,0,0,0,0,0,0,0,0,0,0,0,0,0,0,0,0,0,0,0,0,0,0,0,0,0,0,0,0,0,0,0,0,0,0,0,0,0,0,0,0,0,0,0,0,0,0,0,0,0,0],"sum_hessian":[5.7996E4,2.934E3,5.5062E4,6.86E2,2.248E3,5.1003E4,4.059E3,1.54E2,5.32E2,2.003E3,2.45E2,7.204E3,4.3799E4,3.684E3,3.75E2,1.4E1,1.4E2,4.89E2,4.3E1,1.001E3,1.002E3,5.2E1,1.93E2,2.248E3,4.956E3,3.6104E4,7.695E3,3.095E3,5.89E2,2.83E2,9.2E1,7E0,7E0,1.34E2,6E0,4.04E2,8.5E1,7E0,3.6E1,5.89E2,4.12E2,5.88E2,4.14E2,1.6E1,3.6E1,1.67E2,2.6E1,1.103E3,1.145E3,2.64E3,2.316E3,3.0094E4,6.01E3,7.052E3,6.43E2,3.69E2,2.726E3,4.5E1,5.44E2,1.62E2,1.21E2,5.4E1,3.8E1],"tree_param":{"num_deleted":"0","num_feature":"12","num_nodes":"63","size_leaf_vector":"1"}},{"base_weights":[-2.9259352E-3,-5.6428945E-1,1.6728437E0,-9.379142E-1,-1.1042896E-2,1.315741E0,3.395863E0,-1.2383115E0,-7.05489E-1,4.2127514E-1,-1.5544404E-1,2.0303795E0,8.33881E-1,4.265546E0,2.8694265E0,-1.4165297E0,-1.1095787E0,-1.012449E0,-6.192701E-1,1.8747704E-1,8.6186606E-1,-2.4240546E-1,3.879348E-1,1.1912394E0,2.2392654E0,6.797621E-1,1.9250822E0,3.9533484E0,6.588115E0,2.7211394E0,6.135393E0,-6.591513E-2,-1.540215E-1,-1.1158822E-1,4.208204E-1,-3.228618E-2,-1.20541565E-1,-6.754997E-2,-2.2229671E-2,2.9615939E-2,-6.414218E-2,1.2793715E-1,5.0382614E-2,-8.124367E-3,-5.418655E-2,1.0241226E-1,-1.4261357E-2,8.4821004E-1,1.1371179E-1,8.117445E-1,2.2006841E-1,8.322061E-2,-3.7938964E-2,1.6218044E-1,4.4523516E-1,5.784196E-1,3.542188E-1,3.0200335E-1,7.656569E-1,8.589503E-1,2.6397786E-1,9.027185E-1,2.8824207E-1],"categories":[],"categories_nodes":[],"categories_segments":[],"categories_sizes":[],"default_left":[0,0,0,0,0,0,0,0,0,0,0,0,0,0,0,0,0,0,0,0,0,0,0,0,0,0,0,0,0,0,0,0,0,0,0,0,0,0,0,0,0,0,0,0,0,0,0,0,0,0,0,0,0,0,0,0,0,0,0,0,0,0,0],"id":5,"left_children":[1,3,5,7,9,11,13,15,17,19,21,23,25,27,29,31,33,35,37,39,41,43,45,47,49,51,53,55,57,59,61,-1,-1,-1,-1,-1,-1,-1,-1,-1,-1,-1,-1,-1,-1,-1,-1,-1,-1,-1,-1,-1,-1,-1,-1,-1,-1,-1,-1,-1,-1,-1,-1],"loss_changes":[5.4629258E4,8.991728E3,8.961609E3,1.812E3,1.0947893E3,4.155367E3,1.1328008E3,2.582539E2,3.868579E2,4.5215247E2,6.21282E2,8.493906E2,1.2115674E3,6.5627344E2,7.3929785E2,4.4357227E2,2.2526074E2,4.2662378E2,2.5505322E2,2.5873874E2,2.268695E2,5.4690356E2,6.124226E2,3.7350415E2,8.645664E2,1.02091235E3,6.764656E2,6.058174E2,3.962329E2,6.9111914E2,6.042434E2,0E0,0E0,0E0,0E0,0E0,0E0,0E0,0E0,0E0,0E0,0E0,0E0,0E0,0E0,0E0,0E0,0E0,0E0,0E0,0E0,0E0,0E0,0E0,0E0,0E0,0E0,0E0,0E0,0E0,0E0,0E0,0E0],"parents":[2147483647,0,0,1,1,2,2,3,3,4,4,5,5,6,6,7,7,8,8,9,9,10,10,11,11,12,12,13,13,14,14,15,15,16,16,17,17,18,18,19,19,20,20,21,21,22,22,23,23,24,24,25,25,26,26,27,27,28,28,29,29,30,30],"right_children":[2,4,6,8,10,12,14,16,18,20,22,24,26,28,30,32,34,36,38,40,42,44,46,48,50,52,54,56,58,60,62,-1,-1,-1,-1,-1,-1,-1,-1,-1,-1,-1,-1,-1,-1,-1,-1,-1,-1,-1,-1,-1,-1,-1,-1,-1,-1,-1,-1,-1,-1,-1,-1],"split_conditions":[5.22043E-1,3.2985517E-1,9.76088E-1,2.1768232E-1,9.4136757E-1,9.626397E-1,9.1818947E-1,1.497702E-1,-3.3047965E-1,4.4843778E-1,1.1031812E0,5.632308E-1,1.1191192E0,5.4349905E-1,1.140179E0,6.691205E-2,3.3040767E0,9.381326E-1,1.1191192E0,4.3891713E-1,8.8824E-1,1.0321559E0,3.9233435E-2,2.6424634E-1,-5.3833513E0,8.495066E-1,8.306221E-1,7.937594E-1,9.148719E-1,-3.925705E0,3.1328266E0,-6.591513E-2,-1.540215E-1,-1.1158822E-1,4.208204E-1,-3.228618E-2,-1.20541565E-1,-6.754997E-2,-2.2229671E-2,2.9615939E-2,-6.414218E-2,1.2793715E-1,5.0382614E-2,-8.124367E-3,-5.418655E-2,1.0241226E-1,-1.4261357E-2,8.4821004E-1,1.1371179E-1,8.117445E-1,2.2006841E-1,8.322061E-2,-3.7938964E-2,1.6218044E-1,4.4523516E-1,5.784196E-1,3.542188E-1,3.0200335E-1,7.656569E-1,8.589503E-1,2.6397786E-1,9.027185E-1,2.8824207E-1],"split_indices":[0,0,0,0,6,6,6,0,5,0,6,0,6,5,6,0,5,6,6,5,6,6,5,3,5,5,0,3,3,5,3,0,0,0,0,0,0,0,0,0,0,0,0,0,0,0,0,0,0,0,0,0,0,0,0,0,0,0,0,0,0,0,0],"split_type":[0,0,0,0,0,0,0,0,0,0,0,0,0,0,0,0,0,0,0,0,0,0,0,0,0,0,0,0,0,0,0,0,0,0,0,0,0,0,0,0,0,0,0,0,0,0,0,0,0,0,0,0,0,0,0,0,0,0,0,0,0,0,0],"sum_hessian":[5.807E4,4.3499E4,1.4571E4,2.5964E4,1.7535E4,1.2071E4,2.5E3,1.1324E4,1.464E4,4.39E3,1.3145E4,4.86E3,7.211E3,9.4E2,1.56E3,4.745E3,6.579E3,3.208E3,1.1432E4,2.869E3,1.521E3,1.1332E4,1.813E3,9.7E2,3.89E3,6.32E3,8.91E2,8.31E2,1.09E2,1.494E3,6.6E1,6.67E2,4.078E3,6.572E3,7E0,7.02E2,2.506E3,1.0013E4,1.419E3,2.537E3,3.32E2,7.01E2,8.2E2,7.368E3,3.964E3,8.24E2,9.89E2,6E0,9.64E2,2.4E1,3.866E3,5.525E3,7.95E2,7.97E2,9.4E1,1.5E2,6.81E2,2.6E1,8.3E1,1.9E1,1.475E3,3.4E1,3.2E1],"tree_param":{"num_deleted":"0","num_feature":"12","num_nodes":"63","size_leaf_vector":"1"}},{"base_weights":[-6.839418E-3,8.7258524E-1,-2.5876448E-1,3.3869944E0,6.805907E-1,-3.631027E-1,1.0932374E0,4.139634E0,1.8124914E0,5.726292E-1,2.2710392E0,7.682476E-1,-4.5732874E-1,1.369466E0,-6.8230957E-1,3.3724961E0,5.4113765E0,4.729188E0,1.5291097E0,1.2503891E0,4.3148285E-1,9.707986E0,2.0686128E0,2.9849737E0,5.940576E-1,-5.5242616E-1,9.28482E-2,2.2093818E0,8.478497E-1,-1.3016375E0,1.288343E0,4.971234E-1,2.2026041E-1,6.943912E-1,2.9162225E-1,1.6929087E-1,9.417944E-1,-4.7382068E-2,2.3721729E-1,1.9679956E-1,9.314125E-2,8.9633174E-2,3.2560635E-2,3.9831135E-1,1.1350735E0,5.248741E-1,1.5795678E-1,4.0581694E-1,7.301285E-2,1.4940351E-2,9.195538E-2,-6.261275E-2,-9.223702E-3,-3.925641E-2,4.036582E-2,1.4475982E-1,3.5634226E-1,2.1254797E-1,6.0940813E-2,-1.6237979E-1,-5.7665206E-2,4.2736408E-1,-1.5032667E-1],"categories":[],"categories_nodes":[],"categories_segments":[],"categories_sizes":[],"default_left":[0,0,0,0,0,0,0,0,0,0,0,0,0,0,0,0,0,0,0,0,0,0,0,0,0,0,0,0,0,0,0,0,0,0,0,0,0,0,0,0,0,0,0,0,0,0,0,0,0,0,0,0,0,0,0,0,0,0,0,0,0,0,0],"id":6,"left_children":[1,3,5,7,9,11,13,15,17,19,21,23,25,27,29,31,33,35,37,39,41,43,45,47,49,51,53,55,57,59,61,-1,-1,-1,-1,-1,-1,-1,-1,-1,-1,-1,-1,-1,-1,-1,-1,-1,-1,-1,-1,-1,-1,-1,-1,-1,-1,-1,-1,-1,-1,-1,-1],"loss_changes":[1.289239E4,6.253206E3,6.381354E3,1.081543E3,2.0660542E3,4.477023E3,1.5905044E3,5.875996E2,2.399035E2,1.0781604E3,1.1315745E3,1.245045E3,2.0283027E3,1.2270356E3,5.3502686E2,7.184873E2,8.66897E2,3.5420197E2,4.6379962E2,4.429192E2,4.590957E2,1.428794E2,1.1519077E3,5.657114E2,4.333385E2,1.1209863E3,8.622352E2,1.1026577E3,5.2634143E2,7.68396E1,8.81472E2,0E0,0E0,0E0,0E0,0E0,0E0,0E0,0E0,0E0,0E0,0E0,0E0,0E0,0E0,0E0,0E0,0E0,0E0,0E0,0E0,0E0,0E0,0E0,0E0,0E0,0E0,0E0,0E0,0E0,0E0,0E0,0E0],"parents":[2147483647,0,0,1,1,2,2,3,3,4,4,5,5,6,6,7,7,8,8,9,9,10,10,11,11,12,12,13,13,14,14,15,15,16,16,17,17,18,18,19,19,20,20,21,21,22,22,23,23,24,24,25,25,26,26,27,27,28,28,29,29,30,30],"right_children":[2,4,6,8,10,12,14,16,18,20,22,24,26,28,30,32,34,36,38,40,42,44,46,48,50,52,54,56,58,60,62,-1,-1,-1,-1,-1,-1,-1,-1,-1,-1,-1,-1,-1,-1,-1,-1,-1,-1,-1,-1,-1,-1,-1,-1,-1,-1,-1,-1,-1,-1,-1,-1],"split_conditions":[9.4136757E-1,-7.623543E-1,5.1562864E-1,9.036097E-1,7.6976085E-1,-5.2877563E-1,9.600715E-1,6.383765E-2,-2.0127575E0,-3.1425038E-1,3.5948E-1,-1.5574664E0,7.965129E-6,2.7769E0,1.772298E0,-7.9988253E-1,1.7717786E0,5.497566E-6,1.3421347E-2,2.5E0,8.209757E-1,-6.815475E-7,-2.624209E-5,5.5E0,2.8054243E-2,1.1006472E0,4.239985E-2,2.7661037E0,9.698657E-1,2.059215E0,1.0379554E0,4.971234E-1,2.2026041E-1,6.943912E-1,2.9162225E-1,1.6929087E-1,9.417944E-1,-4.7382068E-2,2.3721729E-1,1.9679956E-1,9.314125E-2,8.9633174E-2,3.2560635E-2,3.9831135E-1,1.1350735E0,5.248741E-1,1.5795678E-1,4.0581694E-1,7.301285E-2,1.4940351E-2,9.195538E-2,-6.261275E-2,-9.223702E-3,-3.925641E-2,4.036582E-2,1.4475982E-1,3.5634226E-1,2.1254797E-1,6.0940813E-2,-1.6237979E-1,-5.7665206E-2,4.2736408E-1,-1.5032667E-1],"split_indices":[6,1,1,6,1,1,5,5,5,1,3,1,11,9,5,5,3,11,5,9,6,11,11,9,5,6,5,3,6,3,6,0,0,0,0,0,0,0,0,0,0,0,0,0,0,0,0,0,0,0,0,0,0,0,0,0,0,0,0,0,0,0,0],"split_type":[0,0,0,0,0,0,0,0,0,0,0,0,0,0,0,0,0,0,0,0,0,0,0,0,0,0,0,0,0,0,0,0,0,0,0,0,0,0,0,0,0,0,0,0,0,0,0,0,0,0,0,0,0,0,0,0,0,0,0,0,0,0,0],"sum_hessian":[5.819E4,1.2957E4,4.5233E4,9.18E2,1.2039E4,4.1993E4,3.24E3,6.2E2,2.98E2,1.1275E4,7.64E2,3.228E3,3.8765E4,2.804E3,4.36E2,3.89E2,2.31E2,2.5E1,2.73E2,1.942E3,9.333E3,1.9E1,7.45E2,2.34E2,2.994E3,3.3052E4,5.713E3,1.073E3,1.731E3,3.32E2,1.04E2,1.63E2,2.26E2,1.42E2,8.9E1,1.6E1,9E0,8.1E1,1.92E2,5.96E2,1.346E3,1.73E3,7.603E3,5E0,1.4E1,9.8E1,6.47E2,1.58E2,7.6E1,1.266E3,1.728E3,2.8489E4,4.563E3,2.23E3,3.483E3,6.88E2,3.85E2,2.71E2,1.46E3,2.29E2,1.03E2,5E1,5.4E1],"tree_param":{"num_deleted":"0","num_feature":"12","num_nodes":"63","size_leaf_vector":"1"}},{"base_weights":[7.7454746E-3,-5.4215735E-1,1.2734903E0,-8.908237E-1,-1.901189E-1,8.935421E-1,2.5348375E0,-1.2077571E0,-7.5643295E-1,-2.9955944E-1,1.6735777E-1,9.8813033E-1,-4.8814702E-1,2.6963856E0,-7.200199E-1,-7.6848805E-1,-1.260318E0,-1.0979911E0,-6.58361E-1,-5.362529E-1,-1.9259313E-1,2.4003819E-1,-4.2039323E-1,7.2937137E-1,1.4053488E0,-9.5820713E-1,6.49285E-1,2.232255E0,3.417172E0,4.904714E0,-1.1511041E0,-1.17960505E-1,-4.3622293E-3,-1.4074783E-1,-1.1127478E-1,-9.838201E-2,-1.4348994E-1,1.3621429E-1,-6.719931E-2,3.8175544E-1,-5.570205E-2,2.94891E-1,-2.1333052E-2,-1.2800573E-2,3.7536714E-2,-1.0956301E-2,-1.81634E-1,1.1274331E-1,5.0984036E-2,6.892863E-2,1.519488E-1,2.0521414E-1,-1.0419034E-1,2.1409848E-1,-1.1007477E-1,2.5256655E-1,1.2515752E-1,3.025183E-1,4.6348697E-1,1.8714893E-1,7.670583E-1,-1.9648738E-1,1.8622336E-1],"categories":[],"categories_nodes":[],"categories_segments":[],"categories_sizes":[],"default_left":[0,0,0,0,0,0,0,0,0,0,0,0,0,0,0,0,0,0,0,0,0,0,0,0,0,0,0,0,0,0,0,0,0,0,0,0,0,0,0,0,0,0,0,0,0,0,0,0,0,0,0,0,0,0,0,0,0,0,0,0,0,0,0],"id":7,"left_children":[1,3,5,7,9,11,13,15,17,19,21,23,25,27,29,31,33,35,37,39,41,43,45,47,49,51,53,55,57,59,61,-1,-1,-1,-1,-1,-1,-1,-1,-1,-1,-1,-1,-1,-1,-1,-1,-1,-1,-1,-1,-1,-1,-1,-1,-1,-1,-1,-1,-1,-1,-1,-1],"loss_changes":[4.0569188E4,4.987286E3,8.457877E3,8.685781E2,7.911059E2,1.773706E3,2.1504277E3,1.3933887E2,4.7956152E2,3.9184827E2,2.0258415E2,1.3699463E3,4.657776E2,1.2947324E3,4.760443E2,1.9424756E2,1.1626758E2,1.2156128E2,3.0780566E2,4.3776074E2,6.9535205E2,2.1018379E2,2.2629808E2,6.845386E2,3.961631E2,1.5734229E2,6.680402E2,6.790742E2,7.1294336E2,1.03097626E2,4.475005E2,0E0,0E0,0E0,0E0,0E0,0E0,0E0,0E0,0E0,0E0,0E0,0E0,0E0,0E0,0E0,0E0,0E0,0E0,0E0,0E0,0E0,0E0,0E0,0E0,0E0,0E0,0E0,0E0,0E0,0E0,0E0,0E0],"parents":[2147483647,0,0,1,1,2,2,3,3,4,4,5,5,6,6,7,7,8,8,9,9,10,10,11,11,12,12,13,13,14,14,15,15,16,16,17,17,18,18,19,19,20,20,21,21,22,22,23,23,24,24,25,25,26,26,27,27,28,28,29,29,30,30],"right_children":[2,4,6,8,10,12,14,16,18,20,22,24,26,28,30,32,34,36,38,40,42,44,46,48,50,52,54,56,58,60,62,-1,-1,-1,-1,-1,-1,-1,-1,-1,-1,-1,-1,-1,-1,-1,-1,-1,-1,-1,-1,-1,-1,-1,-1,-1,-1,-1,-1,-1,-1,-1,-1],"split_conditions":[4.7789726E-1,2.8860196E-1,8.4426904E-1,1.6692802E-1,4.2133066E-1,9.600715E-1,9.600715E-1,6.691205E-2,-3.5721907E-1,-1.4721844E-1,8.1078404E-1,6.287104E-1,1.9246287E0,1.1097637E0,-1.1780605E-4,5.0728E0,1.3127361E-1,1.5571034E-6,-4.5991306E-5,-1.1780605E-4,-1.4309376E-1,5.956722E-1,1.5625701E0,3.0156E0,1E0,2.9155733E-3,2.8921661E0,3.2262056E0,5.4349905E-1,-9.971398E-1,3.239299E-5,-1.17960505E-1,-4.3622293E-3,-1.4074783E-1,-1.1127478E-1,-9.838201E-2,-1.4348994E-1,1.3621429E-1,-6.719931E-2,3.8175544E-1,-5.570205E-2,2.94891E-1,-2.1333052E-2,-1.2800573E-2,3.7536714E-2,-1.0956301E-2,-1.81634E-1,1.1274331E-1,5.0984036E-2,6.892863E-2,1.519488E-1,2.0521414E-1,-1.0419034E-1,2.1409848E-1,-1.1007477E-1,2.5256655E-1,1.2515752E-1,3.025183E-1,4.6348697E-1,1.8714893E-1,7.670583E-1,-1.9648738E-1,1.8622336E-1],"split_indices":[0,0,0,0,0,5,5,0,5,5,5,0,3,0,11,9,0,11,11,11,5,3,3,9,9,10,3,3,5,2,11,0,0,0,0,0,0,0,0,0,0,0,0,0,0,0,0,0,0,0,0,0,0,0,0,0,0,0,0,0,0,0,0],"split_type":[0,0,0,0,0,0,0,0,0,0,0,0,0,0,0,0,0,0,0,0,0,0,0,0,0,0,0,0,0,0,0,0,0,0,0,0,0,0,0,0,0,0,0,0,0,0,0,0,0,0,0,0,0,0,0,0,0,0,0,0,0,0,0],"sum_hessian":[5.8284E4,4.0632E4,1.7652E4,2.0413E4,2.0219E4,1.3567E4,4.085E3,6.076E3,1.4337E4,1.548E4,4.739E3,1.2698E4,8.69E2,3.892E3,1.93E2,6.51E2,5.425E3,3.196E3,1.1141E4,4.817E3,1.0663E4,4.218E3,5.21E2,7.839E3,4.859E3,6.15E2,2.54E2,2.37E3,1.522E3,1.3E1,1.8E2,4.15E2,2.36E2,2.712E3,2.713E3,2.39E3,8.06E2,7.4E1,1.1067E4,2.2E1,4.795E3,6.9E1,1.0594E4,1.134E3,3.084E3,4.27E2,9.4E1,2.785E3,5.054E3,6.69E2,4.19E3,1.6E1,5.99E2,1.37E2,1.17E2,1.823E3,5.47E2,1.154E3,3.68E2,7E0,6E0,1.42E2,3.8E1],"tree_param":{"num_deleted":"0","num_feature":"12","num_nodes":"63","size_leaf_vector":"1"}},{"base_weights":[-1.1610949E-2,-4.9809268E-1,1.1128131E0,-8.1678903E-1,-1.6411187E-1,7.443251E-1,2.1858802E0,-1.0066309E0,-6.5018374E-1,-3.244945E-1,3.5282276E-3,8.409262E-1,-1.1600242E-1,2.3373942E0,-5.4484075E-1,-5.5678976E-1,-1.039567E0,-9.929522E-1,-5.762402E-1,-6.1862224E-1,-2.4541146E-1,1.5233871E0,-3.1568E-2,1.1898105E0,6.1447597E-1,-3.5890338E-1,1.4370407E0,1.9356272E0,3.0970047E0,-1.0411118E0,3.0505211E0,1.3312938E-2,-1.17809735E-1,-1.2610525E-1,-9.218898E-2,-8.036768E-2,-1.315309E-1,-4.3241005E-2,-7.273215E-2,-6.858386E-2,6.210671E-2,-1.0272813E-2,-4.924633E-2,-1.0317885E-1,2.1355294E-1,3.511138E-3,-6.049922E-2,3.4345713E-2,1.6336358E-1,2.2707997E-1,5.500235E-2,-1.406939E-1,-6.7251856E-3,2.8115243E-1,3.2308348E-2,5.1334995E-1,1.8705638E-1,4.7733036E-1,2.7630442E-1,3.1910658E-1,-1.361325E-1,6.252952E-1,-1.3719288E-1],"categories":[],"categories_nodes":[],"categories_segments":[],"categories_sizes":[],"default_left":[0,0,0,0,0,0,0,0,0,0,0,0,0,0,0,0,0,0,0,0,0,0,0,0,0,0,0,0,0,0,0,0,0,0,0,0,0,0,0,0,0,0,0,0,0,0,0,0,0,0,0,0,0,0,0,0,0,0,0,0,0,0,0],"id":8,"left_children":[1,3,5,7,9,11,13,15,17,19,21,23,25,27,29,31,33,35,37,39,41,43,45,47,49,51,53,55,57,59,61,-1,-1,-1,-1,-1,-1,-1,-1,-1,-1,-1,-1,-1,-1,-1,-1,-1,-1,-1,-1,-1,-1,-1,-1,-1,-1,-1,-1,-1,-1,-1,-1],"loss_changes":[3.1841562E4,4.3245674E3,6.949326E3,6.569375E2,5.334574E2,1.0877397E3,1.8602188E3,1.4337402E2,2.801548E2,2.3570984E2,5.1756555E2,9.288408E2,4.9922134E2,1.2931836E3,4.260489E2,2.8521045E2,2.3476758E2,1.1877478E2,1.9771118E2,1.7941321E2,2.817041E2,3.4474802E2,3.6264737E2,1.7386196E3,7.606555E2,3.495818E2,2.7316138E2,5.702744E2,8.1030273E2,2.875806E2,4.192937E2,0E0,0E0,0E0,0E0,0E0,0E0,0E0,0E0,0E0,0E0,0E0,0E0,0E0,0E0,0E0,0E0,0E0,0E0,0E0,0E0,0E0,0E0,0E0,0E0,0E0,0E0,0E0,0E0,0E0,0E0,0E0,0E0],"parents":[2147483647,0,0,1,1,2,2,3,3,4,4,5,5,6,6,7,7,8,8,9,9,10,10,11,11,12,12,13,13,14,14,15,15,16,16,17,17,18,18,19,19,20,20,21,21,22,22,23,23,24,24,25,25,26,26,27,27,28,28,29,29,30,30],"right_children":[2,4,6,8,10,12,14,16,18,20,22,24,26,28,30,32,34,36,38,40,42,44,46,48,50,52,54,56,58,60,62,-1,-1,-1,-1,-1,-1,-1,-1,-1,-1,-1,-1,-1,-1,-1,-1,-1,-1,-1,-1,-1,-1,-1,-1,-1,-1,-1,-1,-1,-1,-1,-1],"split_conditions":[4.7789726E-1,2.902412E-1,8.1708366E-1,2.0412816E-1,3.72023E-1,8.277862E-1,9.600715E-1,6.691205E-2,-5.6707406E-1,-5.6707406E-1,-3.018097E0,3.2564E0,1.772298E0,1.1097637E0,5.0128092E-5,-1.11726105E-1,1.3761272E-1,7.1477524E-7,1.3355678E-1,7.6281E0,3.4961382E-1,-5.3833513E0,8.1078404E-1,1.1667E0,-4.5991306E-5,1.8333E0,9.579282E-6,3.8841644E-1,-1.4754245E0,-1.1780605E-4,1.4167E0,1.3312938E-2,-1.17809735E-1,-1.2610525E-1,-9.218898E-2,-8.036768E-2,-1.315309E-1,-4.3241005E-2,-7.273215E-2,-6.858386E-2,6.210671E-2,-1.0272813E-2,-4.924633E-2,-1.0317885E-1,2.1355294E-1,3.511138E-3,-6.049922E-2,3.4345713E-2,1.6336358E-1,2.2707997E-1,5.500235E-2,-1.406939E-1,-6.7251856E-3,2.8115243E-1,3.2308348E-2,5.1334995E-1,1.8705638E-1,4.7733036E-1,2.7630442E-1,3.1910658E-1,-1.361325E-1,6.252952E-1,-1.3719288E-1],"split_indices":[0,0,0,0,0,5,5,0,5,5,5,9,5,0,11,5,0,11,5,9,5,5,5,9,11,9,11,3,5,11,9,0,0,0,0,0,0,0,0,0,0,0,0,0,0,0,0,0,0,0,0,0,0,0,0,0,0,0,0,0,0,0,0],"split_type":[0,0,0,0,0,0,0,0,0,0,0,0,0,0,0,0,0,0,0,0,0,0,0,0,0,0,0,0,0,0,0,0,0,0,0,0,0,0,0,0,0,0,0,0,0,0,0,0,0,0,0,0,0,0,0,0,0,0,0,0,0,0,0],"sum_hessian":[5.8208E4,4.063E4,1.7578E4,2.079E4,1.984E4,1.3086E4,4.492E3,9.715E3,1.1075E4,1.0139E4,9.701E3,1.1765E4,1.321E3,4.256E3,2.36E2,6.64E2,9.051E3,1.963E3,9.112E3,2.147E3,7.992E3,2.18E2,9.483E3,4.629E3,7.136E3,1.143E3,1.78E2,2.786E3,1.47E3,2.08E2,2.8E1,3.15E2,3.49E2,3.137E3,5.914E3,1.239E3,7.24E2,4.67E3,4.442E3,2.037E3,1.1E2,5.067E3,2.925E3,4.2E1,1.76E2,8.496E3,9.87E2,1.593E3,3.036E3,2.66E2,6.87E3,2.48E2,8.95E2,7.9E1,9.9E1,5.4E1,2.732E3,2.42E2,1.228E3,1.4E1,1.94E2,1.6E1,1.2E1],"tree_param":{"num_deleted":"0","num_feature":"12","num_nodes":"63","size_leaf_vector":"1"}},{"base_weights":[1.6381501E-3,-3.552624E-1,1.231429E0,-6.7702055E-1,-7.026479E-3,1.7501663E0,6.6383445E-1,-8.830538E-1,-5.1305485E-1,-1.3917482E-1,3.1362838E-1,1.3467501E0,2.455035E0,-6.866203E-1,8.853896E-1,-9.397133E-1,-4.848803E-1,-1.3324678E-1,-5.5102444E-1,3.6892373E-2,-2.9055178E-1,1.0859623E0,1.9318527E-1,1.5716654E0,6.787725E-1,3.6041327E0,2.077846E0,-9.4295704E-1,2.4930377E0,6.3210565E-1,1.8617375E0,-1.5652685E-1,-9.098166E-2,-5.091204E-2,4.8075613E-1,-2.034145E-2,1.694142E-1,-7.809817E-2,-4.723411E-2,2.916027E-2,-8.080318E-3,-1.0685666E-1,-1.5561762E-2,7.895764E-2,3.9760467E-1,6.506722E-3,1.06969886E-1,4.9068737E-1,1.5380429E-1,2.2829695E-2,2.3573633E-1,6.5017724E-1,3.1695202E-1,2.1972461E-1,-1.7668355E-1,3.0542886E-1,-1.1421211E-1,1.5790438E-2,7.4893755E-1,7.700198E-2,-5.0421875E-2,2.1217178E-1,-3.9480355E-2],"categories":[],"categories_nodes":[],"categories_segments":[],"categories_sizes":[],"default_left":[0,0,0,0,0,0,0,0,0,0,0,0,0,0,0,0,0,0,0,0,0,0,0,0,0,0,0,0,0,0,0,0,0,0,0,0,0,0,0,0,0,0,0,0,0,0,0,0,0,0,0,0,0,0,0,0,0,0,0,0,0,0,0],"id":9,"left_children":[1,3,5,7,9,11,13,15,17,19,21,23,25,27,29,31,33,35,37,39,41,43,45,47,49,51,53,55,57,59,61,-1,-1,-1,-1,-1,-1,-1,-1,-1,-1,-1,-1,-1,-1,-1,-1,-1,-1,-1,-1,-1,-1,-1,-1,-1,-1,-1,-1,-1,-1,-1,-1],"loss_changes":[2.5521035E4,5.049651E3,3.8497188E3,7.9086523E2,9.1718665E2,1.9396953E3,1.8697119E3,2.3369727E2,1.8806494E2,4.0854053E2,5.874121E2,6.521699E2,1.0700107E3,7.204215E2,1.3260464E3,1.6848438E2,1.6858249E2,1.5254614E2,2.1422339E2,2.124796E2,8.650852E2,7.26667E2,6.1374695E2,3.5712695E2,8.289739E2,7.513745E2,8.641499E2,6.5311224E2,7.68847E2,6.684656E2,6.490925E2,0E0,0E0,0E0,0E0,0E0,0E0,0E0,0E0,0E0,0E0,0E0,0E0,0E0,0E0,0E0,0E0,0E0,0E0,0E0,0E0,0E0,0E0,0E0,0E0,0E0,0E0,0E0,0E0,0E0,0E0,0E0,0E0],"parents":[2147483647,0,0,1,1,2,2,3,3,4,4,5,5,6,6,7,7,8,8,9,9,10,10,11,11,12,12,13,13,14,14,15,15,16,16,17,17,18,18,19,19,20,20,21,21,22,22,23,23,24,24,25,25,26,26,27,27,28,28,29,29,30,30],"right_children":[2,4,6,8,10,12,14,16,18,20,22,24,26,28,30,32,34,36,38,40,42,44,46,48,50,52,54,56,58,60,62,-1,-1,-1,-1,-1,-1,-1,-1,-1,-1,-1,-1,-1,-1,-1,-1,-1,-1,-1,-1,-1,-1,-1,-1,-1,-1,-1,-1,-1,-1,-1,-1],"split_conditions":[5.470821E-1,3.1066108E-1,9.8781204E-1,2.0968923E-1,4.5393696E-1,8.306221E-1,-1.0452393E0,1.0988561E0,9.145157E-1,-1.3723956E-2,8.828634E-1,2.989936E-1,8.28429E-1,1.1164954E0,9.1119236E-1,8.654064E-1,3.3040767E0,2.8279095E0,-1.7160802E-1,0E0,3.263548E-3,8.724838E-1,1.1006472E0,-5.075149E-1,2.3479292E0,-1.3455397E0,9.191413E-1,4.5584598E-1,8.7821877E-1,9.600715E-1,9.600715E-1,-1.5652685E-1,-9.098166E-2,-5.091204E-2,4.8075613E-1,-2.034145E-2,1.694142E-1,-7.809817E-2,-4.723411E-2,2.916027E-2,-8.080318E-3,-1.0685666E-1,-1.5561762E-2,7.895764E-2,3.9760467E-1,6.506722E-3,1.06969886E-1,4.9068737E-1,1.5380429E-1,2.2829695E-2,2.3573633E-1,6.5017724E-1,3.1695202E-1,2.1972461E-1,-1.7668355E-1,3.0542886E-1,-1.1421211E-1,1.5790438E-2,7.4893755E-1,7.700198E-2,-5.0421875E-2,2.1217178E-1,-3.9480355E-2],"split_indices":[0,0,6,0,0,0,5,6,6,4,6,5,6,6,0,6,5,3,5,8,4,6,6,4,3,1,5,3,0,5,5,0,0,0,0,0,0,0,0,0,0,0,0,0,0,0,0,0,0,0,0,0,0,0,0,0,0,0,0,0,0,0,0],"split_type":[0,0,0,0,0,0,0,0,0,0,0,0,0,0,0,0,0,0,0,0,0,0,0,0,0,0,0,0,0,0,0,0,0,0,0,0,0,0,0,0,0,0,0,0,0,0,0,0,0,0,0,0,0,0,0,0,0,0,0,0,0,0,0],"sum_hessian":[5.8144E4,4.5066E4,1.3078E4,2.3423E4,2.1643E4,6.832E3,6.246E3,1.0378E4,1.3045E4,1.5327E4,6.316E3,4.347E3,2.485E3,8.8E2,5.366E3,9.084E3,1.294E3,1.186E3,1.1859E4,7.086E3,8.241E3,8.51E2,5.465E3,3.251E3,1.096E3,6.12E2,1.873E3,8.15E2,6.5E1,4.262E3,1.104E3,4.12E2,8.672E3,1.289E3,5E0,1.143E3,4.3E1,3.021E3,8.838E3,2.239E3,4.847E3,1.217E3,7.024E3,7.73E2,7.8E1,4.769E3,6.96E2,3.1E1,3.22E3,8.65E2,2.31E2,7.8E1,5.34E2,1.817E3,5.6E1,3.8E1,7.77E2,4.5E1,2E1,3.801E3,4.61E2,9.9E2,1.14E2],"tree_param":{"num_deleted":"0","num_feature":"12","num_nodes":"63","size_leaf_vector":"1"}},{"base_weights":[7.833753E-4,6.4324296E-1,-1.8308376E-1,2.3765118E0,4.8894164E-1,-2.5216693E-1,9.3999714E-1,3.0029995E0,1.1114111E0,9.5202243E-1,3.802454E-1,5.306358E-1,-3.1603917E-1,1.9801699E0,4.0643263E-1,3.8596942E0,2.5553393E0,3.7486746E0,8.532597E-1,-3.4771004E-1,1.249152E0,2.5226852E-1,1.0088631E0,2.6889746E0,4.545255E-1,-3.9810222E-1,4.8070624E-2,1.174002E0,3.0166137E0,6.836251E-1,-1.1275048E0,7.0973593E-1,2.9484865E-1,-1.0294407E-1,2.8309217E-1,1.0434264E-1,6.9590884E-1,-5.8826495E-2,1.400223E-1,-4.2734884E-2,3.3366108E-1,2.0087245E-1,8.93565E-2,4.9053717E-2,3.247495E-3,1.7279945E-1,6.359335E-2,8.476521E-2,4.2350507E-1,3.797117E-2,2.032522E-1,-4.6008226E-2,1.2833289E-3,-4.6651453E-2,2.5681753E-2,3.0923352E-1,4.1194838E-2,8.729529E-2,3.303228E-1,6.642441E-1,6.29841E-2,-5.46493E-2,-1.7738661E-1],"categories":[],"categories_nodes":[],"categories_segments":[],"categories_sizes":[],"default_left":[0,0,0,0,0,0,0,0,0,0,0,0,0,0,0,0,0,0,0,0,0,0,0,0,0,0,0,0,0,0,0,0,0,0,0,0,0,0,0,0,0,0,0,0,0,0,0,0,0,0,0,0,0,0,0,0,0,0,0,0,0,0,0],"id":10,"left_children":[1,3,5,7,9,11,13,15,17,19,21,23,25,27,29,31,33,35,37,39,41,43,45,47,49,51,53,55,57,59,61,-1,-1,-1,-1,-1,-1,-1,-1,-1,-1,-1,-1,-1,-1,-1,-1,-1,-1,-1,-1,-1,-1,-1,-1,-1,-1,-1,-1,-1,-1,-1,-1],"loss_changes":[6.853149E3,3.4512944E3,3.4998296E3,8.328237E2,5.963611E2,2.1247908E3,1.4499634E3,2.6051074E2,2.3576685E2,8.705182E2,7.7229285E2,5.254329E2,1.1739434E3,7.3675366E2,7.359346E2,6.8711865E2,4.6327686E2,2.6197263E2,2.5391966E2,1.2466013E2,4.9355762E2,4.1789597E2,4.3443433E2,3.0671393E2,3.649655E2,8.1661865E2,7.7643005E2,7.296624E2,2.3489087E2,4.653332E2,9.854962E1,0E0,0E0,0E0,0E0,0E0,0E0,0E0,0E0,0E0,0E0,0E0,0E0,0E0,0E0,0E0,0E0,0E0,0E0,0E0,0E0,0E0,0E0,0E0,0E0,0E0,0E0,0E0,0E0,0E0,0E0,0E0,0E0],"parents":[2147483647,0,0,1,1,2,2,3,3,4,4,5,5,6,6,7,7,8,8,9,9,10,10,11,11,12,12,13,13,14,14,15,15,16,16,17,17,18,18,19,19,20,20,21,21,22,22,23,23,24,24,25,25,26,26,27,27,28,28,29,29,30,30],"right_children":[2,4,6,8,10,12,14,16,18,20,22,24,26,28,30,32,34,36,38,40,42,44,46,48,50,52,54,56,58,60,62,-1,-1,-1,-1,-1,-1,-1,-1,-1,-1,-1,-1,-1,-1,-1,-1,-1,-1,-1,-1,-1,-1,-1,-1,-1,-1,-1,-1,-1,-1,-1,-1],"split_conditions":[9.4136757E-1,-7.0238596E-1,5.813787E-1,9.036097E-1,8.209757E-1,-5.2877563E-1,2.25E0,8.209757E-1,-2.224536E0,5.520366E-1,6.6667E0,-1.9239612E0,6.1500427E-6,9.624985E-1,9.600715E-1,-1.5574664E0,-7.3627074E-5,8.211238E-6,-1.11726105E-1,1.739388E0,-3.525714E-6,3.1517E0,-2.6497737E-6,3.4036905E-1,7.5833E0,1.1031812E0,-1.2345994E-1,1.0009975E0,-3.226066E-5,-1.1780605E-4,5E0,7.0973593E-1,2.9484865E-1,-1.0294407E-1,2.8309217E-1,1.0434264E-1,6.9590884E-1,-5.8826495E-2,1.400223E-1,-4.2734884E-2,3.3366108E-1,2.0087245E-1,8.93565E-2,4.9053717E-2,3.247495E-3,1.7279945E-1,6.359335E-2,8.476521E-2,4.2350507E-1,3.797117E-2,2.032522E-1,-4.6008226E-2,1.2833289E-3,-4.6651453E-2,2.5681753E-2,3.0923352E-1,4.1194838E-2,8.729529E-2,3.303228E-1,6.642441E-1,6.29841E-2,-5.46493E-2,-1.7738661E-1],"split_indices":[6,1,1,6,6,1,9,6,5,6,9,1,11,1,5,1,11,11,5,5,11,9,11,5,9,6,5,6,11,11,9,0,0,0,0,0,0,0,0,0,0,0,0,0,0,0,0,0,0,0,0,0,0,0,0,0,0,0,0,0,0,0,0],"split_type":[0,0,0,0,0,0,0,0,0,0,0,0,0,0,0,0,0,0,0,0,0,0,0,0,0,0,0,0,0,0,0,0,0,0,0,0,0,0,0,0,0,0,0,0,0,0,0,0,0,0,0,0,0,0,0,0,0,0,0,0,0,0,0],"sum_hessian":[5.8013E4,1.2908E4,4.5105E4,1.054E3,1.1854E4,4.2492E4,2.613E3,7.04E2,3.5E2,2.252E3,9.602E3,3.205E3,3.9287E4,8.85E2,1.728E3,2.39E2,4.65E2,3E1,3.2E2,4.19E2,1.833E3,7.979E3,1.623E3,1.08E2,3.097E3,3.2061E4,7.226E3,4.99E2,3.86E2,1.464E3,2.64E2,5.1E1,1.88E2,3.3E1,4.32E2,1.7E1,1.3E1,8.8E1,2.32E2,4.11E2,8E0,5.83E2,1.25E3,3.828E3,4.151E3,5.53E2,1.07E3,5E1,5.8E1,2.958E3,1.39E2,2.7859E4,4.202E3,2.085E3,5.141E3,1.41E2,3.58E2,4.6E1,3.4E2,1.2E1,1.452E3,1.4E2,1.24E2],"tree_param":{"num_deleted":"0","num_feature":"12","num_nodes":"63","size_leaf_vector":"1"}},{"base_weights":[-6.685625E-3,-3.4349436E-1,9.969312E-1,-6.2610424E-1,-6.325557E-2,7.776371E-1,1.8712273E0,-8.5390615E-1,-5.381989E-1,1.2134613E-1,-2.150783E-1,1.2520924E0,4.715353E-1,1.9917915E0,-4.1258362E-1,-9.245585E-1,-4.2793593E-1,-8.091667E-1,-4.611223E-1,7.8765815E-1,5.2724168E-2,-3.2184398E-1,3.367735E-1,6.179073E-1,1.4696168E0,-3.6730118E-2,7.5016606E-1,2.096986E0,-5.8828306E-1,-1.6448227E0,1.641181E0,-1.6721962E-1,-8.8793464E-2,1.9617464E-1,-5.7749983E-2,-5.0823193E-2,-1.0364383E-1,8.627624E-2,-4.7478102E-2,3.976384E-2,2.0547378E-1,-7.251964E-3,3.4086697E-2,-3.3766907E-2,3.5581267E-1,9.0016045E-2,-1.016092E-2,1.0432228E-1,1.3015049E-2,7.3899806E-1,1.432585E-1,3.852777E-2,-7.69025E-2,-2.4272528E-2,9.061708E-2,2.0165668E-1,5.2503103E-1,-4.9297276E-1,-1.0484136E-2,1.7259233E-1,-1.8559551E-1,6.611398E-1,-1.7297223E-2],"categories":[],"categories_nodes":[],"categories_segments":[],"categories_sizes":[],"default_left":[0,0,0,0,0,0,0,0,0,0,0,0,0,0,0,0,0,0,0,0,0,0,0,0,0,0,0,0,0,0,0,0,0,0,0,0,0,0,0,0,0,0,0,0,0,0,0,0,0,0,0,0,0,0,0,0,0,0,0,0,0,0,0],"id":11,"left_children":[1,3,5,7,9,11,13,15,17,19,21,23,25,27,29,31,33,35,37,39,41,43,45,47,49,51,53,55,57,59,61,-1,-1,-1,-1,-1,-1,-1,-1,-1,-1,-1,-1,-1,-1,-1,-1,-1,-1,-1,-1,-1,-1,-1,-1,-1,-1,-1,-1,-1,-1,-1,-1],"loss_changes":[1.9694805E4,3.4549048E3,2.8054414E3,4.344834E2,6.1395166E2,1.6994907E3,8.0896094E2,1.8156348E2,3.2700342E2,4.5198242E2,7.083129E2,6.3228564E2,1.0079254E3,7.579248E2,3.7724734E2,1.404878E2,3.092204E2,2.3680005E2,2.2112549E2,4.5531677E2,3.2351846E2,6.1962976E2,4.8145377E2,2.4341113E2,7.3856396E2,7.793714E2,7.122761E2,6.6877637E2,2.3035506E2,6.9388885E1,5.0608075E2,0E0,0E0,0E0,0E0,0E0,0E0,0E0,0E0,0E0,0E0,0E0,0E0,0E0,0E0,0E0,0E0,0E0,0E0,0E0,0E0,0E0,0E0,0E0,0E0,0E0,0E0,0E0,0E0,0E0,0E0,0E0,0E0],"parents":[2147483647,0,0,1,1,2,2,3,3,4,4,5,5,6,6,7,7,8,8,9,9,10,10,11,11,12,12,13,13,14,14,15,15,16,16,17,17,18,18,19,19,20,20,21,21,22,22,23,23,24,24,25,25,26,26,27,27,28,28,29,29,30,30],"right_children":[2,4,6,8,10,12,14,16,18,20,22,24,26,28,30,32,34,36,38,40,42,44,46,48,50,52,54,56,58,60,62,-1,-1,-1,-1,-1,-1,-1,-1,-1,-1,-1,-1,-1,-1,-1,-1,-1,-1,-1,-1,-1,-1,-1,-1,-1,-1,-1,-1,-1,-1,-1,-1],"split_conditions":[5.22043E-1,2.9666218E-1,9.30369E-1,1.6692802E-1,9.933664E-1,9.6144783E-1,9.600715E-1,1.0887017E0,-3.5721907E-1,-1.5567809E0,1.1191192E0,5.76514E-1,-2.7579063E-1,2.9946712E-1,1.2492614E0,8.362041E-1,-5.438899E-1,9.970205E-1,-3.7554124E-5,9.660432E-1,2.5919455E-6,8.8802255E-5,3.9233435E-2,3.263548E-3,-5.3833513E0,-1.7830351E-3,-1.0452393E0,1.1434616E0,-2.1352003E0,6.637025E-1,1.069905E0,-1.6721962E-1,-8.8793464E-2,1.9617464E-1,-5.7749983E-2,-5.0823193E-2,-1.0364383E-1,8.627624E-2,-4.7478102E-2,3.976384E-2,2.0547378E-1,-7.251964E-3,3.4086697E-2,-3.3766907E-2,3.5581267E-1,9.0016045E-2,-1.016092E-2,1.0432228E-1,1.3015049E-2,7.3899806E-1,1.432585E-1,3.852777E-2,-7.69025E-2,-2.4272528E-2,9.061708E-2,2.0165668E-1,5.2503103E-1,-4.9297276E-1,-1.0484136E-2,1.7259233E-1,-1.8559551E-1,6.611398E-1,-1.7297223E-2],"split_indices":[0,0,0,0,6,6,5,6,5,5,6,0,1,4,1,6,5,6,11,6,11,11,5,4,5,4,5,6,5,6,0,0,0,0,0,0,0,0,0,0,0,0,0,0,0,0,0,0,0,0,0,0,0,0,0,0,0,0,0,0,0,0,0],"split_type":[0,0,0,0,0,0,0,0,0,0,0,0,0,0,0,0,0,0,0,0,0,0,0,0,0,0,0,0,0,0,0,0,0,0,0,0,0,0,0,0,0,0,0,0,0,0,0,0,0,0,0,0,0,0,0,0,0,0,0,0,0,0,0],"sum_hessian":[5.8262E4,4.3623E4,1.4639E4,2.1719E4,2.1904E4,1.1705E4,2.934E3,6.045E3,1.5674E4,9.885E3,1.2019E4,4.589E3,7.116E3,2.787E3,1.47E2,5.184E3,8.61E2,3.469E3,1.2205E4,9.22E2,8.963E3,1.0071E4,1.948E3,1.173E3,3.416E3,2.52E3,4.596E3,2.678E3,1.09E2,9.2E1,5.5E1,2.4E2,4.944E3,5E1,8.11E2,1.494E3,1.975E3,1.24E2,1.2081E4,7.06E2,2.16E2,6.248E3,2.715E3,1.0031E4,4E1,8.52E2,1.096E3,6.26E2,5.47E2,2E1,3.396E3,1.599E3,9.21E2,6.24E2,3.972E3,2.613E3,6.5E1,1E1,9.9E1,5E0,8.7E1,1.4E1,4.1E1],"tree_param":{"num_deleted":"0","num_feature":"12","num_nodes":"63","size_leaf_vector":"1"}},{"base_weights":[-4.681932E-3,-8.930011E-2,5.6940097E-1,2.461512E-1,-1.4886226E-1,1.0689758E0,-7.702991E-2,3.650755E-2,7.276734E-1,-2.4791132E-1,7.709155E-2,6.5469223E-1,1.5246712E0,-3.0172622E-1,3.1644344E-1,-2.8355232E-1,3.2176286E-1,1.837583E0,4.9652094E-1,-1.5768945E-1,-4.7793376E-1,-2.5490224E-1,2.7534837E-1,1.04305E0,-2.4411188E-1,1.8298311E0,2.5225902E-1,-4.365749E-1,1.1017652E0,4.9975127E-1,-1.1358593E0,-1.0923486E-1,-8.272044E-3,-6.580736E-2,4.0878553E-2,5.1384896E-1,1.475885E-1,1.4775947E-2,9.707921E-2,3.1108162E-1,-1.660703E-2,-3.8359348E-2,-9.3998544E-2,-3.213512E-2,6.1042186E-2,4.426086E-2,-5.4919578E-2,9.264005E-2,2.9147026E-1,-3.0691907E-2,5.7215554E-1,5.8801062E-2,2.2763503E-1,-3.831479E-2,1.8673652E-1,7.879218E-2,-5.3487252E-2,1.9611035E-1,-5.132819E-2,2.257595E-2,1.2189098E-1,2.5571427E-1,-1.4245218E-1],"categories":[],"categories_nodes":[],"categories_segments":[],"categories_sizes":[],"default_left":[0,0,0,0,0,0,0,0,0,0,0,0,0,0,0,0,0,0,0,0,0,0,0,0,0,0,0,0,0,0,0,0,0,0,0,0,0,0,0,0,0,0,0,0,0,0,0,0,0,0,0,0,0,0,0,0,0,0,0,0,0,0,0],"id":12,"left_children":[1,3,5,7,9,11,13,15,17,19,21,23,25,27,29,31,33,35,37,39,41,43,45,47,49,51,53,55,57,59,61,-1,-1,-1,-1,-1,-1,-1,-1,-1,-1,-1,-1,-1,-1,-1,-1,-1,-1,-1,-1,-1,-1,-1,-1,-1,-1,-1,-1,-1,-1,-1,-1],"loss_changes":[2.8236382E3,1.01221356E3,2.41148E3,7.711157E2,9.628511E2,7.9417334E2,2.8796497E2,4.8607462E2,5.935332E2,6.2064856E2,8.631025E2,7.709737E2,7.780581E2,3.9281485E2,3.1577023E2,4.0745178E2,2.4029837E2,4.687948E2,3.1727347E2,5.890524E2,3.6692944E2,2.821181E2,1.1325125E3,3.339607E2,2.5167216E2,8.952827E2,3.9992657E2,2.2815228E2,2.5359923E2,2.0701462E2,1.4542488E2,0E0,0E0,0E0,0E0,0E0,0E0,0E0,0E0,0E0,0E0,0E0,0E0,0E0,0E0,0E0,0E0,0E0,0E0,0E0,0E0,0E0,0E0,0E0,0E0,0E0,0E0,0E0,0E0,0E0,0E0,0E0,0E0],"parents":[2147483647,0,0,1,1,2,2,3,3,4,4,5,5,6,6,7,7,8,8,9,9,10,10,11,11,12,12,13,13,14,14,15,15,16,16,17,17,18,18,19,19,20,20,21,21,22,22,23,23,24,24,25,25,26,26,27,27,28,28,29,29,30,30],"right_children":[2,4,6,8,10,12,14,16,18,20,22,24,26,28,30,32,34,36,38,40,42,44,46,48,50,52,54,56,58,60,62,-1,-1,-1,-1,-1,-1,-1,-1,-1,-1,-1,-1,-1,-1,-1,-1,-1,-1,-1,-1,-1,-1,-1,-1,-1,-1,-1,-1,-1,-1,-1,-1],"split_conditions":[2.2247486E0,-7.4348945E-6,3.2564E0,6E0,3.831356E-6,7.953641E-2,6.75E0,1E0,-4.1298732E-5,3.0846366E-1,1.7775444E-2,-9.744362E-2,8.210166E-1,2.4403696E-5,5.956876E0,-2.624209E-5,-5.618222E-1,-3.925705E0,3.263548E-3,2.4120317E-1,3.2032242E-1,1.8424977E0,8.8363004E-1,-1.2345994E-1,7.060172E-5,-1.479304E-1,1.772298E0,-4.5991306E-5,6.560858E-1,4.804007E-1,-3.8340452E-1,-1.0923486E-1,-8.272044E-3,-6.580736E-2,4.0878553E-2,5.1384896E-1,1.475885E-1,1.4775947E-2,9.707921E-2,3.1108162E-1,-1.660703E-2,-3.8359348E-2,-9.3998544E-2,-3.213512E-2,6.1042186E-2,4.426086E-2,-5.4919578E-2,9.264005E-2,2.9147026E-1,-3.0691907E-2,5.7215554E-1,5.8801062E-2,2.2763503E-1,-3.831479E-2,1.8673652E-1,7.879218E-2,-5.3487252E-2,1.9611035E-1,-5.132819E-2,2.257595E-2,1.2189098E-1,2.5571427E-1,-1.4245218E-1],"split_indices":[3,11,9,9,11,5,9,8,11,5,5,5,5,11,3,11,4,5,4,10,4,3,5,5,11,4,5,11,5,5,4,0,0,0,0,0,0,0,0,0,0,0,0,0,0,0,0,0,0,0,0,0,0,0,0,0,0,0,0,0,0,0,0],"split_type":[0,0,0,0,0,0,0,0,0,0,0,0,0,0,0,0,0,0,0,0,0,0,0,0,0,0,0,0,0,0,0,0,0,0,0,0,0,0,0,0,0,0,0,0,0,0,0,0,0,0,0,0,0,0,0,0,0,0,0,0,0,0,0],"sum_hessian":[5.8124E4,5.0658E4,7.466E3,7.638E3,4.302E4,4.211E3,3.255E3,5.322E3,2.316E3,2.9909E4,1.3111E4,2.207E3,2.004E3,2.072E3,1.183E3,2.508E3,2.814E3,3.98E2,1.918E3,2.1484E4,8.425E3,4.902E3,8.209E3,1.541E3,6.66E2,1.616E3,3.88E2,1.891E3,1.81E2,1.051E3,1.32E2,4.98E2,2.01E3,2.29E2,2.585E3,3.8E1,3.6E2,1.106E3,8.12E2,5.4E1,2.143E4,6.998E3,1.427E3,4.553E3,3.49E2,6.825E3,1.384E3,1.452E3,8.9E1,6.6E2,6E0,4.28E2,1.188E3,2.79E2,1.09E2,1.4E2,1.751E3,1.18E2,6.3E1,7.62E2,2.89E2,9E0,1.23E2],"tree_param":{"num_deleted":"0","num_feature":"12","num_nodes":"63","size_leaf_vector":"1"}},{"base_weights":[-7.3012605E-4,4.8917657E-1,-1.5397452E-1,2.1286345E0,3.700686E-1,-2.6034677E-1,3.230424E-1,3.6054566E0,1.692787E0,3.1666815E-1,1.1670177E0,-3.2280058E-1,1.672487E-1,7.197915E-1,-1.7632219E-1,2.634215E0,5.334366E0,1.5829135E0,6.496961E0,7.943775E-1,2.387619E-1,7.7998652E0,1.0413501E0,-2.8459406E-1,-8.681956E-1,1.0477237E0,6.799421E-2,4.48982E-1,1.589292E0,-4.6693265E-1,3.773416E-1,4.510951E-1,4.2822417E-2,-6.104167E-2,6.686582E-1,1.9108483E-1,1.9774963E-3,3.3483648E-1,8.573829E-1,7.672052E-2,5.8326215E-1,9.5303496E-4,3.3796664E-2,9.945016E-1,5.264763E-1,3.8122386E-1,7.707968E-2,-3.535511E-2,2.304227E-2,-1.2548108E-1,-6.341263E-2,3.766504E-2,3.4057638E-1,-2.6319951E-3,8.1430115E-2,2.5307322E-1,3.1877447E-2,5.819711E-2,2.9955444E-1,-5.0112274E-2,2.5033712E-1,1.5569413E-2,2.2022901E-1],"categories":[],"categories_nodes":[],"categories_segments":[],"categories_sizes":[],"default_left":[0,0,0,0,0,0,0,0,0,0,0,0,0,0,0,0,0,0,0,0,0,0,0,0,0,0,0,0,0,0,0,0,0,0,0,0,0,0,0,0,0,0,0,0,0,0,0,0,0,0,0,0,0,0,0,0,0,0,0,0,0,0,0],"id":13,"left_children":[1,3,5,7,9,11,13,15,17,19,21,23,25,27,29,31,33,35,37,39,41,43,45,47,49,51,53,55,57,59,61,-1,-1,-1,-1,-1,-1,-1,-1,-1,-1,-1,-1,-1,-1,-1,-1,-1,-1,-1,-1,-1,-1,-1,-1,-1,-1,-1,-1,-1,-1,-1,-1],"loss_changes":[4.3878604E3,2.7185774E3,2.2590898E3,6.0087646E2,5.521964E2,9.721948E2,1.6084849E3,3.4529468E2,3.7504736E2,4.527356E2,6.7120776E2,6.6164014E2,4.0542346E2,1.0645483E3,5.786134E2,5.735369E2,6.1501733E2,3.6647632E2,7.591919E1,2.2907776E2,2.3797986E2,2.9214417E1,5.9754944E2,1.0543506E3,1.8734302E2,7.424535E2,2.9360693E2,9.346198E2,1.5196282E3,2.4072107E2,5.0042218E2,0E0,0E0,0E0,0E0,0E0,0E0,0E0,0E0,0E0,0E0,0E0,0E0,0E0,0E0,0E0,0E0,0E0,0E0,0E0,0E0,0E0,0E0,0E0,0E0,0E0,0E0,0E0,0E0,0E0,0E0,0E0,0E0],"parents":[2147483647,0,0,1,1,2,2,3,3,4,4,5,5,6,6,7,7,8,8,9,9,10,10,11,11,12,12,13,13,14,14,15,15,16,16,17,17,18,18,19,19,20,20,21,21,22,22,23,23,24,24,25,25,26,26,27,27,28,28,29,29,30,30],"right_children":[2,4,6,8,10,12,14,16,18,20,22,24,26,28,30,32,34,36,38,40,42,44,46,48,50,52,54,56,58,60,62,-1,-1,-1,-1,-1,-1,-1,-1,-1,-1,-1,-1,-1,-1,-1,-1,-1,-1,-1,-1,-1,-1,-1,-1,-1,-1,-1,-1,-1,-1,-1,-1],"split_conditions":[9.468407E-1,-7.623543E-1,1.8424977E0,8.209757E-1,7.6976085E-1,1.1139272E0,3.3914E0,5.3828944E-2,9.439678E-1,-3.608737E-1,3.5948E-1,9.600715E-1,-4.7196335E-1,3.5679245E-1,6.75E0,-2.2919254E-1,0E0,9.257708E-1,1.8306942E-1,7.570026E0,5.956722E-1,-7.4229705E-1,5.833E-1,3.0464876E-1,-8.098013E-3,-7.6685643E-1,1.4620616E0,9.660432E-1,2.8353375E-1,1.8983754E0,7.3465234E-1,4.510951E-1,4.2822417E-2,-6.104167E-2,6.686582E-1,1.9108483E-1,1.9774963E-3,3.3483648E-1,8.573829E-1,7.672052E-2,5.8326215E-1,9.5303496E-4,3.3796664E-2,9.945016E-1,5.264763E-1,3.8122386E-1,7.707968E-2,-3.535511E-2,2.304227E-2,-1.2548108E-1,-6.341263E-2,3.766504E-2,3.4057638E-1,-2.6319951E-3,8.1430115E-2,2.5307322E-1,3.1877447E-2,5.819711E-2,2.9955444E-1,-5.0112274E-2,2.5033712E-1,1.5569413E-2,2.2022901E-1],"split_indices":[6,1,3,6,1,6,9,5,6,1,3,5,5,1,9,5,8,6,5,3,3,5,9,1,4,5,3,6,5,1,1,0,0,0,0,0,0,0,0,0,0,0,0,0,0,0,0,0,0,0,0,0,0,0,0,0,0,0,0,0,0,0,0],"split_type":[0,0,0,0,0,0,0,0,0,0,0,0,0,0,0,0,0,0,0,0,0,0,0,0,0,0,0,0,0,0,0,0,0,0,0,0,0,0,0,0,0,0,0,0,0,0,0,0,0,0,0,0,0,0,0,0,0,0,0,0,0,0,0],"sum_hessian":[5.8444E4,1.3925E4,4.4519E4,9.42E2,1.2983E4,3.6402E4,8.117E3,2.13E2,7.29E2,1.2169E4,8.14E2,3.1763E4,4.639E3,4.523E3,3.594E3,1.38E2,7.5E1,7.14E2,1.5E1,1.705E3,1.0464E4,1.4E1,8E2,2.9685E4,2.078E3,4.69E2,4.17E3,3.45E3,1.073E3,2.357E3,1.237E3,7.4E1,6.4E1,1.4E1,6.1E1,5.9E2,1.24E2,7E0,8E0,1.697E3,8E0,3.161E3,7.303E3,6E0,8E0,7E1,7.3E2,2.618E4,3.505E3,7.82E2,1.296E3,3.66E2,1.03E2,3.703E3,4.67E2,2.02E2,3.248E3,6.26E2,4.47E2,2.331E3,2.6E1,1.104E3,1.33E2],"tree_param":{"num_deleted":"0","num_feature":"12","num_nodes":"63","size_leaf_vector":"1"}},{"base_weights":[-3.3219205E-3,1.8227085E0,-3.1697836E-2,3.1363053E0,1.3899496E0,-7.652555E-2,9.5657855E-1,4.702472E0,1.1746017E0,1.7041003E0,-1.0960749E0,3.4673187E-1,-1.3662297E-1,5.608455E0,8.840661E-1,6.005505E0,2.6386573E0,-3.4985402E-1,1.5137135E0,6.053606E-1,3.032554E0,2.6480496E-1,-1.3970422E0,6.0949427E-1,9.6869424E-2,-1.0794797E-1,-6.6438466E-1,-3.246086E-2,6.517241E0,1.5043453E0,4.5119056E-1,6.6059893E-1,9.346815E-2,-9.098216E-2,3.814105E-1,4.7013074E-1,1.19959176E-1,1.6677184E-1,-3.7977323E-2,6.950397E-1,2.5138637E-1,-3.2503936E-1,-1.039929E-1,-7.078424E-3,7.627272E-2,-7.3398575E-3,8.809293E-2,-1.5947584E-2,2.4210034E-2,-7.666714E-2,-2.7361093E-2,9.232618E-1,5.279016E-1,3.4449014E-1,1.2254174E-1,1.209965E-1,9.786869E-3],"categories":[],"categories_nodes":[],"categories_segments":[],"categories_sizes":[],"default_left":[0,0,0,0,0,0,0,0,0,0,0,0,0,0,0,0,0,0,0,0,0,0,0,0,0,0,0,0,0,0,0,0,0,0,0,0,0,0,0,0,0,0,0,0,0,0,0,0,0,0,0,0,0,0,0,0,0],"id":14,"left_children":[1,3,5,7,9,11,13,15,17,19,21,23,25,27,29,31,33,-1,35,37,39,-1,41,43,45,47,49,-1,51,53,55,-1,-1,-1,-1,-1,-1,-1,-1,-1,-1,-1,-1,-1,-1,-1,-1,-1,-1,-1,-1,-1,-1,-1,-1,-1,-1],"loss_changes":[3.0171064E3,5.021482E2,2.5402263E3,6.703948E2,5.2669055E2,1.3952491E3,8.342908E2,3.1223828E2,1.6218277E2,8.695602E2,8.9340706E1,4.4770428E2,7.2680853E2,2.0700708E2,6.574238E2,2.1915112E2,2.0785172E2,0E0,8.748056E1,3.4390656E2,5.312075E2,0E0,4.3611603E1,3.465514E2,4.6691522E2,8.217613E2,9.871838E1,0E0,6.2215088E1,5.408428E2,3.872739E2,0E0,0E0,0E0,0E0,0E0,0E0,0E0,0E0,0E0,0E0,0E0,0E0,0E0,0E0,0E0,0E0,0E0,0E0,0E0,0E0,0E0,0E0,0E0,0E0,0E0,0E0],"parents":[2147483647,0,0,1,1,2,2,3,3,4,4,5,5,6,6,7,7,8,8,9,9,10,10,11,11,12,12,13,13,14,14,15,15,16,16,18,18,19,19,20,20,22,22,23,23,24,24,25,25,26,26,28,28,29,29,30,30],"right_children":[2,4,6,8,10,12,14,16,18,20,22,24,26,28,30,32,34,-1,36,38,40,-1,42,44,46,48,50,-1,52,54,56,-1,-1,-1,-1,-1,-1,-1,-1,-1,-1,-1,-1,-1,-1,-1,-1,-1,-1,-1,-1,-1,-1,-1,-1,-1,-1],"split_conditions":[-1.1825688E0,-1.9239612E0,7.3465234E-1,5.6667E0,6.860238E-1,-3.7871447E-1,-7.3627074E-5,-1.1598363E-1,-3.1184083E-1,6.383765E-2,-4.1837507E-1,3.995E0,5.228461E-1,-1.8715943E-1,2.7769E0,5.9629464E-1,0E0,-3.4985402E-1,-1.1780605E-4,-4.2633662E-1,-3.3981258E-1,2.6480496E-1,-2.8653792E-1,6.667E-1,7.25E0,9.579282E-6,3.0464876E-1,-3.246086E-2,-5.2233335E-2,-1.4352239E0,-1.4309376E-1,6.6059893E-1,9.346815E-2,-9.098216E-2,3.814105E-1,4.7013074E-1,1.19959176E-1,1.6677184E-1,-3.7977323E-2,6.950397E-1,2.5138637E-1,-3.2503936E-1,-1.039929E-1,-7.078424E-3,7.627272E-2,-7.3398575E-3,8.809293E-2,-1.5947584E-2,2.4210034E-2,-7.666714E-2,-2.7361093E-2,9.232618E-1,5.279016E-1,3.4449014E-1,1.2254174E-1,1.209965E-1,9.786869E-3],"split_indices":[1,1,1,9,5,1,11,4,4,5,4,9,4,4,9,5,8,0,11,5,4,0,4,9,9,11,1,0,4,5,5,0,0,0,0,0,0,0,0,0,0,0,0,0,0,0,0,0,0,0,0,0,0,0,0,0,0],"split_type":[0,0,0,0,0,0,0,0,0,0,0,0,0,0,0,0,0,0,0,0,0,0,0,0,0,0,0,0,0,0,0,0,0,0,0,0,0,0,0,0,0,0,0,0,0,0,0,0,0,0,0,0,0,0,0,0,0],"sum_hessian":[5.8226E4,8.9E2,5.7336E4,2.19E2,6.71E2,5.4849E4,2.487E3,1.21E2,9.8E1,5.96E2,7.5E1,6.819E3,4.803E4,3.7E1,2.45E3,7.3E1,4.8E1,6E0,9.2E1,3.27E2,2.69E2,5E0,7E1,3.323E3,3.496E3,4.5556E4,2.474E3,5E0,3.2E1,1.006E3,1.444E3,6.5E1,8E0,1.2E1,3.6E1,7E0,8.5E1,1.57E2,1.7E2,3E1,2.39E2,1E1,6E1,6.11E2,2.712E3,2.873E3,6.23E2,3.9711E4,5.845E3,1.96E3,5.14E2,8E0,2.4E1,1.25E2,8.81E2,4.58E2,9.86E2],"tree_param":{"num_deleted":"0","num_feature":"12","num_nodes":"57","size_leaf_vector":"1"}},{"base_weights":[1.0513647E-2,4.812693E-1,-1.24864504E-1,1.6960793E0,3.8502076E-1,-2.1800376E-1,2.996135E-1,1.9099569E0,-1.3080001E0,8.450836E-1,2.7723584E-1,-2.7124992E-1,9.608409E-2,6.602652E-1,-1.5230782E-1,2.3525445E0,8.940956E-1,-3.6021972E-1,-4.1288278E-1,1.5721819E0,4.659858E-1,2.1955395E0,2.4666266E-1,-2.9735455E-1,4.947118E-1,-6.6900057E-1,1.6698925E-1,2.5229418E0,5.726244E-1,-4.1198277E-1,3.3253962E-1,-4.496286E-2,2.6044962E-1,5.5228453E-2,4.249098E-1,-3.743763E-1,1.1001623E-1,3.480694E-1,6.704771E-2,1.5976474E-1,2.3256993E-2,9.865584E-2,4.9862882E-1,8.591422E-3,4.6153333E-2,-9.345516E-3,-3.832419E-2,1.4284433E-1,6.557315E-3,-1.0142185E-1,2.6347164E-2,8.141643E-2,8.599869E-3,8.059729E-2,4.086527E-1,3.3402435E-2,1.3608126E-1,-5.1049203E-2,1.16004184E-1,5.971246E-3,2.3510623E-1],"categories":[],"categories_nodes":[],"categories_segments":[],"categories_sizes":[],"default_left":[0,0,0,0,0,0,0,0,0,0,0,0,0,0,0,0,0,0,0,0,0,0,0,0,0,0,0,0,0,0,0,0,0,0,0,0,0,0,0,0,0,0,0,0,0,0,0,0,0,0,0,0,0,0,0,0,0,0,0,0,0],"id":15,"left_children":[1,3,5,7,9,11,13,15,17,19,21,23,25,27,29,31,33,35,-1,37,39,41,43,45,47,49,51,53,55,57,59,-1,-1,-1,-1,-1,-1,-1,-1,-1,-1,-1,-1,-1,-1,-1,-1,-1,-1,-1,-1,-1,-1,-1,-1,-1,-1,-1,-1,-1,-1],"loss_changes":[3.709148E3,1.519238E3,1.7871519E3,6.154485E2,5.971008E2,6.199668E2,1.3258302E3,3.9849707E2,1.6961833E2,6.293834E2,5.7192786E2,6.3391284E2,2.916429E2,7.370825E2,4.5477176E2,4.3889844E2,3.0957663E2,2.4624075E2,0E0,1.3451422E3,3.969067E2,5.11297E2,3.3185645E2,5.367539E2,4.1863815E2,1.470564E2,2.577597E2,5.4168555E2,8.1234827E2,3.648204E2,6.9375146E2,0E0,0E0,0E0,0E0,0E0,0E0,0E0,0E0,0E0,0E0,0E0,0E0,0E0,0E0,0E0,0E0,0E0,0E0,0E0,0E0,0E0,0E0,0E0,0E0,0E0,0E0,0E0,0E0,0E0,0E0],"parents":[2147483647,0,0,1,1,2,2,3,3,4,4,5,5,6,6,7,7,8,8,9,9,10,10,11,11,12,12,13,13,14,14,15,15,16,16,17,17,19,19,20,20,21,21,22,22,23,23,24,24,25,25,26,26,27,27,28,28,29,29,30,30],"right_children":[2,4,6,8,10,12,14,16,18,20,22,24,26,28,30,32,34,36,-1,38,40,42,44,46,48,50,52,54,56,58,60,-1,-1,-1,-1,-1,-1,-1,-1,-1,-1,-1,-1,-1,-1,-1,-1,-1,-1,-1,-1,-1,-1,-1,-1,-1,-1,-1,-1,-1,-1],"split_conditions":[9.4136757E-1,-7.623543E-1,1.8424977E0,6.6455626E0,8.209757E-1,1.1031812E0,3.3914E0,9.0555704E-1,9.163356E-1,-3.2309906E-6,-5.1552634E-5,2.4403696E-5,8.333E-1,9.565858E-1,6.75E0,3.778E-1,1.43857405E-5,-1.1780605E-4,-4.1288278E-1,-9.744362E-2,-1.4352239E0,4.7667494E-1,9.8094635E-2,9.9233466E-1,1.0041693E0,1.169839E0,-4.7196335E-1,1E0,3.5679245E-1,2.7959126E-5,7.3465234E-1,-4.496286E-2,2.6044962E-1,5.5228453E-2,4.249098E-1,-3.743763E-1,1.1001623E-1,3.480694E-1,6.704771E-2,1.5976474E-1,2.3256993E-2,9.865584E-2,4.9862882E-1,8.591422E-3,4.6153333E-2,-9.345516E-3,-3.832419E-2,1.4284433E-1,6.557315E-3,-1.0142185E-1,2.6347164E-2,8.141643E-2,8.599869E-3,8.059729E-2,4.086527E-1,3.3402435E-2,1.3608126E-1,-5.1049203E-2,1.16004184E-1,5.971246E-3,2.3510623E-1],"split_indices":[6,1,3,3,6,6,9,6,6,11,11,11,9,6,9,9,11,11,0,5,5,1,5,6,6,6,5,8,1,11,1,0,0,0,0,0,0,0,0,0,0,0,0,0,0,0,0,0,0,0,0,0,0,0,0,0,0,0,0,0,0],"split_type":[0,0,0,0,0,0,0,0,0,0,0,0,0,0,0,0,0,0,0,0,0,0,0,0,0,0,0,0,0,0,0,0,0,0,0,0,0,0,0,0,0,0,0,0,0,0,0,0,0,0,0,0,0,0,0,0,0,0,0,0,0],"sum_hessian":[5.8199E4,1.2998E4,4.5201E4,9.53E2,1.2045E4,3.7068E4,8.133E3,8.9E2,6.3E1,2.285E3,9.76E3,3.1695E4,5.373E3,4.523E3,3.61E3,6.19E2,2.71E2,4.8E1,1.5E1,7.82E2,1.503E3,1.52E2,9.608E3,3.0651E4,1.044E3,4.55E2,4.918E3,2.02E2,4.321E3,2.351E3,1.259E3,5.1E1,5.68E2,2.47E2,2.4E1,1.4E1,3.4E1,2.5E2,5.32E2,2.56E2,1.247E3,1.07E2,4.5E1,5.497E3,4.111E3,9.085E3,2.1566E4,3.28E2,7.16E2,3.32E2,1.23E2,5.46E2,4.372E3,9.7E1,1.05E2,3.318E3,1.003E3,2.213E3,1.38E2,1.11E3,1.49E2],"tree_param":{"num_deleted":"0","num_feature":"12","num_nodes":"61","size_leaf_vector":"1"}},{"base_weights":[1.7544223E-4,-3.3750242E-1,5.974001E-1,-6.0289884E-1,-2.1229033E-1,3.5998031E-1,1.1445713E0,-4.442204E-1,-6.9238776E-1,-3.132843E-1,-8.7224945E-2,6.348274E-1,2.2034062E-1,1.4522991E0,7.131804E-1,-1.119239E-1,-5.7451755E-1,-6.974477E-1,3.2224497E-1,-3.503803E-1,-9.476829E-3,1.1127765E0,-1.0844646E-1,6.94019E-1,-5.0061905E-1,1.3901982E-1,8.4030634E-1,1.2368973E0,2.1815152E0,-9.0159225E-1,9.951269E-1,-1.16922796E-1,8.4749E-3,-6.704599E-2,1.3347623E-2,-9.775645E-2,-6.366225E-2,-3.8106646E-2,1.952785E-2,8.279621E-3,-1.530282E-1,-8.261496E-2,2.6679394E-1,-5.656272E-2,-2.4885193E-3,6.6897295E-2,5.160212E-1,-1.567912E-1,5.0338473E-2,4.790395E-2,-6.3149147E-3,1.3171186E-1,-3.595406E-2,1.7950399E-1,8.629984E-2,1.6988513E-1,3.9156246E-1,3.4441528E-1,-1.3083893E-1,1.8851297E-1,4.2480133E-2],"categories":[],"categories_nodes":[],"categories_segments":[],"categories_sizes":[],"default_left":[0,0,0,0,0,0,0,0,0,0,0,0,0,0,0,0,0,0,0,0,0,0,0,0,0,0,0,0,0,0,0,0,0,0,0,0,0,0,0,0,0,0,0,0,0,0,0,0,0,0,0,0,0,0,0,0,0,0,0,0,0],"id":16,"left_children":[1,3,5,7,9,11,13,15,17,19,21,23,25,27,29,31,33,35,-1,37,39,41,43,45,47,49,51,53,55,57,59,-1,-1,-1,-1,-1,-1,-1,-1,-1,-1,-1,-1,-1,-1,-1,-1,-1,-1,-1,-1,-1,-1,-1,-1,-1,-1,-1,-1,-1,-1],"loss_changes":[1.1723051E4,1.2338662E3,2.727164E3,1.6871436E2,3.1867432E2,5.618904E2,8.4233105E2,1.8589764E2,1.5297461E2,1.5731519E2,2.8722253E2,3.3188916E2,4.8952448E2,5.795762E2,1.2060217E3,2.5191814E2,2.0964294E2,1.2886792E2,0E0,2.083717E2,2.1342725E2,5.932118E2,4.232325E2,5.21063E2,2.6332297E2,5.9031287E2,6.4465985E2,5.961362E2,6.9976953E2,7.010337E2,1.1433103E3,0E0,0E0,0E0,0E0,0E0,0E0,0E0,0E0,0E0,0E0,0E0,0E0,0E0,0E0,0E0,0E0,0E0,0E0,0E0,0E0,0E0,0E0,0E0,0E0,0E0,0E0,0E0,0E0,0E0,0E0],"parents":[2147483647,0,0,1,1,2,2,3,3,4,4,5,5,6,6,7,7,8,8,9,9,10,10,11,11,12,12,13,13,14,14,15,15,16,16,17,17,19,19,20,20,21,21,22,22,23,23,24,24,25,25,26,26,27,27,28,28,29,29,30,30],"right_children":[2,4,6,8,10,12,14,16,18,20,22,24,26,28,30,32,34,36,-1,38,40,42,44,46,48,50,52,54,56,58,60,-1,-1,-1,-1,-1,-1,-1,-1,-1,-1,-1,-1,-1,-1,-1,-1,-1,-1,-1,-1,-1,-1,-1,-1,-1,-1,-1,-1,-1,-1],"split_conditions":[4.3594083E-1,2.2333002E-1,7.2563344E-1,2.9167E0,3.2985517E-1,9.4839084E-1,9.9782985E-1,9.933664E-1,3.3040767E0,1.1191192E0,-3.018097E0,6.671802E-1,1.1249149E0,1.1509306E0,-9.048047E-1,8.798846E-1,7.244485E-1,-7.4229705E-1,3.2224497E-1,7.5833E0,7.5833E0,-4.4671254E0,-8.743852E-1,6.6338426E-1,9.2732525E-1,3.2564E0,1.6894678E0,-7.706803E-2,5.4349905E-1,6.270519E-1,1.9167E0,-1.16922796E-1,8.4749E-3,-6.704599E-2,1.3347623E-2,-9.775645E-2,-6.366225E-2,-3.8106646E-2,1.952785E-2,8.279621E-3,-1.530282E-1,-8.261496E-2,2.6679394E-1,-5.656272E-2,-2.4885193E-3,6.6897295E-2,5.160212E-1,-1.567912E-1,5.0338473E-2,4.790395E-2,-6.3149147E-3,1.3171186E-1,-3.595406E-2,1.7950399E-1,8.629984E-2,1.6988513E-1,3.9156246E-1,3.4441528E-1,-1.3083893E-1,1.8851297E-1,4.2480133E-2],"split_indices":[0,0,0,9,0,6,6,6,5,6,5,5,6,0,5,6,5,5,0,9,9,5,5,5,6,9,3,5,5,3,9,0,0,0,0,0,0,0,0,0,0,0,0,0,0,0,0,0,0,0,0,0,0,0,0,0,0,0,0,0,0],"split_type":[0,0,0,0,0,0,0,0,0,0,0,0,0,0,0,0,0,0,0,0,0,0,0,0,0,0,0,0,0,0,0,0,0,0,0,0,0,0,0,0,0,0,0,0,0,0,0,0,0,0,0,0,0,0,0,0,0,0,0,0,0],"sum_hessian":[5.8128E4,3.7133E4,2.0995E4,1.1902E4,2.5231E4,1.4643E4,6.352E3,4.294E3,7.608E3,1.3958E4,1.1273E4,4.932E3,9.711E3,3.706E3,2.646E3,1.21E3,3.084E3,7.599E3,9E0,1.2439E4,1.519E3,1.95E2,1.1078E4,4.688E3,2.44E2,8.586E3,1.125E3,2.863E3,8.43E2,3.93E2,2.253E3,1.89E2,1.021E3,2.716E3,3.68E2,1.353E3,6.246E3,1.1777E4,6.62E2,1.433E3,8.6E1,8.7E1,1.08E2,1.711E3,9.367E3,4.663E3,2.5E1,1.18E2,1.26E2,3.201E3,5.385E3,8.05E2,3.2E2,1.147E3,1.716E3,6.61E2,1.82E2,3.3E1,3.6E2,8.79E2,1.374E3],"tree_param":{"num_deleted":"0","num_feature":"12","num_nodes":"61","size_leaf_vector":"1"}},{"base_weights":[8.478627E-3,-2.7173856E-1,6.5008307E-1,-4.3344077E-1,-8.617115E-2,4.4615185E-1,1.3301108E0,-5.8734053E-1,-3.4862763E-1,4.9896784E-2,-1.975615E-1,6.8154395E-1,1.6914873E-1,2.4993594E0,1.1294879E0,-1.4098464E0,-5.572251E-1,-6.0084623E-1,-2.773869E-1,1.4233318E-1,-1.9880368E-1,-6.052994E-1,-1.08074576E-1,6.63766E-1,5.1527834E0,-7.682131E-1,3.3111283E-1,5.7723475E0,2.2412732E0,1.2431152E0,-9.0471184E-1,-1.5085624E-1,5.1005352E-2,-4.6086838E-3,-6.043899E-2,-3.8758717E-2,-7.996443E-2,7.678823E-2,-2.9751686E-2,-2.0146916E-2,2.7077952E-2,-3.6701202E-2,5.9712388E-2,-6.445644E-2,9.9200505E-1,5.336739E-3,-2.941568E-2,7.350129E-2,-4.2489138E-2,5.9510994E-1,1.7936336E-1,-8.783634E-2,1.890202E-1,4.6685483E-2,-6.548949E-2,-6.1479002E-2,7.0313686E-1,2.0792647E-1,6.47104E-1,9.248815E-2,2.1220115E-1,-1.3263921E-1,1.3181826E-1],"categories":[],"categories_nodes":[],"categories_segments":[],"categories_sizes":[],"default_left":[0,0,0,0,0,0,0,0,0,0,0,0,0,0,0,0,0,0,0,0,0,0,0,0,0,0,0,0,0,0,0,0,0,0,0,0,0,0,0,0,0,0,0,0,0,0,0,0,0,0,0,0,0,0,0,0,0,0,0,0,0,0,0],"id":17,"left_children":[1,3,5,7,9,11,13,15,17,19,21,23,25,27,29,31,33,35,37,39,41,43,45,47,49,51,53,55,57,59,61,-1,-1,-1,-1,-1,-1,-1,-1,-1,-1,-1,-1,-1,-1,-1,-1,-1,-1,-1,-1,-1,-1,-1,-1,-1,-1,-1,-1,-1,-1,-1,-1],"loss_changes":[1.0466211E4,1.2157727E3,2.4534673E3,2.8240015E2,2.8598566E2,8.8764185E2,9.547246E2,1.8972119E2,2.5068787E2,1.9529665E2,3.7848947E2,5.8162036E2,9.500339E2,4.9135645E2,8.0688135E2,5.2130676E1,1.7887573E2,1.300138E2,2.2932507E2,2.7353842E2,3.0841473E2,7.7798376E2,2.5563866E2,5.690071E2,6.709412E1,2.7164508E2,7.143562E2,3.5010913E2,3.6686353E2,9.215879E2,1.7515833E2,0E0,0E0,0E0,0E0,0E0,0E0,0E0,0E0,0E0,0E0,0E0,0E0,0E0,0E0,0E0,0E0,0E0,0E0,0E0,0E0,0E0,0E0,0E0,0E0,0E0,0E0,0E0,0E0,0E0,0E0,0E0,0E0],"parents":[2147483647,0,0,1,1,2,2,3,3,4,4,5,5,6,6,7,7,8,8,9,9,10,10,11,11,12,12,13,13,14,14,15,15,16,16,17,17,18,18,19,19,20,20,21,21,22,22,23,23,24,24,25,25,26,26,27,27,28,28,29,29,30,30],"right_children":[2,4,6,8,10,12,14,16,18,20,22,24,26,28,30,32,34,36,38,40,42,44,46,48,50,52,54,56,58,60,62,-1,-1,-1,-1,-1,-1,-1,-1,-1,-1,-1,-1,-1,-1,-1,-1,-1,-1,-1,-1,-1,-1,-1,-1,-1,-1,-1,-1,-1,-1,-1,-1],"split_conditions":[4.7789726E-1,2.9666218E-1,8.4426904E-1,1.8398593E-1,9.953076E-1,1.000245E0,8.28429E-1,8.421594E-1,-3.5721907E-1,1.2685319E0,-7.6685643E-1,1.739388E0,-1.0452393E0,4.510547E-1,9.600715E-1,4.5176682E-1,6.691205E-2,1.0104572E0,-2.624209E-5,3.3898604E-1,9.820319E-1,7.060172E-5,1E0,8.277862E-1,2.8279095E0,1.1493537E0,9.600715E-1,-7.667343E-6,5.047961E-1,5.0004464E-1,3.239299E-5,-1.5085624E-1,5.1005352E-2,-4.6086838E-3,-6.043899E-2,-3.8758717E-2,-7.996443E-2,7.678823E-2,-2.9751686E-2,-2.0146916E-2,2.7077952E-2,-3.6701202E-2,5.9712388E-2,-6.445644E-2,9.9200505E-1,5.336739E-3,-2.941568E-2,7.350129E-2,-4.2489138E-2,5.9510994E-1,1.7936336E-1,-8.783634E-2,1.890202E-1,4.6685483E-2,-6.548949E-2,-6.1479002E-2,7.0313686E-1,2.0792647E-1,6.47104E-1,9.248815E-2,2.1220115E-1,-1.3263921E-1,1.3181826E-1],"split_indices":[0,0,0,0,6,6,6,6,5,3,5,5,5,3,5,5,0,6,11,0,6,11,8,5,3,6,5,11,5,5,11,0,0,0,0,0,0,0,0,0,0,0,0,0,0,0,0,0,0,0,0,0,0,0,0,0,0,0,0,0,0,0,0],"split_type":[0,0,0,0,0,0,0,0,0,0,0,0,0,0,0,0,0,0,0,0,0,0,0,0,0,0,0,0,0,0,0,0,0,0,0,0,0,0,0,0,0,0,0,0,0,0,0,0,0,0,0,0,0,0,0,0,0,0,0,0,0,0,0],"sum_hessian":[5.8212E4,4.0517E4,1.7695E4,2.165E4,1.8867E4,1.3614E4,4.081E3,7.69E3,1.396E4,8.493E3,1.0374E4,7.359E3,6.255E3,5.96E2,3.485E3,2.7E2,7.42E3,3.073E3,1.0887E4,6.192E3,2.301E3,1.866E3,8.508E3,7.331E3,2.8E1,9.21E2,5.334E3,4.2E1,5.54E2,3.301E3,1.84E2,2.57E2,1.3E1,6.27E2,6.793E3,1.484E3,1.589E3,2.05E2,1.0682E4,1.684E3,4.508E3,1.9E3,4.01E2,1.86E3,6E0,4.556E3,3.952E3,6.881E3,4.5E2,2.2E1,6E0,8.85E2,3.6E1,4.689E3,6.45E2,7E0,3.5E1,5.35E2,1.9E1,2.425E3,8.76E2,1.55E2,2.9E1],"tree_param":{"num_deleted":"0","num_feature":"12","num_nodes":"63","size_leaf_vector":"1"}},{"base_weights":[-1.5024325E-2,-2.1607035E-1,6.742075E-1,-3.7231246E-1,-5.220684E-3,5.34038E-1,1.2818093E0,-5.18486E-1,-2.6055592E-1,1.7461525E-1,-1.6224936E-1,7.8131366E-1,2.4573399E-1,1.8090084E0,7.6585174E-1,-1.195925E0,-5.0025517E-1,-4.623867E-1,-2.1197154E-1,4.3415412E-1,1.8470008E-2,-9.523881E-1,-3.72464E-2,1.1422017E0,5.371972E-1,-8.1170565E-1,4.1941962E-1,1.666001E0,7.8222136E0,9.89965E-1,-8.5368705E-1,7.908585E-2,-1.360132E-1,-4.4897912E-4,-5.2681107E-2,3.963339E-2,-5.7372082E-2,-1.384646E-2,-3.8610246E-2,7.65985E-3,7.3934704E-2,2.0864176E-2,-4.378608E-2,-1.0208682E-1,2.1002913E-1,-1.0993308E-2,2.0410158E-2,6.049561E-2,1.6379273E-1,8.745337E-2,-5.107683E-3,-7.285091E-2,-3.904968E-1,1.2655742E-1,1.9269077E-2,1.9680324E-1,-9.9414244E-2,4.632237E-1,8.4816515E-1,3.849686E-1,8.408145E-2,-2.0884709E-1,-9.083285E-3],"categories":[],"categories_nodes":[],"categories_segments":[],"categories_sizes":[],"default_left":[0,0,0,0,0,0,0,0,0,0,0,0,0,0,0,0,0,0,0,0,0,0,0,0,0,0,0,0,0,0,0,0,0,0,0,0,0,0,0,0,0,0,0,0,0,0,0,0,0,0,0,0,0,0,0,0,0,0,0,0,0,0,0],"id":18,"left_children":[1,3,5,7,9,11,13,15,17,19,21,23,25,27,29,31,33,35,37,39,41,43,45,47,49,51,53,55,57,59,61,-1,-1,-1,-1,-1,-1,-1,-1,-1,-1,-1,-1,-1,-1,-1,-1,-1,-1,-1,-1,-1,-1,-1,-1,-1,-1,-1,-1,-1,-1,-1,-1],"loss_changes":[8.0615767E3,1.4837776E3,1.1182427E3,4.2247363E2,5.414058E2,7.609778E2,6.683091E2,1.3782373E2,1.436847E2,3.6217072E2,1.0108722E3,5.0568945E2,9.05978E2,1.0335061E3,4.5309344E2,9.666507E1,1.4371191E2,2.7212775E2,1.512406E2,3.662708E2,4.8441736E2,2.9439258E2,1.5506557E2,6.16354E2,6.807155E2,1.762698E2,8.124227E2,9.580576E2,1.9611572E1,4.6381238E2,1.4298822E2,0E0,0E0,0E0,0E0,0E0,0E0,0E0,0E0,0E0,0E0,0E0,0E0,0E0,0E0,0E0,0E0,0E0,0E0,0E0,0E0,0E0,0E0,0E0,0E0,0E0,0E0,0E0,0E0,0E0,0E0,0E0,0E0],"parents":[2147483647,0,0,1,1,2,2,3,3,4,4,5,5,6,6,7,7,8,8,9,9,10,10,11,11,12,12,13,13,14,14,15,15,16,16,17,17,18,18,19,19,20,20,21,21,22,22,23,23,24,24,25,25,26,26,27,27,28,28,29,29,30,30],"right_children":[2,4,6,8,10,12,14,16,18,20,22,24,26,28,30,32,34,36,38,40,42,44,46,48,50,52,54,56,58,60,62,-1,-1,-1,-1,-1,-1,-1,-1,-1,-1,-1,-1,-1,-1,-1,-1,-1,-1,-1,-1,-1,-1,-1,-1,-1,-1,-1,-1,-1,-1,-1,-1],"split_conditions":[5.470821E-1,3.2985517E-1,9.76088E-1,2.1768232E-1,-4.9023866E-3,9.9782985E-1,2.6661E0,8.421594E-1,-5.20137E-1,3.25E0,3.263548E-3,-7.706803E-2,-1.0452393E0,1.1374025E0,1.9092353E-1,5.066762E-1,3.778E-1,3.9402837E-1,4.43622E-1,4.0697333E-1,1.2791924E0,1.1031812E0,6.1667E0,-7.270724E-2,2.312745E-1,5.956876E0,7.4794644E-1,1.0618612E0,-1.4444438E-1,-3.515357E0,4.6978E0,7.908585E-2,-1.360132E-1,-4.4897912E-4,-5.2681107E-2,3.963339E-2,-5.7372082E-2,-1.384646E-2,-3.8610246E-2,7.65985E-3,7.3934704E-2,2.0864176E-2,-4.378608E-2,-1.0208682E-1,2.1002913E-1,-1.0993308E-2,2.0410158E-2,6.049561E-2,1.6379273E-1,8.745337E-2,-5.107683E-3,-7.285091E-2,-3.904968E-1,1.2655742E-1,1.9269077E-2,1.9680324E-1,-9.9414244E-2,4.632237E-1,8.4816515E-1,3.849686E-1,8.408145E-2,-2.0884709E-1,-9.083285E-3],"split_indices":[0,0,0,0,4,6,9,6,5,9,4,5,5,6,4,6,9,3,5,0,3,6,9,1,1,3,3,6,4,5,9,0,0,0,0,0,0,0,0,0,0,0,0,0,0,0,0,0,0,0,0,0,0,0,0,0,0,0,0,0,0,0,0],"split_type":[0,0,0,0,0,0,0,0,0,0,0,0,0,0,0,0,0,0,0,0,0,0,0,0,0,0,0,0,0,0,0,0,0,0,0,0,0,0,0,0,0,0,0,0,0,0,0,0,0,0,0,0,0,0,0,0,0,0,0,0,0,0,0],"sum_hessian":[5.8176E4,4.5039E4,1.3137E4,2.5869E4,1.917E4,1.0676E4,2.461E3,1.1207E4,1.4662E4,8.936E3,1.0234E4,5.746E3,4.93E3,1.216E3,1.245E3,2.92E2,1.0915E4,2.843E3,1.1819E4,3.356E3,5.58E3,1.397E3,8.837E3,2.317E3,3.429E3,6.95E2,4.235E3,1.189E3,2.7E1,1.094E3,1.51E2,2.2E1,2.7E2,5.55E2,1.036E4,3.26E2,2.517E3,8.312E3,3.507E3,1.546E3,1.81E3,3.939E3,1.641E3,1.367E3,3E1,6.792E3,2.045E3,1.113E3,1.204E3,2.179E3,1.25E3,6.78E2,1.7E1,8.94E2,3.341E3,1.068E3,1.21E2,6E0,2.1E1,5.3E1,1.041E3,5.7E1,9.4E1],"tree_param":{"num_deleted":"0","num_feature":"12","num_nodes":"63","size_leaf_vector":"1"}},{"base_weights":[-2.7127925E-3,-2.6981083E-1,4.6959174E-1,-4.5983997E-1,-1.8291846E-1,2.8666675E-1,9.95275E-1,-4.6383187E-1,4.2287126E-1,-2.199515E-1,8.492079E-2,-2.4099478E-1,3.5151404E-1,1.0770191E0,-4.58348E-1,-3.1505135E-1,-5.498508E-1,-4.3390426E-1,-1.6382764E-1,-5.3022232E-2,7.0760304E-1,4.2780307E-1,-5.6269157E-1,7.718228E-1,1.7829408E-1,1.4606586E0,7.663445E-1,1.395156E0,-8.5194784E-1,2.082607E-1,-3.3082552E-2,-7.716628E-2,-5.0099857E-2,-2.4205357E-2,-7.4875526E-2,-1.3384411E-2,-5.3140737E-2,3.4548797E-2,-1.5390462E-2,6.5678847E-1,5.6754608E-2,2.0880962E-2,2.3336092E-1,-9.400953E-2,-1.8035395E-2,8.723429E-2,3.218595E-3,1.4630432E-1,1.3527003E-2,1.3160227E-1,3.420061E-1,1.221049E-1,4.432863E-2,-2.1972172E-1,3.2559666E-1,2.6003754E-1,-1.16192296E-1],"categories":[],"categories_nodes":[],"categories_segments":[],"categories_sizes":[],"default_left":[0,0,0,0,0,0,0,0,0,0,0,0,0,0,0,0,0,0,0,0,0,0,0,0,0,0,0,0,0,0,0,0,0,0,0,0,0,0,0,0,0,0,0,0,0,0,0,0,0,0,0,0,0,0,0,0,0],"id":19,"left_children":[1,3,5,7,9,11,13,15,-1,17,19,21,23,25,27,29,31,33,35,37,39,41,43,45,47,49,51,53,55,-1,-1,-1,-1,-1,-1,-1,-1,-1,-1,-1,-1,-1,-1,-1,-1,-1,-1,-1,-1,-1,-1,-1,-1,-1,-1,-1,-1],"loss_changes":[7.3260034E3,6.1243164E2,2.0169717E3,2.1979907E2,2.5252417E2,5.326448E2,6.4393115E2,1.4866675E2,0E0,2.684845E2,2.657097E2,3.6685654E2,1.00902466E3,6.0995264E2,2.1202533E2,1.6192014E2,7.9453125E1,2.8051788E2,1.9521597E2,1.0188651E2,4.567261E2,2.3072968E2,1.6591473E2,3.0071118E2,5.424379E2,6.4533496E2,4.1590894E2,3.4807513E2,2.5878348E2,0E0,0E0,0E0,0E0,0E0,0E0,0E0,0E0,0E0,0E0,0E0,0E0,0E0,0E0,0E0,0E0,0E0,0E0,0E0,0E0,0E0,0E0,0E0,0E0,0E0,0E0,0E0,0E0],"parents":[2147483647,0,0,1,1,2,2,3,3,4,4,5,5,6,6,7,7,9,9,10,10,11,11,12,12,13,13,14,14,15,15,16,16,17,17,18,18,19,19,20,20,21,21,22,22,23,23,24,24,25,25,26,26,27,27,28,28],"right_children":[2,4,6,8,10,12,14,16,-1,18,20,22,24,26,28,30,32,34,36,38,40,42,44,46,48,50,52,54,56,-1,-1,-1,-1,-1,-1,-1,-1,-1,-1,-1,-1,-1,-1,-1,-1,-1,-1,-1,-1,-1,-1,-1,-1,-1,-1,-1,-1],"split_conditions":[4.3594083E-1,2.213525E-1,7.683426E-1,3.3040767E0,7E0,1E0,9.600715E-1,2.9167E0,4.2287126E-1,-4.9244243E-1,3.8562277E-1,3.333E-1,3.1517E0,2.6661E0,8.030355E-1,-3.515357E0,-7.4229705E-1,1.1349158E-6,1.0436428E0,-5.72359E-6,-7.3627074E-5,1.6735716E-5,7.001561E-2,7.823117E-1,-4.1298732E-5,7.600251E-1,-2.2837614E-6,-9.3302235E-2,-1.1780605E-4,2.082607E-1,-3.3082552E-2,-7.716628E-2,-5.0099857E-2,-2.4205357E-2,-7.4875526E-2,-1.3384411E-2,-5.3140737E-2,3.4548797E-2,-1.5390462E-2,6.5678847E-1,5.6754608E-2,2.0880962E-2,2.3336092E-1,-9.400953E-2,-1.8035395E-2,8.723429E-2,3.218595E-3,1.4630432E-1,1.3527003E-2,1.3160227E-1,3.420061E-1,1.221049E-1,4.432863E-2,-2.1972172E-1,3.2559666E-1,2.6003754E-1,-1.16192296E-1],"split_indices":[0,0,0,5,9,9,5,9,0,5,0,9,9,9,0,5,5,11,5,11,11,11,5,5,11,5,11,1,11,0,0,0,0,0,0,0,0,0,0,0,0,0,0,0,0,0,0,0,0,0,0,0,0,0,0,0,0],"split_type":[0,0,0,0,0,0,0,0,0,0,0,0,0,0,0,0,0,0,0,0,0,0,0,0,0,0,0,0,0,0,0,0,0,0,0,0,0,0,0,0,0,0,0,0,0,0,0,0,0,0,0,0,0,0,0,0,0],"sum_hessian":[5.8071E4,3.7094E4,2.0977E4,1.1638E4,2.5456E4,1.5563E4,5.414E3,1.1629E4,9E0,2.2364E4,3.092E3,1.703E3,1.386E4,5.126E3,2.88E2,4.262E3,7.367E3,4.646E3,1.7718E4,2.532E3,5.6E2,5.53E2,1.15E3,4.044E3,9.816E3,2.292E3,2.834E3,5E1,2.38E2,2.7E1,4.235E3,1.327E3,6.04E3,2.888E3,1.758E3,1.6383E4,1.335E3,5.11E2,2.021E3,1.2E1,5.48E2,4.97E2,5.6E1,5.78E2,5.72E2,3.56E3,4.84E2,3.17E2,9.499E3,2.136E3,1.56E2,1.176E3,1.658E3,1.7E1,3.3E1,1.9E1,2.19E2],"tree_param":{"num_deleted":"0","num_feature":"12","num_nodes":"57","size_leaf_vector":"1"}},{"base_weights":[2.7971013E-4,4.0879726E-1,-6.39566E-2,1.712061E0,2.9764196E-1,-7.54154E-2,1.6518894E0,-8.599868E-1,1.9490443E0,6.054328E-1,1.5679161E-1,-1.0613668E-1,2.3208529E-1,-5.817509E-1,2.519849E0,3.4378161E0,-2.3427181E0,-1.0452287E0,2.1962805E0,1.1794447E0,3.0267426E-1,9.955462E-1,6.917016E-2,1.853717E0,-1.1133622E-1,7.820474E-1,7.4016586E-2,1.2976093E0,-2.7468786E0,3.7271516E0,9.0523076E-1,6.4126325E-1,4.051247E-2,3.1545636E-1,-3.604401E-1,3.3399943E-2,-3.2554147E-1,3.2580075E-1,1.395334E-1,2.262444E-1,7.344692E-2,-6.774076E-2,5.3288933E-2,3.3459794E-2,4.2300105E-1,2.464772E-1,3.1479464E-3,3.087824E-1,-5.9950937E-2,7.681747E-2,-1.2049325E-2,3.01483E-1,4.2267628E-2,4.3946367E-2,-1.2353316E-2,-4.5948863E-1,2.0379868E-1,-3.181462E-1,4.698413E-4,4.2962655E-1,1.8302135E-2,-9.470773E-2,2.2793746E-1],"categories":[],"categories_nodes":[],"categories_segments":[],"categories_sizes":[],"default_left":[0,0,0,0,0,0,0,0,0,0,0,0,0,0,0,0,0,0,0,0,0,0,0,0,0,0,0,0,0,0,0,0,0,0,0,0,0,0,0,0,0,0,0,0,0,0,0,0,0,0,0,0,0,0,0,0,0,0,0,0,0,0,0],"id":20,"left_children":[1,3,5,7,9,11,13,15,17,19,21,23,25,27,29,31,33,35,37,39,41,43,45,47,49,51,53,55,57,59,61,-1,-1,-1,-1,-1,-1,-1,-1,-1,-1,-1,-1,-1,-1,-1,-1,-1,-1,-1,-1,-1,-1,-1,-1,-1,-1,-1,-1,-1,-1,-1,-1],"loss_changes":[1.5241682E3,1.1427623E3,9.86937E2,3.7958618E2,3.152074E2,4.7102377E2,6.470563E2,3.4579562E2,4.227815E2,3.9639874E2,3.667342E2,4.621342E2,3.936562E2,3.8605557E2,4.6446594E2,1.2370592E2,2.8880334E2,1.3521472E2,4.4190674E2,3.780818E2,3.3790283E2,1.0076326E3,4.080418E2,3.651564E2,3.6420886E2,8.099496E2,2.5410492E2,2.3186053E2,5.262967E1,2.7554456E2,2.6687384E2,0E0,0E0,0E0,0E0,0E0,0E0,0E0,0E0,0E0,0E0,0E0,0E0,0E0,0E0,0E0,0E0,0E0,0E0,0E0,0E0,0E0,0E0,0E0,0E0,0E0,0E0,0E0,0E0,0E0,0E0,0E0,0E0],"parents":[2147483647,0,0,1,1,2,2,3,3,4,4,5,5,6,6,7,7,8,8,9,9,10,10,11,11,12,12,13,13,14,14,15,15,16,16,17,17,18,18,19,19,20,20,21,21,22,22,23,23,24,24,25,25,26,26,27,27,28,28,29,29,30,30],"right_children":[2,4,6,8,10,12,14,16,18,20,22,24,26,28,30,32,34,36,38,40,42,44,46,48,50,52,54,56,58,60,62,-1,-1,-1,-1,-1,-1,-1,-1,-1,-1,-1,-1,-1,-1,-1,-1,-1,-1,-1,-1,-1,-1,-1,-1,-1,-1,-1,-1,-1,-1,-1,-1],"split_conditions":[9.036097E-1,-7.623543E-1,1.4658115E0,3.778E-1,-3.2309906E-6,1.4920881E-5,8.707167E-3,-2.5304478E-1,-7.3627074E-5,8.209757E-1,3.9950213E-1,-1.1780605E-4,1.8111E0,-1.7830351E-3,2.3327545E-6,7.9174066E-1,0E0,-1.5574664E0,3.995E0,2.5367E0,8.362041E-1,3.7400603E-1,2.9155733E-3,7.5E0,-1.1825688E0,9.649058E-1,0E0,1.0535284E0,1.0687547E0,3.0459926E-1,2.6126105E-5,6.4126325E-1,4.051247E-2,3.1545636E-1,-3.604401E-1,3.3399943E-2,-3.2554147E-1,3.2580075E-1,1.395334E-1,2.262444E-1,7.344692E-2,-6.774076E-2,5.3288933E-2,3.3459794E-2,4.2300105E-1,2.464772E-1,3.1479464E-3,3.087824E-1,-5.9950937E-2,7.681747E-2,-1.2049325E-2,3.01483E-1,4.2267628E-2,4.3946367E-2,-1.2353316E-2,-4.5948863E-1,2.0379868E-1,-3.181462E-1,4.698413E-4,4.2962655E-1,1.8302135E-2,-9.470773E-2,2.2793746E-1],"split_indices":[6,1,1,9,11,11,4,4,11,6,3,11,9,4,11,6,8,1,9,9,6,1,10,9,1,6,8,3,6,4,11,0,0,0,0,0,0,0,0,0,0,0,0,0,0,0,0,0,0,0,0,0,0,0,0,0,0,0,0,0,0,0,0],"split_type":[0,0,0,0,0,0,0,0,0,0,0,0,0,0,0,0,0,0,0,0,0,0,0,0,0,0,0,0,0,0,0,0,0,0,0,0,0,0,0,0,0,0,0,0,0,0,0,0,0,0,0,0,0,0,0,0,0,0,0,0,0,0,0],"sum_hessian":[5.808E4,7.891E3,5.0189E4,6.19E2,7.272E3,4.9857E4,3.32E2,5.2E1,5.67E2,2.282E3,4.99E3,4.5329E4,4.528E3,9.3E1,2.39E2,1.3E1,3.9E1,4.3E1,5.24E2,7.87E2,1.495E3,4.71E2,4.519E3,1.19E2,4.521E4,1.01E3,3.518E3,5E1,4.3E1,1.36E2,1.03E2,6E0,7E0,7E0,3.2E1,2.7E1,1.6E1,2.24E2,3E2,2.28E2,5.59E2,2.84E2,1.211E3,3.92E2,7.9E1,6.9E1,4.45E3,7.9E1,4E1,4.65E2,4.4745E4,1.39E2,8.71E2,1.234E3,2.284E3,5E0,4.5E1,3.7E1,6E0,1.17E2,1.9E1,4.4E1,5.9E1],"tree_param":{"num_deleted":"0","num_feature":"12","num_nodes":"63","size_leaf_vector":"1"}},{"base_weights":[-6.8406323E-3,1.6740595E-1,-1.3365921E-1,1.2700064E-1,8.7907124E-1,-5.100574E-1,-6.02554E-2,1.2179747E0,9.82456E-2,1.5593271E0,4.299026E-1,-5.755823E-1,1.2567029E0,-7.154699E-2,1.6053035E0,1.7778618E0,-7.131154E-1,5.078955E-1,5.9485573E-2,5.306773E0,1.1590482E0,3.307953E0,2.9626766E-1,-6.3936734E-1,2.411364E-1,3.405897E0,4.5695308E-1,-3.398649E-2,-4.4549975E-1,6.891904E0,1.1756574E0,2.173441E-2,2.753107E-1,2.0163095E-1,-2.4145249E-1,1.7845435E-1,2.6567748E-2,-3.02143E-3,2.6241818E-2,5.9577078E-2,5.935643E-1,3.391981E-2,2.5485128E-1,1.495878E-1,5.9192175E-1,-4.3046452E-2,6.97746E-2,-1.2576643E-1,-5.5121977E-2,1.6988172E-1,-1.0760397E-2,5.950994E-1,2.0387404E-1,-1.2077647E-2,4.2641622E-1,3.2575976E-2,-8.507377E-3,-5.985058E-2,3.785516E-2,8.6384296E-1,4.9617863E-1,4.5862358E-2,4.2689067E-1],"categories":[],"categories_nodes":[],"categories_segments":[],"categories_sizes":[],"default_left":[0,0,0,0,0,0,0,0,0,0,0,0,0,0,0,0,0,0,0,0,0,0,0,0,0,0,0,0,0,0,0,0,0,0,0,0,0,0,0,0,0,0,0,0,0,0,0,0,0,0,0,0,0,0,0,0,0,0,0,0,0,0,0],"id":21,"left_children":[1,3,5,7,9,11,13,15,17,19,21,23,25,27,29,31,33,35,37,39,41,43,45,47,49,51,53,55,57,59,61,-1,-1,-1,-1,-1,-1,-1,-1,-1,-1,-1,-1,-1,-1,-1,-1,-1,-1,-1,-1,-1,-1,-1,-1,-1,-1,-1,-1,-1,-1,-1,-1],"loss_changes":[1.280275E3,7.016556E2,9.264272E2,7.2439355E2,3.9990527E2,6.3419934E2,5.278525E2,6.42415E2,3.5727338E2,7.7536145E2,3.03245E2,2.750564E2,3.3533188E2,3.9148486E2,4.2118585E2,6.994696E2,6.27147E2,6.0097284E2,3.7424396E2,1.44594E2,5.368157E2,1.5675876E2,2.2116812E2,2.6609106E2,1.9488167E2,1.7228333E2,3.1724835E2,4.6555396E2,3.2098645E2,4.33197E0,3.8840393E2,0E0,0E0,0E0,0E0,0E0,0E0,0E0,0E0,0E0,0E0,0E0,0E0,0E0,0E0,0E0,0E0,0E0,0E0,0E0,0E0,0E0,0E0,0E0,0E0,0E0,0E0,0E0,0E0,0E0,0E0,0E0,0E0],"parents":[2147483647,0,0,1,1,2,2,3,3,4,4,5,5,6,6,7,7,8,8,9,9,10,10,11,11,12,12,13,13,14,14,15,15,16,16,17,17,18,18,19,19,20,20,21,21,22,22,23,23,24,24,25,25,26,26,27,27,28,28,29,29,30,30],"right_children":[2,4,6,8,10,12,14,16,18,20,22,24,26,28,30,32,34,36,38,40,42,44,46,48,50,52,54,56,58,60,62,-1,-1,-1,-1,-1,-1,-1,-1,-1,-1,-1,-1,-1,-1,-1,-1,-1,-1,-1,-1,-1,-1,-1,-1,-1,-1,-1,-1,-1,-1,-1,-1],"split_conditions":[9.933664E-1,7.3465234E-1,-7.6685643E-1,-1.1825688E0,-1.0504131E-1,1.140179E0,1.4658115E0,6.9167E0,8.167513E-1,-2.2145767E-5,2.5E-1,7.4167E0,-4.953597E-6,9.600715E-1,-1.9912024E-1,1.8111E0,8.724838E-1,-1.4352239E0,2.1734133E-6,8.0748445E-1,-8.743852E-1,1.0367893E0,9.097036E-1,-1.7233686E-5,-2.2871058E-1,4.3408E0,9.925791E-6,-7.893046E-6,1.1191192E0,1.0719354E0,2.7959126E-5,2.173441E-2,2.753107E-1,2.0163095E-1,-2.4145249E-1,1.7845435E-1,2.6567748E-2,-3.02143E-3,2.6241818E-2,5.9577078E-2,5.935643E-1,3.391981E-2,2.5485128E-1,1.495878E-1,5.9192175E-1,-4.3046452E-2,6.97746E-2,-1.2576643E-1,-5.5121977E-2,1.6988172E-1,-1.0760397E-2,5.950994E-1,2.0387404E-1,-1.2077647E-2,4.2641622E-1,3.2575976E-2,-8.507377E-3,-5.985058E-2,3.785516E-2,8.6384296E-1,4.9617863E-1,4.5862358E-2,4.2689067E-1],"split_indices":[6,1,5,1,5,6,1,9,6,11,9,9,11,5,5,9,6,5,11,1,5,1,6,11,1,9,11,11,6,6,11,0,0,0,0,0,0,0,0,0,0,0,0,0,0,0,0,0,0,0,0,0,0,0,0,0,0,0,0,0,0,0,0],"split_type":[0,0,0,0,0,0,0,0,0,0,0,0,0,0,0,0,0,0,0,0,0,0,0,0,0,0,0,0,0,0,0,0,0,0,0,0,0,0,0,0,0,0,0,0,0,0,0,0,0,0,0,0,0,0,0,0,0,0,0,0,0,0,0],"sum_hessian":[5.7935E4,2.4404E4,3.3531E4,2.3094E4,1.31E3,5.471E3,2.806E4,5.92E2,2.2502E4,5.2E2,7.9E2,5.276E3,1.95E2,2.7872E4,1.88E2,4.59E2,1.33E2,1.944E3,2.0558E4,4.9E1,4.71E2,3.4E1,7.56E2,4.894E3,3.82E2,5.2E1,1.43E2,2.5329E4,2.543E3,1.3E1,1.75E2,1.77E2,2.82E2,5.1E1,8.2E1,3.09E2,1.635E3,1.4257E4,6.301E3,6E0,4.3E1,2.97E2,1.74E2,2.1E1,1.3E1,2.69E2,4.87E2,6.09E2,4.285E3,7.3E1,3.09E2,1.7E1,3.5E1,1.25E2,1.8E1,3.149E3,2.218E4,2.145E3,3.98E2,5E0,8E0,1.43E2,3.2E1],"tree_param":{"num_deleted":"0","num_feature":"12","num_nodes":"63","size_leaf_vector":"1"}},{"base_weights":[9.242399E-3,-1.9436821E-1,4.7863525E-1,-3.2001966E-1,-3.3851743E-2,5.359373E-1,-4.0304422E-1,-4.0152916E-1,-2.2992599E-1,6.62969E-2,-1.4762068E-1,2.9165787E-1,7.5590724E-1,-7.193736E-1,7.26688E-1,-4.0453768E-1,3.62435E-1,-2.1190809E-1,-9.389836E-1,-1.4311773E-1,1.6742966E-1,-2.530789E-1,7.6538466E-2,-1.0584232E0,3.3073163E-1,7.1363395E-1,2.6499577E0,-9.218127E-1,5.115133E-1,4.002065E0,1.7178945E-1,-9.2341036E-2,-3.840825E-2,6.849332E-2,-2.242454E-2,-1.2161974E-1,-4.928102E-2,-6.984841E-2,-3.5946711E-3,3.6693415E-1,1.3916643E-2,-1.6817821E-2,-4.6428483E-2,2.606985E-1,1.4221122E-3,-2.160511E-1,-6.597758E-2,1.6422218E-1,2.9119799E-2,1.0337893E-1,5.005595E-2,7.854016E-2,4.6073112E-1,2.4538247E-1,-9.971154E-2,6.95277E-1,1.0797073E-2,-2.4141507E-1,5.191556E-1,-2.2465844E-1,5.7386447E-2],"categories":[],"categories_nodes":[],"categories_segments":[],"categories_sizes":[],"default_left":[0,0,0,0,0,0,0,0,0,0,0,0,0,0,0,0,0,0,0,0,0,0,0,0,0,0,0,0,0,0,0,0,0,0,0,0,0,0,0,0,0,0,0,0,0,0,0,0,0,0,0,0,0,0,0,0,0,0,0,0,0],"id":22,"left_children":[1,3,5,7,9,11,13,15,17,19,21,23,25,27,29,31,-1,33,35,37,39,41,43,45,47,49,51,53,55,57,59,-1,-1,-1,-1,-1,-1,-1,-1,-1,-1,-1,-1,-1,-1,-1,-1,-1,-1,-1,-1,-1,-1,-1,-1,-1,-1,-1,-1,-1,-1],"loss_changes":[5.546311E3,8.1633435E2,8.872317E2,1.6662695E2,2.0251186E2,8.8564014E2,3.836207E2,1.4581567E2,1.3760004E2,2.00226E2,1.9672307E2,4.1250726E2,6.926172E2,2.0928406E2,4.264255E2,1.2605371E2,0E0,1.165531E2,3.2424637E1,1.8323444E2,6.304571E2,1.0139642E2,4.1989325E2,9.5230316E1,3.9325543E2,5.783716E2,6.86155E2,1.854668E2,3.085685E2,2.7202216E2,1.9770749E2,0E0,0E0,0E0,0E0,0E0,0E0,0E0,0E0,0E0,0E0,0E0,0E0,0E0,0E0,0E0,0E0,0E0,0E0,0E0,0E0,0E0,0E0,0E0,0E0,0E0,0E0,0E0,0E0,0E0,0E0],"parents":[2147483647,0,0,1,1,2,2,3,3,4,4,5,5,6,6,7,7,8,8,9,9,10,10,11,11,12,12,13,13,14,14,15,15,17,17,18,18,19,19,20,20,21,21,22,22,23,23,24,24,25,25,26,26,27,27,28,28,29,29,30,30],"right_children":[2,4,6,8,10,12,14,16,18,20,22,24,26,28,30,32,-1,34,36,38,40,42,44,46,48,50,52,54,56,58,60,-1,-1,-1,-1,-1,-1,-1,-1,-1,-1,-1,-1,-1,-1,-1,-1,-1,-1,-1,-1,-1,-1,-1,-1,-1,-1,-1,-1,-1,-1],"split_conditions":[4.7789726E-1,3.0539945E-1,9.600715E-1,2.2333002E-1,1E0,6.287104E-1,1.772298E0,3.3040767E0,3.239299E-5,-1.4721844E-1,4.1165894E-1,-3.515357E0,1.7071537E0,1.0755166E0,9.9782985E-1,8.654064E-1,3.62435E-1,-3.7554124E-5,1E0,1.5E0,-1.4309376E-1,3.7891355E-1,-3.018097E0,5.956722E-1,-2.4374275E0,2.6661E0,4.77748E-1,4.812785E-1,7.076003E-1,7.076003E-1,5.833E-1,-9.2341036E-2,-3.840825E-2,6.849332E-2,-2.242454E-2,-1.2161974E-1,-4.928102E-2,-6.984841E-2,-3.5946711E-3,3.6693415E-1,1.3916643E-2,-1.6817821E-2,-4.6428483E-2,2.606985E-1,1.4221122E-3,-2.160511E-1,-6.597758E-2,1.6422218E-1,2.9119799E-2,1.0337893E-1,5.005595E-2,7.854016E-2,4.6073112E-1,2.4538247E-1,-9.971154E-2,6.95277E-1,1.0797073E-2,-2.4141507E-1,5.191556E-1,-2.2465844E-1,5.7386447E-2],"split_indices":[0,0,5,0,8,0,5,5,11,5,0,5,0,6,6,6,0,11,8,9,5,0,5,3,5,9,5,0,3,3,9,0,0,0,0,0,0,0,0,0,0,0,0,0,0,0,0,0,0,0,0,0,0,0,0,0,0,0,0,0,0],"split_type":[0,0,0,0,0,0,0,0,0,0,0,0,0,0,0,0,0,0,0,0,0,0,0,0,0,0,0,0,0,0,0,0,0,0,0,0,0,0,0,0,0,0,0,0,0,0,0,0,0,0,0,0,0,0,0,0,0,0,0,0,0],"sum_hessian":[5.803E4,4.0474E4,1.7556E4,2.2702E4,1.7772E4,1.6485E4,1.071E3,1.1917E4,1.0785E4,9.452E3,8.32E3,7.812E3,8.673E3,8.37E2,2.34E2,1.1909E4,8E0,1.0519E4,2.66E2,3.078E3,6.374E3,5.658E3,2.662E3,2.19E2,7.593E3,8.485E3,1.88E2,7.19E2,1.18E2,3.3E1,2.01E2,4.5E2,1.1459E4,1.42E2,1.0377E4,1.63E2,1.03E2,4.97E2,2.581E3,5E1,6.324E3,4.037E3,1.621E3,6.3E1,2.599E3,5.7E1,1.62E2,2.21E2,7.372E3,3.389E3,5.096E3,9.7E1,9.1E1,1.5E1,7.04E2,6E0,1.12E2,5E0,2.8E1,2.8E1,1.73E2],"tree_param":{"num_deleted":"0","num_feature":"12","num_nodes":"61","size_leaf_vector":"1"}},{"base_weights":[5.8635566E-3,-1.275597E-1,5.560129E-1,-2.5170153E-1,2.6604554E-2,6.1681646E-1,-4.3993723E-1,-4.0328667E-1,-2.0534691E-1,-1.481419E-1,1.404783E-1,3.556743E0,6.0051453E-1,-8.6924404E-1,6.914992E-1,-2.0167804E-1,-5.2130276E-1,-1.1673246E-1,-3.11644E-1,-6.3930064E-1,-6.318367E-2,2.0877777E-1,-3.9306656E-1,4.4245925E0,-3.522225E-1,3.5450608E-1,7.9277134E-1,1.9360636E-1,-9.274535E-1,-2.4788458E0,1.3632294E0,5.3343304E-2,-3.2958493E-2,-5.8710814E-2,-6.3530835E-3,-2.8977355E-2,-1.0309366E-3,-3.4254953E-2,1.0381328E-2,-5.293448E-2,-1.4375542E-1,3.70056E-2,-2.2208756E-2,1.9341715E-2,1.4349107E-1,3.7440192E-2,-5.3775072E-2,-1.711986E-2,5.922505E-1,-2.0578246E-1,4.0594514E-2,6.322975E-2,1.4054973E-1,-7.342733E-2,-1.6473438E-1,-3.2778408E-3,-3.9448473E-1,8.096744E-2,4.9208537E-1],"categories":[],"categories_nodes":[],"categories_segments":[],"categories_sizes":[],"default_left":[0,0,0,0,0,0,0,0,0,0,0,0,0,0,0,0,0,0,0,0,0,0,0,0,0,0,0,0,0,0,0,0,0,0,0,0,0,0,0,0,0,0,0,0,0,0,0,0,0,0,0,0,0,0,0,0,0,0,0],"id":23,"left_children":[1,3,5,7,9,11,13,15,17,19,21,23,25,27,29,31,33,35,37,39,41,43,45,47,-1,49,51,-1,53,55,57,-1,-1,-1,-1,-1,-1,-1,-1,-1,-1,-1,-1,-1,-1,-1,-1,-1,-1,-1,-1,-1,-1,-1,-1,-1,-1,-1,-1],"loss_changes":[4.2837803E3,8.989102E2,6.900801E2,1.8273706E2,4.169454E2,5.124043E2,3.1924216E2,1.4484222E2,1.876651E2,3.449248E2,4.6237042E2,3.7804987E2,5.047539E2,7.952429E1,3.8883984E2,2.118278E2,1.1569861E2,2.0015584E2,1.1635248E2,1.0623392E2,4.8535983E2,2.1155042E2,1.6009973E2,3.658706E2,0E0,5.82312E2,5.8838184E2,0E0,6.3735413E1,1.1462073E2,2.9141687E2,0E0,0E0,0E0,0E0,0E0,0E0,0E0,0E0,0E0,0E0,0E0,0E0,0E0,0E0,0E0,0E0,0E0,0E0,0E0,0E0,0E0,0E0,0E0,0E0,0E0,0E0,0E0,0E0],"parents":[2147483647,0,0,1,1,2,2,3,3,4,4,5,5,6,6,7,7,8,8,9,9,10,10,11,11,12,12,13,13,14,14,15,15,16,16,17,17,18,18,19,19,20,20,21,21,22,22,23,23,25,25,26,26,28,28,29,29,30,30],"right_children":[2,4,6,8,10,12,14,16,18,20,22,24,26,28,30,32,34,36,38,40,42,44,46,48,-1,50,52,-1,54,56,58,-1,-1,-1,-1,-1,-1,-1,-1,-1,-1,-1,-1,-1,-1,-1,-1,-1,-1,-1,-1,-1,-1,-1,-1,-1,-1,-1,-1],"split_conditions":[5.8100384E-1,3.2985517E-1,9.600715E-1,1.6692802E-1,-3.2298796E-2,-5.3833513E0,1.772298E0,-4.0590364E-2,4.2317E0,1.3333E0,9.600715E-1,1.2640331E0,7.2563344E-1,5.8508444E-1,6.244E-1,6.691205E-2,4.0513764E-6,1.75E0,7.75E0,1.0583172E-5,3.0156E0,9.0781957E-1,-2.2871058E-1,1.4458E0,-3.522225E-1,-3.2334578E0,5.4349905E-1,1.9360636E-1,1.6202041E0,-3.7871447E-1,1.4658115E0,5.3343304E-2,-3.2958493E-2,-5.8710814E-2,-6.3530835E-3,-2.8977355E-2,-1.0309366E-3,-3.4254953E-2,1.0381328E-2,-5.293448E-2,-1.4375542E-1,3.70056E-2,-2.2208756E-2,1.9341715E-2,1.4349107E-1,3.7440192E-2,-5.3775072E-2,-1.711986E-2,5.922505E-1,-2.0578246E-1,4.0594514E-2,6.322975E-2,1.4054973E-1,-7.342733E-2,-1.6473438E-1,-3.2778408E-3,-3.9448473E-1,8.096744E-2,4.9208537E-1],"split_indices":[0,0,5,0,5,5,5,5,9,9,5,0,0,0,9,0,11,9,9,11,9,1,1,9,0,5,5,0,5,1,1,0,0,0,0,0,0,0,0,0,0,0,0,0,0,0,0,0,0,0,0,0,0,0,0,0,0,0,0],"split_type":[0,0,0,0,0,0,0,0,0,0,0,0,0,0,0,0,0,0,0,0,0,0,0,0,0,0,0,0,0,0,0,0,0,0,0,0,0,0,0,0,0,0,0,0,0,0,0,0,0,0,0,0,0,0,0,0,0,0,0],"sum_hessian":[5.8358E4,4.6968E4,1.139E4,2.6017E4,2.0951E4,1.0735E4,6.55E2,6.091E3,1.9926E4,8.266E3,1.2685E4,5.8E1,1.0677E4,4.75E2,1.8E2,2.25E3,3.841E3,1.0868E4,9.058E3,1.218E3,7.048E3,1.1246E4,1.439E3,5.2E1,6E0,4.685E3,5.992E3,9E0,4.66E2,3.1E1,1.49E2,3.33E2,1.917E3,3.358E3,4.83E2,4.138E3,6.73E3,8.431E3,6.27E2,1.072E3,1.46E2,1.891E3,5.157E3,1.1108E4,1.38E2,2.28E2,1.211E3,1.3E1,3.9E1,9.7E1,4.588E3,4.75E3,1.242E3,3.69E2,9.7E1,1.2E1,1.9E1,1.3E2,1.9E1],"tree_param":{"num_deleted":"0","num_feature":"12","num_nodes":"59","size_leaf_vector":"1"}},{"base_weights":[-3.3873406E-3,1.4031401E-1,-1.1508996E-1,6.7279965E-1,1.02059916E-1,-4.5121923E-1,-5.2391127E-2,1.333045E0,2.0458893E-1,5.6311734E-2,4.075583E-1,-5.0400525E-1,8.40613E-1,8.936309E-2,-1.326626E-1,-9.6596533E-1,1.5211209E0,-1.0128923E-1,1.207989E0,1.2603423E-1,-1.5702797E-1,3.643661E-1,3.6064816E0,5.29563E-2,-6.265636E-1,5.171395E-1,2.5429056E0,1.447319E-1,-5.722987E-1,-3.0816925E-1,7.708553E-2,3.3834967E-1,-1.9110465E-1,2.254769E-1,8.3072454E-2,1.0159917E-1,-5.8951654E-2,3.2999802E-1,-6.575515E-2,2.0397411E-1,1.1922675E-2,-3.4347635E-2,1.5755113E-2,2.2482831E-2,1.2362744E-1,4.715755E-1,5.3275812E-2,-6.9893086E-3,1.921538E-1,-5.5367675E-2,-1.3511668E-1,1.511611E-1,-5.5545207E-2,7.3626675E-2,5.4926145E-1,8.641827E-3,6.836303E-2,-9.267325E-2,-8.523616E-3,2.6984713E-3,-4.359476E-2,1.4715232E-2,-2.8171107E-2],"categories":[],"categories_nodes":[],"categories_segments":[],"categories_sizes":[],"default_left":[0,0,0,0,0,0,0,0,0,0,0,0,0,0,0,0,0,0,0,0,0,0,0,0,0,0,0,0,0,0,0,0,0,0,0,0,0,0,0,0,0,0,0,0,0,0,0,0,0,0,0,0,0,0,0,0,0,0,0,0,0,0,0],"id":24,"left_children":[1,3,5,7,9,11,13,15,17,19,21,23,25,27,29,31,33,35,37,39,41,43,45,47,49,51,53,55,57,59,61,-1,-1,-1,-1,-1,-1,-1,-1,-1,-1,-1,-1,-1,-1,-1,-1,-1,-1,-1,-1,-1,-1,-1,-1,-1,-1,-1,-1,-1,-1,-1,-1],"loss_changes":[9.3208093E2,5.172417E2,6.885149E2,5.2587335E2,3.311383E2,3.5065076E2,3.1333902E2,3.0673547E2,3.0611975E2,3.0658484E2,4.250739E2,3.368977E2,1.0991557E2,3.648251E2,6.472189E2,2.2843814E2,3.288766E2,4.1789655E2,9.114977E2,2.0212654E2,2.9783417E2,3.703111E2,1.3728119E2,2.04667E2,2.1288489E2,1.832388E2,1.6648582E2,2.8867493E2,1.3267458E2,4.0993658E2,2.0141069E2,0E0,0E0,0E0,0E0,0E0,0E0,0E0,0E0,0E0,0E0,0E0,0E0,0E0,0E0,0E0,0E0,0E0,0E0,0E0,0E0,0E0,0E0,0E0,0E0,0E0,0E0,0E0,0E0,0E0,0E0,0E0,0E0],"parents":[2147483647,0,0,1,1,2,2,3,3,4,4,5,5,6,6,7,7,8,8,9,9,10,10,11,11,12,12,13,13,14,14,15,15,16,16,17,17,18,18,19,19,20,20,21,21,22,22,23,23,24,24,25,25,26,26,27,27,28,28,29,29,30,30],"right_children":[2,4,6,8,10,12,14,16,18,20,22,24,26,28,30,32,34,36,38,40,42,44,46,48,50,52,54,56,58,60,62,-1,-1,-1,-1,-1,-1,-1,-1,-1,-1,-1,-1,-1,-1,-1,-1,-1,-1,-1,-1,-1,-1,-1,-1,-1,-1,-1,-1,-1,-1,-1,-1],"split_conditions":[9.970205E-1,-7.0238596E-1,-7.9988253E-1,9.075537E-1,2.059215E0,1.140179E0,-1.103638E-6,-7.3627074E-5,5.0004464E-1,3.2970685E-1,1.4257258E0,4.7815058E-1,1.8424977E0,1.213914E0,3.617573E-6,7.9174066E-1,-1.4099441E-1,1.4098951E0,6.19216E-1,-1.1780605E-4,1.8836531E-6,7.6976085E-1,1.1086927E-1,1.1006472E0,2.9788854E0,-1.1610891E-7,7.4805666E-6,4.311858E-1,1.067397E0,-6.5064386E-2,8.8363004E-1,3.3834967E-1,-1.9110465E-1,2.254769E-1,8.3072454E-2,1.0159917E-1,-5.8951654E-2,3.2999802E-1,-6.575515E-2,2.0397411E-1,1.1922675E-2,-3.4347635E-2,1.5755113E-2,2.2482831E-2,1.2362744E-1,4.715755E-1,5.3275812E-2,-6.9893086E-3,1.921538E-1,-5.5367675E-2,-1.3511668E-1,1.511611E-1,-5.5545207E-2,7.3626675E-2,5.4926145E-1,8.641827E-3,6.836303E-2,-9.267325E-2,-8.523616E-3,2.6984713E-3,-4.359476E-2,1.4715232E-2,-2.8171107E-2],"split_indices":[6,1,5,6,3,6,11,11,5,5,5,3,3,5,11,6,4,3,5,11,11,1,4,6,3,11,11,1,6,5,5,0,0,0,0,0,0,0,0,0,0,0,0,0,0,0,0,0,0,0,0,0,0,0,0,0,0,0,0,0,0,0,0],"split_type":[0,0,0,0,0,0,0,0,0,0,0,0,0,0,0,0,0,0,0,0,0,0,0,0,0,0,0,0,0,0,0,0,0,0,0,0,0,0,0,0,0,0,0,0,0,0,0,0,0,0,0,0,0,0,0,0,0,0,0,0,0,0,0],"sum_hessian":[5.8065E4,2.5395E4,3.267E4,1.701E3,2.3694E4,5.135E3,2.7535E4,7.05E2,9.96E2,2.0609E4,3.085E3,4.934E3,2.01E2,9.955E3,1.758E4,5.3E1,6.52E2,7.64E2,2.32E2,1.5533E4,5.076E3,3.045E3,4E1,8.9E2,4.044E3,1.7E2,3.1E1,9.187E3,7.68E2,9.571E3,8.009E3,9E0,4.4E1,3.15E2,3.37E2,2.32E2,5.32E2,1.09E2,1.23E2,5.4E1,1.5479E4,3.187E3,1.889E3,2.626E3,4.19E2,2.9E1,1.1E1,8.36E2,5.4E1,3.676E3,3.68E2,8.8E1,8.2E1,2E1,1.1E1,8.291E3,8.96E2,4.44E2,3.24E2,2.642E3,6.929E3,6.701E3,1.308E3],"tree_param":{"num_deleted":"0","num_feature":"12","num_nodes":"63","size_leaf_vector":"1"}},{"base_weights":[7.444529E-3,-1.4735171E-1,4.045073E-1,-2.4031903E-1,1.9614294E-3,3.209394E-1,8.6763227E-1,-3.7552747E-1,-2.0466311E-1,1.3335548E-1,-1.1278571E-1,3.6747083E-1,-3.7177297E-1,1.2933354E0,4.4633988E-1,1.6849635E0,-3.854895E-1,-1.8431695E-1,-5.1149523E-1,2.2964574E-1,-8.950047E-2,-8.1248134E-1,-8.906551E-3,5.709986E-1,2.269614E-1,2.1547556E0,-4.3695816E-1,9.414579E-2,1.6675049E0,7.8727597E-1,-4.512699E-1,5.6698173E-1,-8.155186E-3,-5.6936992E-3,-4.3117195E-2,-1.1656921E-2,-2.612469E-2,-4.1311104E-2,-1.1385081E-1,2.7391365E-2,-6.4292215E-2,3.4419548E-2,-4.123534E-2,-1.1457807E-1,-4.6666026E-2,1.17394544E-1,-3.4552456E-3,-2.5159419E-2,6.672127E-2,-5.3754795E-2,4.8698615E-2,4.599615E-1,-1.8877764E-1,-7.644964E-2,1.8172605E-2,-6.734259E-2,2.480839E-1,1.792601E-1,-2.638256E-1,1.357924E-1,-1.8194444E-2,-9.241223E-2,9.192283E-2],"categories":[],"categories_nodes":[],"categories_segments":[],"categories_sizes":[],"default_left":[0,0,0,0,0,0,0,0,0,0,0,0,0,0,0,0,0,0,0,0,0,0,0,0,0,0,0,0,0,0,0,0,0,0,0,0,0,0,0,0,0,0,0,0,0,0,0,0,0,0,0,0,0,0,0,0,0,0,0,0,0,0,0],"id":25,"left_children":[1,3,5,7,9,11,13,15,17,19,21,23,25,27,29,31,33,35,37,39,41,43,45,47,49,51,53,55,57,59,61,-1,-1,-1,-1,-1,-1,-1,-1,-1,-1,-1,-1,-1,-1,-1,-1,-1,-1,-1,-1,-1,-1,-1,-1,-1,-1,-1,-1,-1,-1,-1,-1],"loss_changes":[3.56447E3,5.792093E2,6.292932E2,1.2389465E2,2.4142943E2,4.4437036E2,4.4527576E2,1.10775085E2,1.269541E2,1.6021089E2,6.212939E2,3.6920813E2,1.4389441E2,5.544363E2,3.831958E2,1.8348428E2,8.012396E1,9.9447754E1,7.7565186E1,2.0153748E2,3.15607E2,1.2682965E2,2.258566E2,4.175785E2,1.5194252E3,2.2611835E2,1.7177734E2,5.420983E2,5.1212256E2,5.0189404E2,2.2442444E2,0E0,0E0,0E0,0E0,0E0,0E0,0E0,0E0,0E0,0E0,0E0,0E0,0E0,0E0,0E0,0E0,0E0,0E0,0E0,0E0,0E0,0E0,0E0,0E0,0E0,0E0,0E0,0E0,0E0,0E0,0E0,0E0],"parents":[2147483647,0,0,1,1,2,2,3,3,4,4,5,5,6,6,7,7,8,8,9,9,10,10,11,11,12,12,13,13,14,14,15,15,16,16,17,17,18,18,19,19,20,20,21,21,22,22,23,23,24,24,25,25,26,26,27,27,28,28,29,29,30,30],"right_children":[2,4,6,8,10,12,14,16,18,20,22,24,26,28,30,32,34,36,38,40,42,44,46,48,50,52,54,56,58,60,62,-1,-1,-1,-1,-1,-1,-1,-1,-1,-1,-1,-1,-1,-1,-1,-1,-1,-1,-1,-1,-1,-1,-1,-1,-1,-1,-1,-1,-1,-1,-1,-1],"split_conditions":[4.975385E-1,3.2985517E-1,9.76088E-1,1.5889195E-1,-4.9023866E-3,9.600715E-1,2.75E0,-4.4671254E0,5.228461E-1,1.2685319E0,3.263548E-3,-4.2785004E-2,2.9155733E-3,5E-1,2.9788854E0,4.2317E0,6.691205E-2,4.1019E0,1.2955741E-5,1.213914E0,3.5E0,3.2333154E-2,-3.018097E0,8.333E-1,1.1907368E-2,9.437467E-2,1.794803E0,1.4666436E0,3.37722E-1,6.868036E-6,1.43857405E-5,5.6698173E-1,-8.155186E-3,-5.6936992E-3,-4.3117195E-2,-1.1656921E-2,-2.612469E-2,-4.1311104E-2,-1.1385081E-1,2.7391365E-2,-6.4292215E-2,3.4419548E-2,-4.123534E-2,-1.1457807E-1,-4.6666026E-2,1.17394544E-1,-3.4552456E-3,-2.5159419E-2,6.672127E-2,-5.3754795E-2,4.8698615E-2,4.599615E-1,-1.8877764E-1,-7.644964E-2,1.8172605E-2,-6.734259E-2,2.480839E-1,1.792601E-1,-2.638256E-1,1.357924E-1,-1.8194444E-2,-9.241223E-2,9.192283E-2],"split_indices":[0,0,0,0,4,5,9,5,4,3,4,4,10,9,3,9,0,9,11,5,9,5,5,9,4,4,3,0,4,11,11,0,0,0,0,0,0,0,0,0,0,0,0,0,0,0,0,0,0,0,0,0,0,0,0,0,0,0,0,0,0,0,0],"split_type":[0,0,0,0,0,0,0,0,0,0,0,0,0,0,0,0,0,0,0,0,0,0,0,0,0,0,0,0,0,0,0,0,0,0,0,0,0,0,0,0,0,0,0,0,0,0,0,0,0,0,0,0,0,0,0,0,0,0,0,0,0,0,0],"sum_hessian":[5.7991E4,4.1725E4,1.6266E4,2.5714E4,1.6011E4,1.3781E4,2.485E3,5.364E3,2.035E4,7.464E3,8.547E3,1.2914E4,8.67E2,1.235E3,1.25E3,2.5E1,5.339E3,1.9086E4,1.264E3,5.212E3,2.252E3,1.104E3,7.443E3,5.273E3,7.641E3,2.1E1,8.46E2,2.94E2,9.41E2,9.06E2,3.44E2,7E0,1.8E1,6.52E2,4.687E3,1.015E4,8.936E3,1.094E3,1.7E2,4.961E3,2.51E2,9.61E2,1.291E3,5.61E2,5.43E2,1.57E2,7.286E3,5.52E2,4.721E3,1.939E3,5.702E3,1.3E1,8E0,5.53E2,2.93E2,2.23E2,7.1E1,9.15E2,2.6E1,5.7E2,3.36E2,2.56E2,8.8E1],"tree_param":{"num_deleted":"0","num_feature":"12","num_nodes":"63","size_leaf_vector":"1"}},{"base_weights":[-2.2413127E-2,-1.3034831E-1,3.4719127E-1,-2.1962E-1,6.270097E-3,9.922728E-1,2.8322557E-1,-2.4285915E-1,-3.4437776E-2,1.372337E-1,-1.1032657E-1,1.6451917E0,7.114102E-2,2.0925799E-1,6.605005E-1,-2.593652E-1,1.4764999E-1,1.7207985E-1,-1.9556668E-1,3.6272725E-1,1.4728894E-2,-8.05816E-1,-4.747718E-3,-1.3933833E-1,1.9215654E0,-1.972199E-1,2.957522E0,-3.3337733E-1,2.85349E-1,5.7934934E-1,2.9110856E0,-1.8780602E-2,-3.6395624E-2,8.295087E-2,-7.4635324E-4,-7.96848E-2,2.9571438E-2,-1.4466779E-2,-1.0208267E-1,2.9206646E-3,5.6819357E-2,3.6533705E-3,-1.22412674E-1,7.743899E-2,-9.3004964E-2,-1.4305184E-2,1.3084439E-2,1.3210136E-1,-1.3442574E-1,1.7744526E-1,5.9001833E-1,2.4279965E-2,-1.6719277E-1,5.792443E-1,-1.53229805E-2,2.01219E-2,-7.005472E-2,6.404375E-2,1.4741363E-2,6.373353E-2,-2.4310727E-1,6.1154413E-1,-4.7313605E-2],"categories":[],"categories_nodes":[],"categories_segments":[],"categories_sizes":[],